0.0650476 0.0643187 0.0606051 0.0625254 0.0614009 0.0669089 0.0726759 0.070312 0.057283 0.0531869 0.0502552 0.0540007 0.0496252 0.0436893 0.0476775 0.0507601 0.0466584 0.0371291 0.0387499 0.04335 0.0398302 0.0561973 0.0633864 0.0677781 0.0738088 0.0739259 0.0649233 0.0545098 0.0501495 0.0413045 0.0425723 0.0409915 0.0440291 0.0419842 0.0401628 0.0440134 0.0467566 0.0491951 0.0445016 0.0465319 0.0488632 0.0466637 0.0548502 0.0609698 0.0546396 0.0500414 0.0441135 0.0382249 0.0326929 0.0327475 0.0282097 0.0303151 0.0326571 0.0400149 0.0409338 0.0390074 0.0372828 0.0405614 0.0417898 0.0418611 0.0416697 0.0517789 0.0580548 0.0802698 0.0608225 0.0495916 0.0439359 0.030563 0.0282223 0.0265167 0.0318738 0.0320363 0.0359166 0.0392712 0.0412861 0.0398848 0.0290147 0.0310604 0.0448257 0.0627074 0.0617068 0.0630243 0.0572131 0.0630524 0.057115 0.0476319 0.0442344 0.0435274 0.0384557 0.0345329 0.0277452 0.033522 0.0387136 0.0428608 0.0434607 0.0444403 0.0385642 0.0336949 0.0365727 0.0431743 0.0631669 0.0689855 0.0743602 0.0788697 0.0692605 0.0494909 0.0411834 0.0347186 0.0287873 0.0262747 0.0303138 0.0362127 0.0409334 0.0482642 0.0476928 0.042126 0.0358712 0.031618 0.0462345 0.0549903 0.0607307 0.0688385 0.0641851 0.0592826 0.0628667 0.0600468 0.055818 0.0503913 0.0409257 0.033418 0.0341098 0.0318631 0.0315865 0.0319173 0.0356349 0.0339117 0.0294649 0.0304207 0.0227791 0.0317774 0.040441 0.0468121 0.0620618 0.0654241 0.0644249 0.0666385 0.0691214 0.0550968 0.0453889 0.0395215 0.0406386 0.0407612 0.0428797 0.0409767 0.0403469 0.0297707 0.0266964 0.0231297 0.0306567 0.0243892 0.0413119 0.0525107 0.0565349 0.0649436 0.065777 0.0673849 0.0803956 0.083128 0.0497499 0.0408009 0.0334383 0.0386171 0.0520986 0.0519811 0.0457052 0.0472425 0.0432613 0.035394 0.0440454 0.0686403 0.071607 0.110142 0.127189 0.11634 0.100626 0.100643 0.101578 0.106744 0.0860855 0.0537224 0.06553 0.0722608 0.0735132 0.0804802 0.0789183 0.0817274 0.0857187 0.082872 0.0844214 0.0957803 0.12435 0.118188 0.109642 0.0929929 0.0882621 0.0804733 0.0815219 0.0781056 0.0662757 0.0388494 0.0714111 0.074507 0.0815305 0.0978195 0.111428 0.103992 0.0958056 0.0910381 0.0780331 0.0651209 16.1154 0.0720692 0.0689073 0.0711913 0.0769769 0.0727894 0.0811691 0.0782603 0.0481172 0.033629 0.00854833 0.108201 0.135773 0.154933 0.165383 0.170624 0.163176 0.135164 0.121419 0.091986 0.0803761 0.0654959 0.0625272 0.0670983 0.084509 0.0838826 0.0599264 0.0623602 0.0431176 0.0142523 0.00392174 -0.00412994 0.167378 0.173604 0.176141 0.167511 0.168539 0.15202 0.120507 0.109502 0.0861881 0.0770807 0.0751962 0.0934812 0.0880181 0.0768076 0.0658231 0.030373 0.00757167 -0.00514213 -0.0125705 -0.00652447 -0.00489628 0.188538 0.195448 0.182323 0.165615 0.15296 0.139294 0.0986757 0.0874271 0.0826634 0.0730643 0.0757795 0.0826519 0.0742523 0.0594228 0.0442358 0.0131513 -0.000129208 0.00234573 -0.00319134 -0.00373184 -0.00511005 0.184009 0.162933 0.143212 0.136756 0.130722 0.121934 0.100598 0.0939467 0.0886614 0.0891918 0.101827 0.115503 0.090442 0.055348 0.0307758 0.0132246 0.0072225 0.00525663 0.00103142 0.00369176 0.00437302 0.14924 0.129563 0.124348 0.118673 0.107848 0.0912887 0.0683338 0.0642344 0.0768725 0.0780594 0.090388 0.102823 0.0907735 0.047728 0.022583 0.0102048 0.00906082 0.00574302 0.00685435 0.0113631 0.00903381 0.139177 0.140805 0.133654 0.13256 0.127747 0.115316 0.0891191 0.0757798 0.0814553 0.0866717 0.0983995 0.0999508 0.0855066 0.0464019 0.0222868 0.0144478 0.0100375 0.00984688 0.0108912 0.0134146 0.00749949 0.146955 0.146738 0.135515 0.134085 0.143378 0.142844 0.120895 0.10707 0.0919797 0.0871545 0.0885642 0.0822817 0.066137 0.032198 0.0166409 0.011104 0.0108188 0.0113331 0.0144589 0.019166 0.0149523 0.159111 0.155459 0.147208 0.14852 0.157923 0.153778 0.135757 0.117127 0.0842439 0.0747607 0.0638197 0.0559337 0.0484113 0.024993 0.0163658 0.0199362 0.0226732 0.0228909 0.0212609 0.0240645 0.0220612 0.196984 0.182061 0.170766 0.158706 0.154995 0.145393 0.111189 0.0912274 0.0683218 0.065878 0.0672449 0.0542077 0.0380545 0.0292076 0.0343327 0.0285704 0.0245781 0.0301136 0.0267623 0.0258 0.0253325 0.187841 0.180577 0.159182 0.136414 0.114734 0.107045 0.0748845 0.0719903 0.0772434 0.0793186 0.0747265 0.063792 0.0519176 0.0391949 0.0392592 0.0415917 0.0402731 0.0369819 0.0318396 0.0291949 0.0282864 0.035646 0.0353739 0.0339836 0.0371014 0.0373986 0.0429235 0.0465826 0.0435071 0.0315522 0.0311375 0.029179 0.030349 0.0245922 0.0236103 0.02521 0.0339443 0.0307803 0.0255408 0.0259888 0.0271627 0.0222696 0.028604 0.0364439 0.0402185 0.0462764 0.0427471 0.0384795 0.0297462 0.0264219 0.0153062 0.0165904 0.0166353 0.0174222 0.0161273 0.0133635 0.0236237 0.0312059 0.0271166 0.0223542 0.0233908 0.0215131 0.0182597 0.0236143 0.0295049 0.0252634 0.0220804 0.0184308 0.0164003 0.0123707 0.0141245 0.0101833 0.0140939 0.0148514 0.0164886 0.0154175 0.0140749 0.0156735 0.0213032 0.0148077 0.0159362 0.0226201 0.0269187 0.0281881 0.0363232 0.0224756 0.0164989 0.01467 0.00727747 0.00528019 0.00326072 0.010314 0.0103734 0.0150281 0.0184289 0.0175683 0.0134385 0.00506265 0.00657713 0.025532 0.0279574 0.0181703 0.0264098 0.0200918 0.0293291 0.0207897 0.0128175 0.0129275 0.0119212 0.0103595 0.00273212 -0.000380029 0.00884689 0.011361 0.0131309 0.0142203 0.0183646 0.00864423 0.00255401 0.00644149 0.0154315 0.0214065 0.0183509 0.0267148 0.0289603 0.0275073 0.00538423 -0.000422507 -0.00163749 -0.00268854 -0.00536141 -0.00271437 0.00502669 0.00816516 0.0135102 0.0106306 0.00607423 0.0045601 0.00389617 0.0109076 0.0176039 0.0193783 0.0228577 0.0169813 0.0148616 0.0186259 0.0200529 0.0109297 0.00550756 -0.000106129 -0.00215493 -0.000922145 -0.0027035 0.000657012 0.00202795 0.00755596 0.00879707 0.0115846 0.00998574 0.00153835 0.00461544 0.00852564 0.0109809 0.0178839 0.0182419 0.0174897 0.0221586 0.0247674 0.00375819 -0.00321211 -0.00531823 -0.00280948 -0.00527894 -0.00298699 0.0031001 0.00704183 -0.0010329 0.000151815 0.000654546 0.00167093 -0.00852585 0.00472319 0.00966613 0.0146133 0.0179039 0.0180228 0.0275595 0.038564 0.0381756 -0.00038839 -0.00987303 -0.0160395 -0.00831125 -0.00129705 -0.000285889 -0.00300819 0.00175657 -0.000307539 -0.00115858 0.00944976 0.0250915 0.0266353 0.0619548 0.074094 0.0704795 0.0560991 0.0508821 0.0537159 0.0638778 0.0472003 -0.00204673 0.00857313 0.00541425 0.00521271 0.00185022 0.00300452 0.00355787 0.00768312 0.0160668 0.024784 0.0443351 0.065314 0.0638903 0.0574055 0.0425852 0.0387624 0.0387686 0.0362684 0.0361587 0.0330622 0.01712 0.00591295 0.00520899 0.00105181 0.00746501 0.0165701 0.0173323 0.0132316 0.0141364 0.0124166 0.0168175 0.0287237 0.0324511 0.0267365 0.0292993 0.0280313 0.0236519 0.0320385 0.0299451 0.0251998 0.018785 0.00427229 0.0311378 0.0461419 0.0513241 0.0597881 0.068693 0.0620688 0.0414818 0.0361025 0.020481 0.0217533 0.0176675 0.0189575 0.0284281 0.0439127 0.0438963 0.0348899 0.0332027 0.0172495 0.00933158 0.00304796 -0.00445956 0.0612219 0.0655844 0.0692741 0.064095 0.0642203 0.0495756 0.0268504 0.0265557 0.0138686 0.0199382 0.0271783 0.0394696 0.0439139 0.038618 0.0333445 0.014474 -0.000700734 -0.00632519 -0.0119555 -0.00667089 -0.00284332 0.0727201 0.079925 0.0746452 0.0590331 0.0454374 0.0386201 0.0152497 0.0170058 0.0155829 0.0167771 0.0269641 0.0325032 0.0284995 0.026197 0.0247956 0.00326286 -0.00768636 -0.00167928 -0.00569712 -0.00809664 -0.00304003 0.06981 0.0553902 0.040093 0.0345796 0.0331263 0.0242591 0.0133327 0.0198928 0.0236083 0.0338626 0.0531769 0.064615 0.0470589 0.0335541 0.0177028 0.00472542 -0.0023068 -7.72316e-05 -0.000756077 0.00192928 0.0028547 0.0479237 0.0344096 0.0332312 0.0259087 0.0207224 0.00969514 -0.00427293 0.00318159 0.0198552 0.0288701 0.0424815 0.051461 0.0481637 0.0264527 0.00802251 0.00177083 -1.84727e-05 -0.00144199 0.00123548 0.00928587 0.00959069 0.0562865 0.0482057 0.0424511 0.0390964 0.0394303 0.0383378 0.0223583 0.0200744 0.0318795 0.0396868 0.05045 0.0537531 0.0504329 0.0251363 0.00655713 0.00308489 0.000615514 0.00753516 0.0103238 0.00995064 0.00524056 0.0572502 0.051128 0.0519897 0.047024 0.0529356 0.060325 0.0488398 0.046924 0.0378385 0.0367151 0.039925 0.0397764 0.0322865 0.0130272 0.0032062 -8.48261e-05 0.000258224 0.00346918 0.00881539 0.0126256 0.00983338 0.0744349 0.0699982 0.070615 0.0632554 0.0717465 0.0753149 0.0631011 0.0523437 0.0380022 0.0413341 0.0406441 0.0330584 0.0273977 0.0126869 0.00360494 0.00870782 0.0103985 0.0151101 0.0157081 0.0174504 0.0161371 0.0999305 0.0895792 0.0843576 0.0809103 0.0802929 0.0765802 0.0547305 0.0479366 0.0350446 0.0364985 0.0416989 0.034042 0.0218702 0.0190029 0.0195372 0.0154489 0.0117277 0.0186705 0.0180499 0.0184607 0.0193266 0.0979558 0.0896887 0.0794491 0.0709198 0.0536145 0.0498068 0.0254288 0.0311828 0.0413502 0.0438539 0.0440331 0.0391703 0.0333795 0.0245134 0.0231382 0.025897 0.024815 0.0237406 0.023341 0.0239592 0.0221413 0.0111936 0.013354 0.0140086 0.0163972 0.0188509 0.0216449 0.0301909 0.0285885 0.0174839 0.016356 0.014899 0.015488 0.0106882 0.00698918 0.0120053 0.0121751 0.00867012 0.00842169 0.0123203 0.0150584 0.0158256 0.00824832 0.0154034 0.0189578 0.0246873 0.0232647 0.0218215 0.0166279 0.011995 0.00211014 0.00167865 0.00655778 0.00714114 0.00177328 -0.0049503 0.00575826 0.00940386 0.0077089 0.00767338 0.00947729 0.00970591 0.0105799 0.00270183 0.00690902 0.00384938 0.00403491 0.00244368 -0.000140521 0.00140998 0.00237295 0.000638304 0.00380616 0.00891362 0.00879289 0.00308803 0.00039314 0.00234404 0.00241775 -0.00196887 0.000720477 0.00903725 0.011374 0.0114062 0.0103691 0.000875577 -0.00285784 -0.00324032 -0.0049234 -0.00846592 -0.00763669 -0.00119093 0.00428461 0.00878457 0.0116975 0.00886475 0.0037201 -0.00757058 -0.00535415 1.68947e-05 0.00347181 -0.00502624 0.00641695 -0.000244772 0.00773808 -0.00409161 -0.0114417 -0.0102148 -0.00781811 -0.00624075 -0.0148144 -0.0126198 -0.00591827 -0.00455288 0.000468973 0.00320929 0.0100507 -0.00263019 -0.0112992 -0.00516081 -0.00145128 0.00168097 -8.33534e-06 0.00971164 0.00765634 0.00754097 -0.0148406 -0.0192106 -0.0233694 -0.0226363 -0.0201361 -0.0152355 -0.00531878 -0.00352023 -0.00178279 0.00111554 -0.00162164 -0.00383106 -0.00896142 -0.0111603 -0.009421 -0.00608258 -0.0052734 -0.0067937 -0.00551463 0.000589032 -0.00033047 -0.0104758 -0.0122365 -0.0177341 -0.0184006 -0.0144344 -0.0161058 -0.009163 -0.00542493 -0.00289222 0.0031419 0.00328217 -0.00191679 -0.0128288 -0.0139874 -0.0109866 -0.0137319 -0.00642843 -0.000531206 -4.99306e-06 0.00779867 0.00672221 -0.0129106 -0.0170624 -0.0184436 -0.0134939 -0.0139093 -0.0154218 -0.00639234 -0.00138901 -0.00829799 -0.00501955 -0.00612495 -0.0092404 -0.0227005 -0.0154732 -0.0104881 -0.0142998 -0.0107803 -0.00547497 0.00646332 0.0205012 0.0195841 -0.018893 -0.0240946 -0.0260105 -0.0156503 -0.0097532 -0.0135817 -0.0144537 -0.0105673 -0.0106801 -0.00700172 -0.00475176 -0.00039503 -0.00253573 0.0210696 0.0378825 0.0348 0.0250745 0.0249992 0.035172 0.0475104 0.0318987 -0.0203579 -0.00862514 -0.00985039 -0.0119855 -0.0124442 -0.016157 -0.0151195 -0.0135781 -0.0037858 0.00809984 0.0247424 0.0343351 0.0307519 0.0312587 0.0183795 0.0139021 0.0155847 0.0171065 0.0174527 0.0195669 0.00841984 -0.0132653 -0.00852033 -0.013643 -0.00698427 -0.000282037 0.00137532 0.000395198 -0.000588811 -0.0039456 8.5749e-05 0.00825196 0.011223 0.00783111 0.0137725 0.00615125 0.00581376 0.0130866 0.0138773 0.0186706 0.0139778 -0.00156738 0.00195681 0.0160739 0.0259136 0.0396475 0.0457436 0.0448249 0.0232481 0.0148192 0.00928376 0.00959496 0.0024478 0.00458828 0.0156676 0.0290015 0.027755 0.02379 0.0326992 0.0146128 0.00770838 0.00141078 -0.00630509 0.0233887 0.0321553 0.0365248 0.0376433 0.0374188 0.0300336 0.0109048 0.00858266 0.00241913 0.0126961 0.0172832 0.0264117 0.0286928 0.0268311 0.0252095 0.00992542 0.00720214 -0.00237306 -0.00688778 -0.00350793 -0.00445163 0.024657 0.0426972 0.0454769 0.0321616 0.0194012 0.0125435 -0.000997933 0.0030161 0.004298 0.00834461 0.0150709 0.0160716 0.0130249 0.0151013 0.0211775 0.00360222 -0.00368277 -0.0021082 -0.00354289 -0.0052001 -0.00512647 0.0271348 0.02223 0.0120755 0.010358 0.0163853 0.00437242 0.000198083 0.00248999 0.00676067 0.0193137 0.0346154 0.0445585 0.0375024 0.0316307 0.0208649 0.010688 0.0034178 0.00226549 0.00328 0.00409129 0.00311951 0.00933543 0.00290039 0.00799614 0.00801498 0.00672951 -0.0085357 -0.0155845 -0.00481167 0.0119002 0.0231211 0.0362348 0.0421986 0.0399801 0.0246623 0.0141828 0.00908274 0.00509065 0.00408755 0.00669253 0.0102994 0.0103492 0.0199702 0.0200529 0.0167129 0.0172794 0.022413 0.0175395 0.011516 0.0118681 0.0158944 0.021826 0.0324971 0.0381275 0.0433588 0.0216953 0.00935527 0.00715229 0.00459698 0.0114361 0.0134585 0.0113453 0.00801494 0.0229148 0.020653 0.0169419 0.0143469 0.0230016 0.0333227 0.034122 0.0308063 0.02828 0.0281647 0.0310937 0.0326147 0.0298273 0.0118801 0.0051862 0.0035779 0.00382852 0.00637799 0.00934877 0.0110578 0.0114164 0.040906 0.0345563 0.0362748 0.0351353 0.0409462 0.0429542 0.0472443 0.0322663 0.0284983 0.0351974 0.0352954 0.0308825 0.026228 0.0121711 0.00667091 0.013977 0.0167278 0.0201624 0.0187841 0.0163683 0.016715 0.0629697 0.05254 0.0453196 0.0531704 0.0547016 0.0477723 0.0398209 0.0334135 0.0243192 0.0310095 0.0396634 0.0339781 0.0239674 0.0202872 0.0205213 0.0193279 0.0141616 0.019641 0.0193253 0.0207492 0.0216241 0.0596352 0.0576093 0.0488426 0.0456157 0.0358035 0.0341144 0.0176355 0.020398 0.0318376 0.0389391 0.0394231 0.0385856 0.0334969 0.0237461 0.0255686 0.0246758 0.0216372 0.022252 0.0195572 0.0212564 0.0223241 -0.000355413 0.00154148 0.00282633 0.00554103 0.0114683 0.0164538 0.0216314 0.019508 0.0109622 0.00761923 0.00963013 0.0103196 0.00359024 0.00150419 0.00788674 0.00707953 0.00729319 0.00774173 0.0101029 0.0111559 0.00951014 -0.00639309 0.000992302 0.000843088 0.0139387 0.0148144 0.0144333 0.00854515 0.00385183 -0.0060347 -0.00454632 0.00166279 0.00232343 -0.00382885 -0.00949119 -0.00131449 0.00135699 0.000754407 0.00258341 0.00860326 0.0138454 0.00674219 -0.00930647 -0.00110915 -0.00288801 -0.00569885 -0.00789467 -0.00611728 -0.00643068 -0.00653859 -0.00617663 -0.00226327 0.00213853 0.00574893 0.000544944 0.000435558 -0.00119916 -0.00100583 -0.00726474 -0.00626107 0.00187812 0.00959066 -0.000675753 -0.00206403 -0.00733916 -0.00828186 -0.010532 -0.0147366 -0.0162244 -0.0145877 -0.00826485 0.00148937 0.00768349 0.00882555 0.00567546 -0.000614071 -0.014328 -0.0142598 -0.00765466 -0.00563155 -0.0205458 -0.00351942 -0.00641616 0.00145465 -0.0113921 -0.0136053 -0.0148737 -0.0126982 -0.0152201 -0.0213822 -0.0192148 -0.0139829 -0.00682546 -0.000119677 -0.00159614 0.0036306 -0.00486116 -0.0104081 -0.01765 -0.0178487 -0.0153879 -0.0206919 -0.0112929 -0.00658694 -0.0087387 -0.0228915 -0.0241141 -0.0294385 -0.028202 -0.0279499 -0.0219957 -0.0108659 -0.00871186 -0.00990911 -0.00326233 -0.00467969 -0.00709134 -0.0128454 -0.0139063 -0.0227143 -0.0192983 -0.0225496 -0.0226804 -0.022246 -0.0104896 -0.0123788 -0.020705 -0.0192467 -0.0256659 -0.0245037 -0.022964 -0.0219823 -0.0163542 -0.00731872 -0.0040661 -0.000739037 0.00182142 -0.00259317 -0.0194342 -0.0198974 -0.0264996 -0.0306238 -0.0251634 -0.0208272 -0.0196905 -0.0121474 -0.011592 -0.0262526 -0.0239694 -0.027126 -0.0218107 -0.0186336 -0.0200503 -0.0147433 -0.00578264 -0.0116558 -0.00724491 -0.00438367 -0.0088763 -0.0263538 -0.0195088 -0.024534 -0.0275264 -0.0266184 -0.0173969 -0.0100624 0.00416399 0.00412534 -0.0262013 -0.0249335 -0.0299939 -0.0199795 -0.0120835 -0.017514 -0.0209878 -0.0166659 -0.0128098 -0.0103985 -0.00658439 -0.00498311 -0.0201393 0.00386139 0.0155673 0.0125496 0.00941928 0.0110077 0.00861622 0.0170823 0.0112529 -0.0253699 -0.0115247 -0.0104686 -0.0174687 -0.014149 -0.0161948 -0.0179383 -0.00807585 -0.00133779 0.00353196 0.014962 0.0262339 0.00988878 0.00831403 -0.00558322 -0.0120535 -0.00620161 6.52867e-05 -0.0038574 0.00759139 0.00661849 -0.0188014 -0.0118237 -0.0158079 -0.00998875 0.0011452 0.00203983 -0.00109134 -3.44928e-05 4.89635e-05 -0.000997423 0.00482185 0.00344959 0.00284279 -0.00153057 -0.00556763 -0.00977848 -0.0035196 0.00463651 0.00864107 0.0158593 -0.00153258 -0.0107837 0.00472318 0.0129108 0.0209446 0.0337092 0.0380945 0.0182025 0.00931909 -0.000493621 0.00486882 -0.000435011 -0.00599977 0.00258275 0.0117104 0.00845274 0.0102457 0.0202307 -0.000805514 -0.0015348 0.000931665 -0.00718054 0.0107717 0.0217968 0.0254551 0.024429 0.0307733 0.0264019 0.00628583 0.00304262 -0.0102801 5.65653e-06 0.0104465 0.0193203 0.0194986 0.0140505 0.0183263 0.00403463 0.00220032 -0.00470069 -0.00931095 -0.00515527 -0.00527581 0.0175876 0.036008 0.0366706 0.0282831 0.0138675 0.0141117 -0.00217302 0.00505159 0.00293769 0.00729094 0.0119137 0.00460286 0.00657046 0.00752314 0.0165653 0.00247845 -0.00538008 -0.00363163 -0.00979837 -0.0122791 -0.00698239 0.0227277 0.0159307 0.00911787 0.00988667 0.0138098 0.00469262 -0.00578963 0.00618152 0.00516294 0.0133299 0.0291682 0.0339234 0.0297005 0.0248272 0.0196454 0.0107894 0.000599666 0.00159976 -0.0018888 -0.00125389 -0.00327065 0.0104019 0.00660601 0.00563126 0.00281515 -0.00121272 -0.010072 -0.019386 -0.00904987 0.00829334 0.0192124 0.0314518 0.0320927 0.0331563 0.0191875 0.0143191 0.00741741 0.00355283 0.00339932 0.00270907 0.0064264 0.00517972 0.0140549 0.0127544 0.00704003 0.00947275 0.0106075 0.0144507 0.00489638 0.00657984 0.0137394 0.0175252 0.0239267 0.0253955 0.0337111 0.0179386 0.0114465 0.00925325 0.00417043 0.00746474 0.00722216 0.00662856 0.00471264 0.0190991 0.0150702 0.00645282 0.00978079 0.0155176 0.0260656 0.0208271 0.0189369 0.0175203 0.0213324 0.0242945 0.0244321 0.0237289 0.0070385 0.0062279 0.00412631 0.00194367 0.00419997 0.00492048 0.00467858 0.00484734 0.0309422 0.0296231 0.0267876 0.0197354 0.0196153 0.0257965 0.032518 0.0232344 0.0198379 0.0283557 0.0327775 0.0225046 0.0224718 0.01225 0.0073849 0.0105374 0.0132826 0.0158829 0.0144299 0.0118868 0.0120431 0.0462321 0.0405921 0.0367398 0.0485643 0.0484185 0.0413028 0.0354583 0.0303644 0.0205414 0.0298527 0.0369034 0.0317089 0.0208746 0.0203671 0.0206964 0.0180753 0.013157 0.0158791 0.0140417 0.0154578 0.0166208 0.0462219 0.0541983 0.0431947 0.0404438 0.0335216 0.0389885 0.0211228 0.0230882 0.0291055 0.0332103 0.0328034 0.0326968 0.0302877 0.0225944 0.0253912 0.0242114 0.0186083 0.0209529 0.0184701 0.0186843 0.0163709 -0.00764 -0.00494765 -0.00517049 -0.00122551 0.00169705 0.0100569 0.0149868 0.0143628 0.011006 0.00899113 0.0114476 0.007388 0.00308404 0.00228956 0.00795073 0.0102856 0.00937275 0.0103378 0.0117037 0.0103087 0.00756697 -0.0172296 -0.0109954 -0.00363554 0.00998521 0.0118344 0.0103375 0.009124 0.00527084 -0.000131132 0.00122119 0.00522812 0.00416326 -0.00234107 -0.00338541 0.00178902 0.00365123 0.00366635 0.00675263 0.00765643 0.00867663 -0.00172057 -0.0161734 -0.00538272 -0.00627827 -0.00689936 -0.00817824 -0.00597165 -0.00631924 -0.00515264 -0.0015038 0.00161266 0.00633622 0.00983197 0.0041803 0.00238689 -0.000662236 -0.00240132 -0.00834016 -0.007542 0.00146392 0.00739269 0.000616237 -0.00525579 -0.00693574 -0.00628546 -0.00828923 -0.00862674 -0.0111615 -0.011416 -0.00606064 0.00552892 0.00745159 0.00654234 0.00518923 0.00104413 -0.0095612 -0.0133105 -0.0080432 -0.00687198 -0.0270767 -0.0118467 -0.0205285 -0.00394847 -0.0171056 -0.017421 -0.0142813 -0.0109833 -0.012644 -0.0169053 -0.0134628 -0.00749341 0.00327025 0.00775388 0.00117002 0.00284138 -0.00780242 -0.0119937 -0.0210925 -0.0211005 -0.019915 -0.028366 -0.0203736 -0.0135314 -0.0177762 -0.0251455 -0.0253259 -0.0261103 -0.0228923 -0.023112 -0.018199 -0.00851647 -0.000586995 0.00307867 0.00382132 -0.00294536 -0.00633935 -0.0101466 -0.0116773 -0.0235856 -0.0214065 -0.0256416 -0.0268125 -0.0277553 -0.010366 -0.0153335 -0.0213632 -0.0181915 -0.0212426 -0.0225334 -0.0181521 -0.0186008 -0.0144899 -0.00788718 -0.0017373 -0.00121493 -0.00340582 -0.00555801 -0.0183951 -0.0154573 -0.0263125 -0.0267535 -0.0236203 -0.0265607 -0.0254809 -0.0137977 -0.0169172 -0.024884 -0.0207522 -0.0217333 -0.0159493 -0.0119293 -0.00821033 -0.00466249 -0.00100486 -0.00721225 -0.00282944 -0.00563828 -0.00672298 -0.0225481 -0.0155103 -0.022947 -0.0276203 -0.0262312 -0.016989 -0.0125512 -0.00179341 -0.00534327 -0.0249541 -0.0196106 -0.021805 -0.0122848 -0.00433577 -0.0072087 -0.00955706 -0.00737246 -0.0101343 -0.0151176 -0.00894424 -0.0113574 -0.0265999 -0.00137907 0.00826863 0.000882522 0.00366684 0.00434162 0.00283283 0.0154194 0.00507026 -0.0230789 -0.00271577 -0.012899 -0.0119185 -0.0079316 -0.0118791 -0.0126554 -0.00759192 -0.00580408 -0.00221978 0.0042829 0.0166098 0.00659071 -8.5033e-05 -0.0158695 -0.0192958 -0.00885609 -0.00296797 -0.00209406 0.0045011 -0.00412724 -0.0112659 -0.00351715 -0.0208108 -0.0128434 0.0019834 0.00489333 0.000943135 -0.00254763 -0.0032031 -0.00126912 -0.00264629 -0.00573074 -0.00095639 -0.010455 -0.0164185 -0.0168975 -0.00808447 -0.00143857 0.0162259 0.0204503 0.000665472 -0.00706366 0.00644204 0.0101314 0.0231694 0.0304066 0.0372674 0.0160272 0.0013054 -0.0128045 -0.00451633 -0.0123121 -0.0129184 -0.00329435 0.00218471 -0.00108121 -0.00557366 0.0203829 -0.0117364 -1.05199e-05 0.00396174 -0.00264744 0.00940775 0.019755 0.0217793 0.0148043 0.0158063 0.0200937 0.000133653 -0.00741905 -0.0187138 -0.00516104 -0.000369066 0.0125775 0.0147284 0.00711138 0.0123774 -0.00612256 0.00515138 -0.00307598 -0.00816214 -0.00630767 -0.00367452 0.0157996 0.0355974 0.0355634 0.0186316 0.00515602 0.00295982 -0.0154959 -0.00469558 -0.000331254 -0.00271624 0.00200865 -0.00204987 -0.00133275 -0.000156117 0.0202864 0.000646835 -0.00114301 0.000445406 -0.0045712 -0.00704919 -0.00548224 0.0187265 0.0129527 0.00907076 0.00946107 0.00375484 -0.00494032 -0.0148609 -0.00106328 -0.00225334 0.000828655 0.019109 0.0243339 0.0227293 0.0236026 0.0237965 0.00802086 -0.000100785 -0.000596949 -0.00187419 -0.00181178 -0.00319918 0.0139158 0.00904364 0.00503856 0.00315484 -0.0040131 -0.0170397 -0.0263637 -0.0134883 8.59465e-05 0.00996063 0.0211542 0.0247888 0.0214136 0.0136804 0.0153944 0.00412784 0.000699043 -0.000891384 -0.000565418 0.00654971 0.00416638 0.0169231 0.0146612 0.00817226 0.0056976 0.001545 0.00471707 -0.0096212 -0.0057627 0.00394108 0.00842645 0.0183557 0.0269604 0.0240677 0.0111257 0.00453276 0.00627252 0.00240101 0.00399885 0.00487321 0.00510413 0.00392099 0.0196139 0.0167934 0.00674045 0.00618996 0.00638733 0.0151328 0.0103206 0.0137112 0.00826993 0.0147557 0.0171198 0.0219816 0.0167777 0.00410307 0.00262898 0.00270741 -0.000478956 0.00312175 0.00198615 0.00179198 0.00302907 0.0312572 0.0307457 0.0232608 0.0145785 0.011597 0.0156145 0.021234 0.0197265 0.00959351 0.0306979 0.0298807 0.028292 0.0201774 0.0078385 0.0025132 0.00602025 0.00821314 0.010979 0.0110274 0.00953235 0.00770706 0.0401814 0.0394601 0.0323604 0.0424919 0.0376436 0.0314625 0.0203757 0.0265057 0.0169388 0.0261609 0.0321062 0.0298193 0.020078 0.0185142 0.0168377 0.0148895 0.00907304 0.009743 0.00919481 0.0127269 0.01082 0.0480725 0.0504582 0.0342054 0.0302387 0.0159452 0.0273066 0.010004 0.0213989 0.0295816 0.0304638 0.0286978 0.0338541 0.02749 0.0187994 0.020621 0.0207591 0.0182236 0.0177444 0.0148573 0.0160958 0.0129476 -0.00893502 -0.00913866 -0.0114518 -0.00936438 -0.00768452 -0.000389563 0.0034473 0.00551733 0.000119816 0.00104362 0.0031935 0.000830162 -0.00543914 -0.00511416 0.00109091 0.00414476 0.00444678 0.00312568 0.010202 0.00735498 0.00931405 -0.022272 -0.0200131 -0.0119862 0.00210334 0.0036071 0.00189026 -0.000327178 -0.0044503 -0.0112427 -0.00767481 -0.00490199 -0.00841914 -0.0141459 -0.0124218 -0.00620556 -0.00185827 -0.00191689 0.00027689 0.00725653 0.00685291 0.000300802 -0.0172331 -0.00963145 -0.00998552 -0.0102475 -0.0105205 -0.0133782 -0.0136489 -0.0117934 -0.00948919 -0.00583426 -0.00264877 -8.43175e-05 -0.00301687 -0.00421166 -0.0055878 -0.00305648 -0.0144409 -0.00732298 0.00524401 0.00800092 0.00468204 -0.00908268 -0.0114296 -0.0122457 -0.0105633 -0.00974641 -0.011453 -0.0128237 -0.00765671 0.0011595 0.000304959 -0.000419617 -0.00161523 -0.00519371 -0.0122986 -0.0137846 -0.00691459 -0.0134463 -0.0288404 -0.016175 -0.0182087 -0.00171825 -0.0196651 -0.0192018 -0.0200522 -0.0157076 -0.0153923 -0.0141463 -0.0147805 -0.00856764 0.000942173 0.0021637 -0.00517914 -0.00663572 -0.0127257 -0.0166787 -0.0273244 -0.0228556 -0.0253963 -0.0283018 -0.0230743 -0.0170125 -0.0142405 -0.0267078 -0.0258113 -0.0256705 -0.0202713 -0.0204186 -0.01274 -0.00729729 -0.00387799 -0.00189681 -0.0096097 -0.0167212 -0.0213969 -0.0203776 -0.0174788 -0.0278897 -0.0256687 -0.0291046 -0.0290918 -0.0247866 -0.00803318 -0.0100995 -0.0240517 -0.0166798 -0.0178323 -0.0195516 -0.0177322 -0.0159302 -0.0156948 -0.0094187 -0.00364052 -0.00534897 -0.00583894 -0.00657435 -0.0182042 -0.0166887 -0.0285219 -0.0262722 -0.0268772 -0.0266944 -0.0229286 -0.0107667 -0.0100598 -0.0252059 -0.0204726 -0.022561 -0.0146692 -0.0155483 -0.00783243 -0.00534315 -0.00758533 -0.00853559 -0.00696167 -0.00826394 -0.00500052 -0.0167924 -0.0134956 -0.0252658 -0.0267937 -0.0263912 -0.0214245 -0.0127664 -0.00205252 -0.00501184 -0.0194447 -0.0164124 -0.0258299 -0.0121833 -0.00676879 -0.00594481 -0.00965674 -0.0102794 -0.0114704 -0.0158466 -0.0122071 -0.0185688 -0.0280341 -0.0111425 -0.005375 -0.00982653 -0.0024118 -5.31141e-05 0.00392423 0.0148679 0.00433836 -0.0189732 0.00189659 -0.0144938 -0.0139166 -0.0138592 -0.0183864 -0.0211252 -0.0157834 -0.0143004 -0.0121249 -0.00576189 0.00116858 -0.00333734 -0.0113622 -0.0284134 -0.0300672 -0.0118877 -0.00990377 -0.00576442 -0.000893171 -0.00382696 -0.00875698 0.00305083 -0.0142609 -0.0121764 -0.00400528 -0.00155943 -0.00696225 -0.0105702 -0.0147899 -0.0139091 -0.017571 -0.0209392 -0.00960833 -0.0118666 -0.0161808 -0.0165364 -0.00536502 -0.00297751 0.012345 0.0204987 0.00169822 -0.00614619 0.0102662 0.00996101 0.0183198 0.0207257 0.0221684 0.00406973 -0.0082534 -0.0223341 -0.0215515 -0.0300905 -0.0192718 -0.01304 -0.00344603 -0.00796362 -0.00614638 0.015558 -0.0129993 -0.00274605 0.00629314 -0.00166495 0.00327198 0.0137027 0.012171 0.010644 0.0105522 0.00636542 -0.0138004 -0.0192167 -0.029795 -0.0192392 -0.0131621 0.00161519 -0.000907581 -0.00216399 -0.00116086 -0.00681357 0.00832343 0.00246989 -0.00379281 -0.00389625 -0.00240475 0.009699 0.0205154 0.0185499 0.00586822 -4.43394e-05 -0.00808092 -0.022653 -0.0123286 -0.00953346 -0.0112786 -0.0150009 -0.0156006 -0.020026 -0.0088896 0.00768003 -0.000239249 0.001149 0.00269783 -0.00443634 -0.00611048 -0.0071067 0.00277031 -0.00472081 -0.00360098 -0.00111431 -0.00611062 -0.0131924 -0.0226261 -0.0126241 -0.0058285 -0.00320186 0.00686248 0.0100498 0.00581646 0.0147608 0.0174078 0.00781854 0.0012196 0.000507809 -0.00393001 -0.00132221 -0.00401856 -0.000239619 -0.00232122 -0.00345623 -0.00744469 -0.0167162 -0.0304483 -0.0293215 -0.0160139 -0.00162054 0.00618415 0.0123389 0.013615 0.0117427 0.0115171 0.0134615 0.00129912 -0.00124513 -0.00191495 -0.00224719 0.00124464 0.000586901 0.00514212 0.00553362 0.00530924 -0.000208008 -0.00533653 -0.00915498 -0.015414 -0.0104296 0.00228972 0.00472353 0.00983588 0.0166834 0.0161449 0.0096248 0.00308535 0.00315496 -0.000628972 -0.000631642 -8.2671e-06 0.00225332 0.00240929 0.00720027 0.00204113 -0.00266763 -0.00401495 -0.00218681 -0.000295289 -0.00173465 0.0006599 0.000358818 0.0010252 0.00313737 0.0110438 0.00594886 0.000843965 -0.00141262 -0.00243456 -0.00274012 0.000479747 0.00163094 0.00145633 0.00485236 0.0138389 0.015087 0.0124456 0.00651668 0.00597467 0.00465681 0.0115546 0.0102987 -7.98318e-05 0.0150198 0.0213516 0.0164111 0.0100028 0.00101118 -0.00412182 0.00356315 0.00547038 0.0100653 0.0100233 0.0102061 0.0129966 0.0213362 0.0186354 0.0245297 0.0305563 0.0262111 0.0212242 0.0182696 0.0229985 0.0172161 0.0198895 0.0225387 0.0265256 0.0134833 0.00965568 0.00871412 0.00998511 0.00664156 0.00873474 0.0109949 0.0114272 0.0125118 0.0256649 0.0262637 0.0228365 0.0204837 0.0130746 0.0265735 0.0142615 0.020499 0.0300297 0.0271347 0.0185908 0.02617 0.0198519 0.0135557 0.0141443 0.0151255 0.0134998 0.0146443 0.0133974 0.0143169 0.0139865 -0.0164375 -0.0138125 -0.0172601 -0.0152608 -0.0132442 -0.00684656 -0.0016462 -0.000673633 -0.00397504 -0.00422138 0.00169411 -0.00553094 -0.0109647 -0.014044 -0.00716596 -0.00406105 -0.000858258 -7.87606e-05 0.00530234 0.00599918 0.00466106 -0.0250576 -0.0241376 -0.0217176 -0.00989248 -0.00711529 -0.00715216 -0.00804879 -0.0112569 -0.0158339 -0.011073 -0.00682382 -0.011659 -0.0152868 -0.0150745 -0.00736863 -0.00234756 -0.00522257 -0.00227402 0.00494194 0.0047454 -0.00402678 -0.0227518 -0.014003 -0.016875 -0.0163056 -0.0159395 -0.0197271 -0.0221703 -0.0206731 -0.0167446 -0.0111629 -0.00641885 -0.00467081 -0.00657483 -0.00756011 -0.0057812 -0.00364639 -0.0133842 -0.00763953 0.00201983 0.00185196 -0.00490479 -0.0120668 -0.0141405 -0.0156723 -0.014582 -0.0139151 -0.0169307 -0.018747 -0.0121736 -0.00188406 -0.00256838 -0.00843689 -0.00418487 -0.00468694 -0.00999145 -0.0134764 -0.00785393 -0.0127135 -0.026992 -0.0170434 -0.0176723 -0.0141404 -0.0183251 -0.021339 -0.0244196 -0.0193701 -0.0177255 -0.0179601 -0.0176414 -0.012742 -0.00128297 -0.000267891 -0.00887107 -0.00775459 -0.00813254 -0.0186133 -0.0215777 -0.0197703 -0.0218833 -0.0275328 -0.0237109 -0.016528 -0.0102445 -0.0305762 -0.0280956 -0.0299267 -0.0238839 -0.0248165 -0.016998 -0.0109068 -0.00685276 -0.00489594 -0.0115134 -0.0153828 -0.0191986 -0.0192127 -0.0224017 -0.0316384 -0.0336431 -0.0287956 -0.029276 -0.0262909 -0.0101445 -0.00729657 -0.0280038 -0.0211069 -0.0234255 -0.0241222 -0.0214062 -0.0187997 -0.0153944 -0.0106252 -0.0052985 -0.00291566 -0.00214765 -0.00615778 -0.0170149 -0.0215773 -0.0339072 -0.0355081 -0.0286363 -0.027569 -0.0211473 -0.0110557 -0.0111049 -0.025761 -0.0216608 -0.0283553 -0.0287038 -0.0261467 -0.0160611 -0.0176983 -0.015047 -0.0158187 -0.00950971 -0.00777658 -0.00531502 -0.0154657 -0.0152442 -0.0266912 -0.0300689 -0.0214051 -0.0189793 -0.0146139 -0.00759287 -0.00504246 -0.0218298 -0.0176139 -0.0276884 -0.0226599 -0.0154369 -0.0140169 -0.0181806 -0.0203422 -0.0201649 -0.0184151 -0.0122381 -0.0134021 -0.0225407 -0.00711328 -0.00267744 -0.00329958 0.00145893 0.00569538 0.000915165 0.00441996 -0.00256605 -0.0231288 -0.00248883 -0.0185593 -0.0258543 -0.0233737 -0.0281164 -0.0287582 -0.0213051 -0.0213823 -0.0159768 -0.0107928 -0.00367598 -0.00377559 -0.00686665 -0.0252585 -0.0261189 -0.0121218 -0.0116344 -0.0131497 -0.00524532 -0.00597547 -0.0122014 -0.00198155 -0.0182119 -0.023906 -0.0124977 -0.00818318 -0.0116496 -0.013382 -0.0202449 -0.0190902 -0.0275765 -0.0292479 -0.018028 -0.0172805 -0.015643 -0.0220964 -0.0109967 -0.008895 8.50169e-05 0.0225131 0.000960127 0.00111027 0.00141234 0.00495648 0.00686653 0.0141647 0.00929956 -0.00452237 -0.0108914 -0.0270065 -0.023009 -0.0296405 -0.0211206 -0.0164303 -0.00892444 -0.0114259 -0.015366 0.0155993 -0.000411034 -0.0120417 0.0082601 -0.000828514 0.00379635 0.00684929 0.00944276 0.00770965 0.00826931 0.0016832 -0.0166 -0.0174291 -0.0265211 -0.0182913 -0.0185579 -0.0041904 -0.00758718 -0.00803923 -0.00307375 -0.0108139 0.00135257 0.000364054 -0.00267421 -0.00196496 -0.00129555 0.0101954 0.0128625 0.0141187 0.00563126 -0.00646732 -0.0156178 -0.0263315 -0.0141212 -0.0128027 -0.0129228 -0.0196804 -0.01302 -0.0187693 -0.0128079 0.00720795 -0.000962032 0.000375245 0.00390451 -0.00189329 -0.00511265 -0.00620966 0.00577098 -0.00323207 -0.00346442 -0.00364608 -0.0119617 -0.018504 -0.0264287 -0.0177028 -0.0147616 -0.0108589 -0.0111168 -0.000557876 0.00073914 0.00123826 0.0112958 0.00552068 -0.000832843 -0.00104093 -0.00104788 0.00110496 -0.00171521 0.000629683 -0.0013507 -0.00745203 -0.0161321 -0.0213652 -0.0314158 -0.0383598 -0.0275583 -0.0097179 -0.00331514 -0.00456713 0.00014176 0.0105256 0.00205793 0.00797859 -0.0002962 -0.00292726 -0.000299144 0.00087784 0.00324986 0.00330606 0.00788506 -0.000175884 -0.00225159 -0.00548685 -0.00879401 -0.0135327 -0.0202515 -0.0201618 -0.00923055 -0.0068854 -0.0056306 0.00131509 0.0181656 0.00205033 0.00218561 0.00116132 -0.0015963 -0.00119284 -0.000138845 -0.00170493 0.000402684 0.00641493 -0.00270647 -0.00706942 -0.00711362 -0.00794216 -0.00713222 -0.0103988 -0.0113213 -0.0128196 -0.0090719 -0.00564671 -0.00413711 0.00675096 -0.00354344 -0.00023268 -0.00209737 -0.00252369 -0.00116418 0.000219802 -0.00130536 0.00034218 0.009034 0.00752037 0.00316024 -0.00140729 -0.00118786 -0.00218028 -0.00324701 -0.00693996 -0.011903 0.00437847 0.0150617 0.00959749 0.0114156 0.000820729 -0.00215874 0.00416472 0.00506607 0.00747906 0.00614941 0.00622429 0.0112332 0.01435 0.0166559 0.0192646 0.0233501 0.017063 0.0132426 0.00827356 0.0163564 0.0134848 0.0159767 0.0161408 0.0177634 0.0110039 0.00342664 0.00586541 0.00645405 0.00545185 0.00911515 0.0108314 0.00689297 0.00905918 0.0165017 0.0227873 0.0122279 0.0122648 0.00841345 0.0247627 0.0110264 0.0134644 0.0206185 0.018105 0.00960071 0.0170528 0.0158076 0.00958848 0.00964457 0.0113017 0.00879554 0.00904941 0.00769082 0.00740955 0.00892197 -0.023487 -0.0227143 -0.023768 -0.021642 -0.0180677 -0.0143667 -0.00996742 -0.00563343 -0.00789907 -0.00540344 0.00112512 -0.0112402 -0.0141345 -0.0165437 -0.00997207 -0.00365466 0.000226759 0.00176794 0.00601223 0.00893781 0.00743599 -0.0308844 -0.0258608 -0.0212892 -0.0032149 -0.00104631 -0.00319316 -0.00516464 -0.0115874 -0.0185875 -0.01525 -0.0118862 -0.0169155 -0.0201178 -0.0176455 -0.0100023 -0.00545248 -0.0041644 -2.30277e-05 0.00879667 0.0101736 0.000620298 -0.0205135 -0.0156873 -0.0167578 -0.0143906 -0.0182547 -0.0234222 -0.0237154 -0.0216597 -0.0187344 -0.0134801 -0.00765673 -0.00890946 -0.0106211 -0.00895173 -0.0064327 -0.00771464 -0.00883743 -0.00461887 0.00566657 0.00450238 -0.000725745 -0.0133561 -0.0173417 -0.0196835 -0.0162974 -0.0202108 -0.0214183 -0.0194014 -0.0121773 -0.00282452 -0.00078707 -0.0012439 -0.0054265 -0.00689767 -0.0116359 -0.00853508 -0.00805573 -0.0133196 -0.0289916 -0.015225 -0.0168238 -0.0113968 -0.0212 -0.0241389 -0.0285308 -0.0236653 -0.0250972 -0.0234097 -0.0188313 -0.0122431 -0.000700433 0.000591307 -0.0027176 -0.00549974 -0.00727265 -0.012935 -0.0162609 -0.021782 -0.0270465 -0.0370248 -0.0286773 -0.0238855 -0.0113095 -0.0304904 -0.0299387 -0.0317769 -0.0273148 -0.0274813 -0.0213858 -0.0126658 -0.00711976 -0.00330105 -0.00731818 -0.00772015 -0.00945224 -0.0115579 -0.0113866 -0.0239772 -0.0305576 -0.0330134 -0.0336409 -0.0320886 -0.0173003 -0.0154525 -0.0260069 -0.0182834 -0.0224574 -0.0216744 -0.0211803 -0.018974 -0.0165013 -0.00871077 -0.001731 0.00273641 0.00402122 0.00231831 -0.0100156 -0.014758 -0.0273009 -0.0285532 -0.0254141 -0.0238539 -0.0189754 -0.0104956 -0.0143379 -0.0247057 -0.0193546 -0.0213882 -0.0205388 -0.0211748 -0.0138926 -0.0146127 -0.014894 -0.0153407 -0.00637697 -0.00246435 0.00247067 -0.00542552 -0.00477297 -0.0197428 -0.0288849 -0.0273389 -0.0205428 -0.0104023 -0.00899184 -0.0100505 -0.0222461 -0.0174967 -0.0261895 -0.0197745 -0.0136525 -0.0127222 -0.0151226 -0.0171852 -0.0176077 -0.0156104 -0.00819624 -0.0081678 -0.0231647 -0.013428 -0.0134668 -0.0149606 -0.00664853 -0.00423112 0.00211815 0.00214717 -0.00475971 -0.0255345 -0.00907114 -0.0196589 -0.0263211 -0.0204291 -0.0256169 -0.0245051 -0.0186517 -0.0175424 -0.0153437 -0.00388921 -0.00246841 -0.00676254 -0.0091929 -0.0214106 -0.024176 -0.0131241 -0.0154491 -0.0122917 -0.00470935 -0.00709894 -0.0163935 -0.0101824 -0.0141735 -0.0182986 -0.0117898 -0.00966426 -0.0129167 -0.0150831 -0.0182148 -0.0181869 -0.0227408 -0.0249051 -0.0181072 -0.0204305 -0.0181777 -0.0241569 -0.0139966 -0.0129273 0.00238744 0.0181496 0.00667037 -0.00192972 -0.00134829 0.00445426 0.00335207 0.0106164 0.00521693 -0.011811 -0.0158428 -0.023519 -0.0192935 -0.0205447 -0.0183349 -0.0188108 -0.0106034 -0.00811336 -0.0121259 0.0092875 -0.00109296 -0.0044623 0.00978858 0.00204416 -0.00413657 -0.00159885 -4.3756e-05 -0.00417888 7.85798e-05 -0.00221432 -0.0161066 -0.0197868 -0.0262539 -0.0196454 -0.0134636 0.00169477 -0.00426785 -0.00687504 0.0061738 -0.00296211 0.00692708 0.00581927 0.00234436 0.00211916 0.00328239 0.000924868 0.00421569 0.0056972 -0.00272309 -0.00966031 -0.017941 -0.0263527 -0.0178354 -0.0157572 -0.0132729 -0.0146103 -0.0110277 -0.0129357 -0.00690912 0.0103552 0.00369004 0.00705588 0.00890562 0.00331263 -0.00145415 -0.00558154 -0.00646494 -0.0139298 -0.0132686 -0.0122179 -0.0160291 -0.0219213 -0.0251813 -0.0186692 -0.0124914 -0.00800008 -0.00582541 0.00185527 0.00390136 0.00961684 0.0200556 0.00977745 0.00552887 0.00465059 0.00171824 0.0034575 0.00150771 -0.00719744 -0.0135252 -0.0152925 -0.0224417 -0.0254881 -0.0334476 -0.0399021 -0.0275089 -0.00461498 0.000796999 -0.000748389 0.000726137 0.00539899 0.00461768 0.0139086 0.00372644 0.00142421 0.00321687 0.00184721 0.00450724 0.00488726 0.00324788 -0.00344127 -0.00327197 -0.00877264 -0.00899845 -0.012905 -0.0209746 -0.0190718 -0.00797598 -0.00936276 -0.00916365 -0.0025348 0.0164322 0.00507419 0.00525093 0.0042819 0.00138578 0.00149307 0.00324141 0.00355289 0.00410971 -0.00158279 -0.00955878 -0.0111865 -0.0144183 -0.00874932 -0.013135 -0.0164281 -0.0154294 -0.0114661 -0.00572206 -0.00706862 -0.00363354 0.0097113 -0.000277052 0.00179469 0.00134892 -0.000557268 -0.000205013 0.00217299 0.000844819 0.00133699 0.00356438 -0.00114514 -0.00378461 -0.0133333 -0.00633911 -0.0101326 -0.0136157 -0.0147865 -0.0171673 0.00765863 0.0195664 0.0111895 0.0166802 0.00529782 0.0025529 0.00717713 0.00525523 0.00777329 0.00722207 0.00690666 0.0120887 0.00328977 0.00553814 0.0128464 0.00995382 0.0128942 0.00834532 -0.00564871 0.00805182 0.0109444 0.0194936 0.0234652 0.02022 0.017434 0.00913017 0.007208 0.00779591 0.00485074 0.0108271 0.0116604 0.0105589 0.0142608 0.00480677 0.0107455 0.00573473 0.00390337 0.00491762 0.0150194 0.00203577 0.013564 0.0170592 0.02101 0.0154283 0.015616 0.0149575 0.00998514 0.0106369 0.00993959 0.00970369 0.0105367 0.00840688 0.00944063 0.0114737 -0.0181591 -0.0158832 -0.0167961 -0.0148241 -0.0142688 -0.00978833 -0.00448638 -0.00388591 -0.00522186 -0.00880226 0.00126699 -0.0112335 -0.0117731 -0.0144433 -0.00775213 -0.00166348 0.00250717 0.00403307 0.00902823 0.0117657 0.0089216 -0.0255827 -0.0223633 -0.0180062 -0.00321589 -0.00217523 -0.00560838 -0.00736117 -0.0138328 -0.0186214 -0.0193395 -0.0115711 -0.0128337 -0.0143277 -0.0121959 -0.00750835 -0.0017572 0.000640493 0.00673685 0.0122215 0.0136876 0.00186571 -0.0169129 -0.0112998 -0.0150104 -0.0140707 -0.0168308 -0.0206655 -0.0205375 -0.0184883 -0.0165273 -0.012771 -0.00433576 -0.0056766 -0.00786634 -0.0066821 -0.0034281 -0.00233828 -0.00491963 5.45222e-05 0.00309125 0.00539981 8.53634e-06 -0.0117562 -0.0124936 -0.0141397 -0.00926368 -0.0153226 -0.0182708 -0.016877 -0.0118693 -0.005205 -0.00397161 -0.0026349 -0.0071951 -0.00694614 -0.00220783 0.000649778 -0.0021813 -0.0154879 -0.023846 -0.0174218 -0.015349 -0.00851412 -0.0209729 -0.0208054 -0.0255251 -0.0232701 -0.0246068 -0.022331 -0.0179371 -0.012917 -0.00414292 0.000280625 -0.00199246 -0.00564133 -0.00623572 -0.00935131 -0.0109254 -0.017892 -0.0239508 -0.0272456 -0.0269016 -0.0253174 -0.014357 -0.0277864 -0.0284122 -0.0313972 -0.0280501 -0.025692 -0.0197682 -0.0133238 -0.00954558 -0.00841371 -0.0104154 -0.012515 -0.0144284 -0.0124814 -0.0102601 -0.0150492 -0.0263885 -0.0287032 -0.0267906 -0.0245836 -0.0200128 -0.0125401 -0.0258117 -0.0216527 -0.0230792 -0.01996 -0.02034 -0.0167548 -0.0152333 -0.0068973 -0.00368644 -0.00216447 0.000174125 0.00153211 -0.00699073 -0.0141499 -0.017857 -0.0248004 -0.0211964 -0.0192347 -0.0185085 -0.0152059 -0.0124205 -0.0245169 -0.0203378 -0.0211158 -0.0190895 -0.0200724 -0.0135757 -0.0178914 -0.0181478 -0.0178102 -0.0118654 -0.00958633 -0.00266165 -0.00258398 -0.00659294 -0.0115045 -0.0245187 -0.0251558 -0.0163915 -0.0098626 -0.00749454 -0.00804113 -0.0226667 -0.0166229 -0.0231963 -0.0198179 -0.0134578 -0.0139896 -0.0189352 -0.0185505 -0.0225114 -0.018113 -0.0121468 -0.0125463 -0.0223093 -0.0159027 -0.0142172 -0.0159817 -0.0115677 0.00281761 0.00236614 -0.000877723 -0.0036745 -0.0205199 -0.00649979 -0.0151107 -0.0231871 -0.0220512 -0.025731 -0.025396 -0.0243518 -0.0272124 -0.0230351 -0.0152948 -0.0111824 -0.0131474 -0.0189395 -0.0191941 -0.0173379 -0.00979218 -0.0100508 -0.00755519 -0.00431248 0.00340362 -0.0107706 -0.00620175 -0.0108282 -0.0198942 -0.0162386 -0.0117232 -0.0147983 -0.0143879 -0.016132 -0.017386 -0.0199767 -0.0206089 -0.0135731 -0.0227474 -0.0169184 -0.0201312 -0.0115459 -0.00841835 -0.000610007 0.0176012 0.0127593 0.000467136 -0.00445683 -0.000576347 -0.00259272 0.00259519 -0.00150092 -0.0142992 -0.0247776 -0.0276012 -0.0218709 -0.0152587 -0.0158675 -0.0178831 -0.015298 -0.0116983 -0.00635419 0.000786712 0.00752884 -0.000961406 0.0120424 0.0049675 -0.00487011 -0.0038421 -0.00312951 -0.00830775 -0.00418496 -0.00631413 -0.0155289 -0.0230508 -0.0263995 -0.0182722 -0.00579232 -0.00237747 -0.0108169 -0.0134698 -0.00354968 -0.00012709 0.00770228 0.00767064 0.00376475 0.00472758 0.0054483 -0.00471331 0.00239438 0.00250473 -0.00264558 -0.0105763 -0.0200765 -0.020556 -0.0152394 -0.0121372 -0.00783242 -0.00572507 -0.00943644 -0.0106401 -0.00121055 0.00948644 0.00868088 0.00876053 0.00965035 0.00563934 0.00056259 -0.00283465 -0.0113087 -0.0186391 -0.0203908 -0.0157876 -0.0156285 -0.0184566 -0.0202848 -0.0155385 -0.00793003 0.00145139 0.00255472 0.00294828 0.00555444 0.010597 0.0192649 0.0123788 0.00788545 0.00632698 0.00348899 0.00497711 0.00233071 -0.0137217 -0.013971 -0.0149239 -0.0190112 -0.0287992 -0.0371084 -0.0355361 -0.0202714 0.00594564 0.0123944 0.0109718 0.00728699 0.01225 0.0103756 0.0141205 0.00759757 0.00369844 0.00421992 0.00307231 0.00512471 0.00629804 0.00512997 -0.0044855 -0.00666103 -0.0130264 -0.0107823 -0.013763 -0.0196767 -0.0108509 0.00545598 0.00767334 0.0068535 0.00505705 0.0202688 0.0154716 0.01187 0.0083886 0.0048976 0.00262874 0.00567554 0.00601022 0.005541 0.00641902 -0.00643322 -0.00953504 -0.0102053 -0.00674334 -0.00990602 -0.0122123 -0.0114785 -0.000954053 0.00646954 0.00633255 0.00180729 0.0108916 0.00828029 0.00786765 0.00755339 0.0061279 0.00411095 0.0072417 0.00628741 0.00602568 0.00197981 -0.000112647 -0.00583974 -0.0150708 -0.00790115 -0.00602266 -0.0119919 -0.0129994 -0.00609455 0.0145092 0.0275132 0.0115438 0.0196851 0.0160147 0.00853577 0.0110177 0.00851432 0.00808316 0.00921857 0.00965045 0.0132511 0.00326294 0.00499297 0.00922644 0.00752656 0.00647133 0.00440911 -0.0071735 0.00245884 0.018885 0.0255475 0.0286134 0.0263395 0.0204497 0.0130854 0.0102505 0.00983066 0.00577713 0.0104565 0.00962326 0.00972822 0.012839 -0.00337654 0.0039981 0.00140337 0.000360952 0.000783026 0.00655762 0.00868752 0.0233448 0.0255727 0.0268399 0.021403 0.0227418 0.0233681 0.0153075 0.013618 0.0116419 0.0112393 0.0113778 0.00976053 0.0106157 0.0117975 -0.0156508 -0.0145724 -0.0162205 -0.0167621 -0.0151504 -0.0122352 -0.00630384 -0.00116754 -0.00743388 -0.0110352 -0.00444601 -0.0211663 -0.0173458 -0.0182855 -0.0124601 -0.00832643 -0.0050364 -0.00368207 0.0065062 0.0132057 0.0111879 -0.0209361 -0.0185691 -0.016901 -0.00460847 7.73622e-05 -0.00517035 -0.00855538 -0.0122337 -0.0222111 -0.0201089 -0.0126986 -0.0176795 -0.0195106 -0.0171831 -0.0116566 -0.00953386 -0.00375022 0.0023577 0.00909055 0.0126163 0.00423058 -0.0171901 -0.00874979 -0.0140055 -0.0165637 -0.0172084 -0.0236585 -0.0216294 -0.0194234 -0.0181657 -0.0127026 -0.00703431 -0.00903621 -0.0120873 -0.008418 -0.00579829 -0.00392932 -0.00739593 -0.00214457 0.00702651 0.00570452 0.00119449 -0.00770874 -0.0108062 -0.0127159 -0.0130089 -0.0122491 -0.0165737 -0.0147224 -0.013315 -0.00669064 -0.00250594 -0.00355791 -0.00580658 -0.00522885 -0.00431543 -0.00419216 0.00107522 -0.00579259 -0.0239584 -0.0152896 -0.0137737 -0.0023854 -0.017044 -0.0168333 -0.0189255 -0.0173562 -0.0182518 -0.0198206 -0.0174604 -0.0139779 -0.00726071 -0.00201519 -0.0101927 -0.00993565 -0.0112395 -0.0109362 -0.0162218 -0.0149161 -0.0155699 -0.0259466 -0.0264596 -0.0223026 -0.0163024 -0.0217959 -0.0241358 -0.0267964 -0.0266254 -0.0236749 -0.0211893 -0.0144121 -0.0101284 -0.0136729 -0.0154243 -0.0185088 -0.0156238 -0.0145459 -0.0117556 -0.0211961 -0.0249649 -0.0284622 -0.0277946 -0.0275594 -0.0189436 -0.0194191 -0.0192517 -0.0174971 -0.0154088 -0.017981 -0.0162757 -0.014624 -0.00846148 -4.30629e-05 0.00138176 0.00212852 0.00357109 0.00253191 -0.00745398 -0.0106718 -0.0229739 -0.0178177 -0.0206354 -0.0194015 -0.0200892 -0.0174551 -0.0190453 -0.0187437 -0.0136821 -0.014351 -0.0149827 -0.0133683 -0.0108569 -0.0111582 -0.0108469 -0.0127012 -0.00628581 -0.00735312 -0.00635268 -0.00970327 -0.00596475 -0.0146281 -0.0157023 -0.0210089 -0.0181262 -0.0130866 -0.00972206 -0.0120901 -0.0193121 -0.0136527 -0.0179265 -0.0107273 -0.00120588 -0.00303829 -0.00967519 -0.011295 -0.0156847 -0.0142468 -0.00983138 -0.0159915 -0.0222117 -0.0106817 -0.013486 -0.0142075 -0.0130697 -0.000956709 -0.00322299 -0.00812428 -0.0083156 -0.0177953 -0.00108762 -0.00652077 -0.0125713 -0.0161535 -0.0210382 -0.0199981 -0.0180427 -0.0197884 -0.0180244 -0.010193 -0.00936545 -0.0093875 -0.00854012 -0.0157264 -0.0164381 -0.00974583 -0.00931236 -0.0102082 -0.00478103 0.00179365 -0.00143833 0.00925769 -0.0043557 -0.016564 -0.010712 -0.0075734 -0.0108772 -0.00844475 -0.00902022 -0.0117995 -0.0135144 -0.0178478 -0.0111535 -0.0174598 -0.0148394 -0.0207851 -0.0152822 -0.0131581 0.00407189 0.0260594 0.0142714 0.00299496 0.00411273 0.00342343 0.000906843 0.00674123 0.00111649 -0.0103882 -0.020721 -0.0267028 -0.0212307 -0.0133404 -0.0202092 -0.016963 -0.014121 -0.0113111 -0.00612987 0.00979954 0.00182832 0.000884065 0.0162994 0.0063308 9.66546e-05 0.00561977 0.000612868 -0.0106007 -0.00334058 -0.00955578 -0.0193269 -0.020066 -0.024228 -0.0141433 -0.00566839 -0.00751157 -0.013972 -0.0141526 -0.000945701 -0.00123056 0.0150294 0.0135474 0.00682305 0.00574485 0.00643354 -0.000410212 0.00708695 0.00714633 -0.000558802 -0.00949777 -0.0168081 -0.0210101 -0.0102051 -0.00945177 -0.00330055 -0.000633708 -0.00902438 -0.0187213 -0.00729998 0.0131192 0.00808478 0.0122374 0.0158674 0.0124461 0.00640405 0.00339102 -0.0137455 -0.0196204 -0.0191261 -0.017334 -0.0193778 -0.0208775 -0.0190573 -0.0138575 -0.00887565 0.00295172 0.00508815 0.00517956 0.000390918 0.0116579 0.0263565 0.0172089 0.0139981 0.0112777 0.00831061 0.00897346 0.00624945 -0.0186532 -0.0140998 -0.0194203 -0.0219488 -0.0279696 -0.0323634 -0.0324637 -0.0195666 0.00160645 0.00687761 0.00423945 0.000900634 0.00264226 0.00681623 0.0216894 0.0088004 0.00647748 0.00759997 0.0075812 0.00869519 0.0101818 0.00113255 -0.00716152 -0.00730136 -0.0118119 -0.0132631 -0.0140312 -0.0214154 -0.0124818 0.00350158 0.00431456 0.00233758 0.00163503 0.00838871 0.00519254 0.0117381 0.00740293 0.00622538 0.00623494 0.00775453 0.0070577 0.00875628 0.00201372 -0.0102913 -0.0110027 -0.0127458 -0.0123232 -0.0153771 -0.0189188 -0.0116963 -0.00295011 0.00068891 0.00111339 -0.000801041 0.00197237 -0.00186919 0.00736065 0.00796737 0.00595739 0.00464867 0.00685595 0.00645389 0.00871539 0.000921756 0.00523359 -0.00211567 -0.0158129 -0.0111605 -0.00989532 -0.0149531 -0.0089263 -0.00905517 0.0151566 0.0264594 0.0171322 0.0179715 0.00761483 0.0078596 0.00974459 0.00512632 0.0077044 0.010912 0.0108145 0.0173239 0.00297459 0.00493121 0.0033992 0.0102522 0.00931948 0.00328108 -0.00695447 0.0135121 0.01743 0.0261027 0.0298636 0.0283128 0.0234086 0.013798 0.00949131 0.00946395 0.00630597 0.0119197 0.0131156 0.0121539 0.0161846 -0.00571115 0.00369139 0.000732956 0.00450786 0.00461803 0.013534 0.00473994 0.0223942 0.027318 0.0257235 0.0176488 0.0236083 0.0227154 0.0144379 0.0142977 0.013055 0.0106248 0.0129873 0.0096946 0.0113131 0.0166231 -0.0180144 -0.0206129 -0.023825 -0.0216343 -0.0180133 -0.0168892 -0.0141349 -0.0105073 -0.0159679 -0.0169617 -0.00778234 -0.0199801 -0.0156153 -0.014882 -0.00876379 -0.00528129 -0.00179312 0.000153428 0.0076161 0.011952 0.00938031 -0.022337 -0.0197406 -0.0158212 -0.0057069 -0.00113362 -0.00670816 -0.00661686 -0.0159117 -0.0264894 -0.0242659 -0.0166131 -0.0183206 -0.0136949 -0.0136061 -0.00647173 -0.0036869 -0.00118123 -0.00100919 0.00564533 0.0114976 0.00328815 -0.0170546 -0.0129139 -0.0152922 -0.0171478 -0.0202647 -0.0263103 -0.0233945 -0.0205842 -0.0219837 -0.0157783 -0.00990939 -0.0105768 -0.0085718 -0.00838988 -0.0064165 -0.00652404 -0.00549224 0.00258722 0.00574239 0.00110155 -0.00730875 -0.00963072 -0.0113419 -0.0158892 -0.0109579 -0.0128751 -0.0174507 -0.0159658 -0.0150078 -0.00998125 -0.00784216 -0.00736397 -0.0105509 -0.00909379 -0.00608118 0.00443761 0.0021992 -0.0114591 -0.0254664 -0.0154036 -0.00799117 -0.00985611 -0.0226746 -0.0205113 -0.0231577 -0.0205611 -0.0193764 -0.0207789 -0.0192833 -0.0151863 -0.0113183 -0.00681349 -0.0108968 -0.0130837 -0.012578 -0.0165417 -0.0158736 -0.0156449 -0.0175427 -0.0236895 -0.0291628 -0.0292479 -0.0192918 -0.0271401 -0.0264601 -0.0289397 -0.0261959 -0.0246674 -0.0229686 -0.0171195 -0.00945673 -0.0161919 -0.0206377 -0.0230762 -0.0200468 -0.0214473 -0.0190404 -0.0203398 -0.0323806 -0.0310944 -0.0329216 -0.0282618 -0.0216468 -0.0153249 -0.0191793 -0.0166921 -0.0179882 -0.0184795 -0.0174006 -0.0187135 -0.0143978 -0.00303169 -0.00343181 -0.000270401 0.00052398 0.00532838 -0.0074293 -0.0177598 -0.0220878 -0.0267499 -0.0261434 -0.0250289 -0.0201793 -0.0206087 -0.0230638 -0.0108365 -0.0101241 -0.0133106 -0.0132969 -0.0130712 -0.00921518 -0.0126076 -0.00915027 -0.0127305 -0.00526871 -0.00637792 -0.00411904 -0.0103968 -0.0111682 -0.0149693 -0.02222 -0.0241482 -0.0216777 -0.0182718 -0.0202267 -0.02409 -0.0124215 -0.00745307 -0.0146715 -0.0093077 0.000738413 -0.0040168 -0.0103717 -0.0117742 -0.014794 -0.0107469 -0.00744734 -0.015156 -0.0200116 -0.0211409 -0.0231118 -0.0246886 -0.021572 -0.0124201 -0.0131138 -0.0214287 -0.0208493 -0.00925458 0.00391209 -0.00258113 -0.0125401 -0.016246 -0.021986 -0.0284492 -0.0179534 -0.0218558 -0.0182729 -0.00938492 -0.00466011 -0.0147338 -0.0205446 -0.0278627 -0.0227984 -0.0187881 -0.0195255 -0.0159981 -0.0156655 0.00271868 0.00330192 0.00987484 0.00626599 -0.0114052 -0.00907834 -0.0072144 -0.0137292 -0.0116691 -0.0118625 -0.0100593 -0.0106915 -0.016654 -0.0164676 -0.0193192 -0.011981 -0.0245851 -0.0186494 -0.0172644 2.88659e-05 0.0207645 0.0209626 0.0115247 0.00493675 0.00539605 0.00350128 -0.000287343 -0.00656854 -0.0130732 -0.0240557 -0.0285952 -0.0247035 -0.0186611 -0.0154582 -0.017447 -0.0146333 -0.0141482 -0.0103653 -0.00991092 0.0132472 0.0014316 0.00761173 0.00502631 0.00348993 0.00464191 0.0021661 -0.010918 -0.00952982 -0.0127428 -0.0156211 -0.021211 -0.0255495 -0.0170015 -0.0080402 -0.00406779 -0.0143522 -0.0145981 -0.00310624 0.00421238 0.0043529 0.0119184 0.00547629 0.00435945 0.00472648 -0.00115774 0.00445723 0.0057163 -0.00355669 -0.0144261 -0.0213393 -0.0170514 -0.0140443 -0.00831817 -0.00411463 -0.00181813 -0.0116017 -0.016986 -0.00414647 0.0095927 0.0112725 0.00921575 0.0154491 0.00968028 0.00573206 -0.000430009 -0.0173621 -0.0188713 -0.0205882 -0.0192647 -0.0191317 -0.0201002 -0.0192549 -0.0180897 -0.0100478 0.0023029 0.00537855 9.64055e-05 3.62404e-05 0.0218377 0.0177121 0.0149133 0.0137405 0.0137116 0.00787601 0.00812293 0.00616592 -0.0189965 -0.0158624 -0.0173061 -0.0233325 -0.0270955 -0.0327527 -0.0331522 -0.0221207 0.00450891 0.0121873 0.01199 0.00872406 0.0117222 0.0219777 0.0205776 0.0105912 0.00871183 0.0106589 0.0104573 0.0115784 0.0109096 -0.00317643 -0.0119003 -0.017805 -0.0185333 -0.0147303 -0.0140729 -0.0154099 -0.011616 0.00482055 0.00559794 0.00504547 0.00669762 0.0159324 0.0206798 0.015115 0.0103716 0.0082957 0.0081714 0.0107585 0.0119495 0.0102675 -0.00421712 -0.0113845 -0.0151903 -0.0128517 -0.0114188 -0.0137829 -0.0177685 -0.0134262 0.002661 0.00300239 0.00268932 0.00152226 0.01062 0.0113221 0.00983517 0.0126641 0.0109338 0.00881036 0.0103807 0.00990143 0.0102744 -0.00655696 -0.00720554 -0.0079555 -0.0140506 -0.0128963 -0.0117333 -0.0113629 -0.00917163 -0.00104083 0.0159735 0.0280127 0.0116329 0.0197981 0.0137115 0.00950864 0.0120612 0.00938787 0.0123069 0.0149889 0.0152962 0.016837 -0.0103554 -0.00638102 -0.00165626 0.00585978 0.00514088 0.000352551 -0.000590791 0.0043725 0.0195056 0.0271192 0.0320321 0.0256492 0.0220193 0.0138366 0.0124212 0.0109248 0.00805291 0.0127926 0.0136675 0.0129789 0.0156344 -0.00698252 -0.00232316 0.00146604 0.000285817 0.00492987 0.00747042 0.0136113 0.0249983 0.0255038 0.0306133 0.0226242 0.0222704 0.0221917 0.0148783 0.0127865 0.0107481 0.0103791 0.0138445 0.0111479 0.0129644 0.0157887 -0.0258085 -0.0264679 -0.0283911 -0.0232175 -0.0216023 -0.019759 -0.0170331 -0.0101577 -0.0158727 -0.0159085 -0.0038358 -0.0140758 -0.0136191 -0.0128556 -0.00706713 -0.00489398 -0.0014158 0.00260319 0.00763431 0.0119528 0.00954299 -0.0264275 -0.0223182 -0.021372 -0.0104929 -0.00574939 -0.0104891 -0.0115451 -0.0153082 -0.024891 -0.0224337 -0.0147003 -0.0164977 -0.0139396 -0.0107867 -0.00243226 -0.00242324 -0.00122842 0.000676913 0.00351565 0.0113217 0.00419068 -0.0234327 -0.0241581 -0.0279536 -0.0245755 -0.0235428 -0.0277648 -0.0266252 -0.0235093 -0.0216681 -0.0153214 -0.00678917 -0.00760512 -0.00727833 -0.00270741 -0.00261997 -0.00173768 -0.00149045 0.00448074 0.00955613 0.00418428 -0.00148716 -0.0229908 -0.0228681 -0.0268823 -0.017597 -0.0154089 -0.0189149 -0.0159124 -0.0141002 -0.00827754 -0.00590759 -0.0042405 -0.00382622 -0.00450517 -0.00236721 0.00745383 0.00262714 -0.0112874 -0.0264463 -0.0150148 -0.00846013 -0.00535015 -0.028489 -0.030131 -0.0307834 -0.022669 -0.0195992 -0.0220885 -0.0208731 -0.014242 -0.00769151 -0.00608181 -0.00795224 -0.0105537 -0.0152094 -0.0114491 -0.0110191 -0.0101199 -0.0162896 -0.0257627 -0.0286217 -0.0240729 -0.0202306 -0.0359562 -0.0314476 -0.0338471 -0.0289716 -0.0265183 -0.0226703 -0.0175264 -0.0122813 -0.00868971 -0.020915 -0.0242766 -0.022201 -0.018795 -0.0160802 -0.0199454 -0.0287449 -0.0300172 -0.0283833 -0.0265919 -0.0145996 -0.0142447 -0.0303177 -0.0261552 -0.02435 -0.0206596 -0.0199449 -0.0188136 -0.0148475 -0.00961282 -0.00488066 -0.00256571 -0.000116123 0.00144897 -0.00652333 -0.0163327 -0.0224769 -0.0271885 -0.0269173 -0.0255662 -0.0225787 -0.0167791 -0.0177708 -0.0207544 -0.0180243 -0.0223904 -0.0190111 -0.017655 -0.0127391 -0.0153003 -0.0170541 -0.0178596 -0.00590105 -0.00510529 -0.00519855 -0.0117366 -0.0118228 -0.0171175 -0.0193062 -0.0205324 -0.0156262 -0.0135359 -0.0166026 -0.0243503 -0.0183085 -0.0119075 -0.0189514 -0.0132584 -0.00439475 -0.00882022 -0.0154918 -0.0167791 -0.0169473 -0.0134373 -0.00773275 -0.0146738 -0.0198075 -0.0142987 -0.018474 -0.022398 -0.0158174 -0.00615714 -0.0112567 -0.0156979 -0.0200188 -0.0104775 0.00417309 -0.0099698 -0.0185387 -0.0204085 -0.0243194 -0.0321332 -0.0266578 -0.0254842 -0.0224609 -0.0116121 -0.0125494 -0.0233237 -0.0252979 -0.0249902 -0.02723 -0.0213733 -0.0203171 -0.0199534 -0.0118459 0.001142 -0.00232213 0.00934997 -0.0026204 -0.00705021 -0.0100793 -0.0159246 -0.0198416 -0.0170798 -0.0165266 -0.0165799 -0.0153681 -0.0208356 -0.0161419 -0.021177 -0.012041 -0.027025 -0.021887 -0.0185245 -0.0037938 0.0216708 0.0153338 0.0066709 0.00821221 0.00287677 0.00294328 -0.000387781 -0.00723131 -0.0166082 -0.0244287 -0.0329051 -0.0269021 -0.0208567 -0.0188054 -0.0183065 -0.0151775 -0.0132111 -0.0153869 0.000903147 -0.00319595 -0.00254495 0.0120349 0.00541407 0.00197425 0.00631189 -0.00047228 -0.0143942 -0.0133298 -0.0196505 -0.0214778 -0.0215319 -0.0277561 -0.0168437 -0.00960146 -0.00557065 -0.0136842 -0.0179786 -0.00215866 0.0027063 0.0119875 0.0100907 0.00392999 0.00266559 0.0018571 0.000711887 0.00018064 -0.00155654 -0.00971674 -0.0164285 -0.0209628 -0.0192069 -0.00806407 -0.00629322 -0.00486326 -0.00436792 -0.0152606 -0.0165062 -0.0139743 0.00477382 0.00883866 0.00928595 0.0122245 0.0068782 0.00283301 -0.00102189 -0.0149621 -0.0174178 -0.0155648 -0.0160272 -0.0198909 -0.0196828 -0.02105 -0.016197 -0.0145683 -0.00310166 0.00484839 -0.00255631 -0.00315997 0.0107159 0.0182153 0.01462 0.0119081 0.0126502 0.00662608 0.00504097 0.00476123 -0.0122639 -0.00907046 -0.00932353 -0.0196886 -0.0222295 -0.0267354 -0.0311237 -0.0172231 0.0029673 0.0107956 0.0087519 0.00472773 0.00746261 0.0145604 0.0220926 0.00953559 0.00753495 0.0121844 0.0122402 0.0127882 0.00947315 0.00142396 -0.00610574 -0.00951126 -0.0112932 -0.0103071 -0.0122821 -0.0182049 -0.00539126 0.00690203 0.00711495 0.00306233 0.00236345 0.00688266 0.0162178 0.0160518 0.0141132 0.0144082 0.0128001 0.0112529 0.0114281 0.00832586 -0.00299416 -0.00693604 -0.00774446 -0.00568849 -0.00855939 -0.00992242 -0.0149842 -0.0132551 7.51285e-06 0.00881485 0.00637246 0.00298676 0.00689601 0.0113745 0.0137441 0.0158134 0.0154695 0.0140003 0.013041 0.00950748 0.00903201 -0.00099794 0.000818506 -0.0049662 -0.0108125 -0.0104213 -0.0103234 -0.0110302 -0.00590761 -0.0015623 0.0200872 0.0276284 0.015266 0.0181109 0.0129289 0.0141897 0.0149844 0.0139804 0.0160763 0.0155623 0.0116495 0.011573 -0.00991236 -0.0014266 0.000828232 0.00592719 0.000980968 -0.000614258 -0.00379261 0.00912259 0.0173615 0.0238079 0.0298194 0.0305292 0.0225222 0.0136133 0.0123187 0.0122883 0.00885502 0.0122042 0.0112882 0.0112684 0.0132793 -0.0116345 -0.00562524 0.000167506 0.0044578 0.0014167 0.0113649 0.0113373 0.0228987 0.0242114 0.0239933 0.0169276 0.0255406 0.0212555 0.0125482 0.0106295 0.0102612 0.00735336 0.011471 0.00962419 0.00953048 0.00985124 -0.0285791 -0.0238482 -0.0228492 -0.0194875 -0.0179097 -0.0132695 -0.0122365 -0.007494 -0.0137334 -0.0127552 -0.00168821 -0.0133466 -0.0187317 -0.019499 -0.0165406 -0.0120141 -0.00744482 -0.00195755 0.00488629 0.00763822 0.000138543 -0.0295269 -0.0236208 -0.0207397 -0.00728499 -0.00444797 -0.00896677 -0.0134004 -0.012217 -0.0169316 -0.0165156 -0.0124401 -0.0127743 -0.0143285 -0.0129357 -0.00947341 -0.00971576 -0.00971407 -0.00677262 -0.00201746 0.00699861 -0.00319076 -0.0273585 -0.0234829 -0.0229702 -0.021396 -0.0202142 -0.0213574 -0.0229506 -0.0199135 -0.0166412 -0.0113842 -0.00712823 -0.00414574 -0.00797838 -0.00548099 -0.00546544 -0.00361308 -0.00367347 -0.00524193 -0.00112591 0.000173395 -0.0102448 -0.0236929 -0.030133 -0.0253534 -0.0157314 -0.0125254 -0.0133919 -0.0101656 -0.0135439 -0.00573023 -0.00179206 -0.00524828 0.000516127 -0.000654559 -0.00262517 0.00297271 0.00125775 -0.00803304 -0.0335203 -0.0254436 -0.0161008 -0.00330777 -0.0230397 -0.0279613 -0.0257869 -0.0193757 -0.0136539 -0.0118796 -0.00870564 -0.0106994 -0.00147932 0.000940362 -0.00583611 -0.00549679 -0.0106875 -0.00980082 -0.0138295 -0.0132116 -0.0179669 -0.0327797 -0.0354877 -0.0292586 -0.0249526 -0.0359224 -0.0304389 -0.0280334 -0.023796 -0.0191431 -0.0147017 -0.00590743 -0.00982142 -0.00454375 -0.0135851 -0.0191607 -0.0179461 -0.0183079 -0.00997515 -0.0263356 -0.0307619 -0.0308984 -0.0311517 -0.029866 -0.0139307 -0.0180505 -0.0359977 -0.0279178 -0.0199028 -0.0155252 -0.0102587 -0.0077907 -0.00210906 -0.0083693 -0.0026554 0.00335662 0.00485633 0.0018711 -0.0103824 -0.0109954 -0.0275772 -0.026419 -0.027986 -0.0301491 -0.0312071 -0.0194263 -0.0223842 -0.0214943 -0.0183789 -0.0195172 -0.0172264 -0.0130392 -0.00789827 -0.00833166 -0.0139901 -0.0176075 -0.00663993 -0.00622604 -0.00569827 -0.0135143 -0.00780153 -0.0244847 -0.0271259 -0.0265893 -0.0195344 -0.0225205 -0.0256109 -0.0309159 -0.0199066 -0.00846268 -0.0181782 -0.0156165 -0.00209296 -0.0040838 -0.0108589 -0.0149416 -0.0114081 -0.0116097 -0.011012 -0.0173055 -0.0232822 -0.0132742 -0.0195434 -0.0225344 -0.0176651 -0.0116261 -0.0193416 -0.0218988 -0.0321293 -0.0191489 0.000816173 -0.00931126 -0.0209727 -0.0186412 -0.0186659 -0.0325476 -0.0291046 -0.0253951 -0.0231487 -0.0105063 -0.0153875 -0.0251927 -0.0242886 -0.0222404 -0.0301521 -0.0230059 -0.0244808 -0.0291478 -0.0224781 -0.0167674 -0.00916556 0.004823 -0.00802735 -0.0135175 -0.0130552 -0.0178213 -0.022249 -0.0218063 -0.020255 -0.0182606 -0.0156826 -0.0177574 -0.0106845 -0.0190782 -0.0141802 -0.0297599 -0.0236197 -0.0249741 -0.0192304 0.00765272 0.00519183 -0.0067957 -0.000540352 -0.00240801 -0.00445177 -0.00764204 -0.0153783 -0.02604 -0.0292334 -0.0390951 -0.0305215 -0.0258525 -0.019945 -0.0168158 -0.0153729 -0.0110204 -0.0198366 0.0130543 -0.0105339 -0.0186441 0.00728503 0.00361001 -0.00358539 0.000971876 -0.00466558 -0.0183896 -0.0170878 -0.0223229 -0.0298795 -0.0286728 -0.0300791 -0.0176193 -0.00990536 -0.00658455 -0.0173665 -0.0228414 -0.00131426 -0.00702004 0.0106984 0.00619526 0.00152834 0.000970186 0.00311874 -0.00282498 -0.00133888 -0.0031903 -0.0154748 -0.0263222 -0.0274292 -0.0322912 -0.017246 -0.013454 -0.00689945 -0.00445657 -0.0134108 -0.0173689 -0.0193663 0.00555383 -0.00040701 0.00216312 0.0070617 0.0026151 0.00198684 -0.00394339 -0.0193733 -0.0185376 -0.0170848 -0.0149256 -0.0214745 -0.019319 -0.023958 -0.0206198 -0.0145959 -0.00357377 0.0043127 0.00118983 -0.00249075 0.00392322 0.0197256 0.0103043 0.00633159 0.00403334 -0.00092697 0.00256655 0.00080096 -0.0189723 -0.0139932 -0.00893011 -0.0217495 -0.031075 -0.0347865 -0.0380926 -0.0181462 0.00442831 0.00814657 0.00766165 0.00454173 0.0088131 0.00517184 0.014671 0.00164057 -0.000729199 0.00422436 0.0045485 0.00785656 0.00734588 -0.00336274 -0.00541242 -0.0041556 -0.0136085 -0.0165782 -0.0159543 -0.0220935 -0.00798707 0.00682311 0.00496113 -0.00175209 -0.000538425 0.00629301 0.0058592 0.0152802 0.00814441 0.00623746 0.00597333 0.00632309 0.0070495 0.00488618 0.00220255 -0.00520409 -0.00218418 -0.00526556 -0.00512819 -0.00788075 -0.0124674 -0.00586066 0.00076833 0.00622111 -0.00165046 -0.00201016 0.00802254 0.00457126 0.0103229 0.00869535 0.00720389 0.00642223 0.00731494 0.00546037 0.00522437 0.00170001 0.00421523 0.00383793 -0.00619692 -0.0013356 -0.00448668 -0.0130278 -0.0014963 -0.00422046 0.0177771 0.0256416 0.0172542 0.0207445 0.00867929 0.00978186 0.00795494 0.00759638 0.00970911 0.00878241 0.00546996 0.00694617 -0.00768733 0.00195939 0.00851186 0.00798207 0.00166366 0.00352529 -0.010364 0.012881 0.0208693 0.0220578 0.0268308 0.0304343 0.0229913 0.00698101 0.00949726 0.00858939 0.00579092 0.00692524 0.00463464 0.00182804 0.00627827 -0.00834138 1.43923e-05 -0.00122782 0.00834066 -0.00103098 0.0160545 0.0132913 0.0237477 0.0291511 0.0253305 0.0170995 0.0279404 0.0217466 0.00810724 0.00842345 0.00818567 0.00666135 0.00736813 0.00469318 0.00337527 0.00431884 -0.0306172 -0.0247979 -0.0235676 -0.0199038 -0.0210172 -0.0153434 -0.0157093 -0.0130519 -0.0181536 -0.0181714 -0.009881 -0.0177048 -0.0224397 -0.0245712 -0.0185753 -0.0150908 -0.0117711 -0.00770199 -0.0019595 -0.00351962 -0.00855165 -0.0317785 -0.02345 -0.0230743 -0.00980256 -0.0120567 -0.0131347 -0.0147764 -0.0112749 -0.0165379 -0.0187292 -0.014442 -0.0151421 -0.0197896 -0.0150719 -0.0123213 -0.0130877 -0.0190658 -0.0130665 -0.0119219 -0.00797782 -0.0169824 -0.0256548 -0.0235895 -0.0232425 -0.0231659 -0.0225579 -0.021973 -0.024601 -0.0212168 -0.0172911 -0.0130321 -0.00596863 -0.00478616 -0.00994394 -0.00954041 -0.00429407 -0.00341587 -0.0074315 -0.010922 -0.00683111 -0.0100176 -0.0175411 -0.028155 -0.0289943 -0.0215346 -0.0166206 -0.0146453 -0.0144266 -0.0115827 -0.0111272 -0.00939197 -0.00563943 -0.00518763 -0.0033326 -0.00310137 -0.00227839 0.0067046 -0.000139303 -0.011418 -0.0293769 -0.0260244 -0.0260533 -0.0167157 -0.0266605 -0.0232515 -0.0217235 -0.0177324 -0.0145877 -0.0119694 -0.00735851 -0.00592118 -0.00291681 -0.00080122 -0.00382252 -0.00554301 -0.00893378 -0.00672787 -0.00667205 -0.0115894 -0.0171566 -0.0285961 -0.0368351 -0.0395844 -0.0321689 -0.0274104 -0.0283424 -0.0243162 -0.0192348 -0.0181543 -0.0164685 -0.00933941 -0.00770037 -0.007142 -0.0121076 -0.0165409 -0.0134124 -0.0150614 -0.00951059 -0.0243957 -0.0317651 -0.0375787 -0.0357998 -0.0317237 -0.0237637 -0.0251062 -0.0291687 -0.023861 -0.0176424 -0.0125841 -0.00996367 -0.00751792 -0.00448007 -0.00693088 -0.00108034 0.000567118 0.00239581 0.00948191 -0.00174971 -0.0105601 -0.0222939 -0.0220255 -0.0272866 -0.0302381 -0.027481 -0.0236756 -0.0258609 -0.0191054 -0.0131991 -0.0110511 -0.0102637 -0.00811001 -0.00144839 -0.00662855 -0.0103723 -0.0119687 -0.000377671 -0.00211057 0.00416308 -0.00385143 -0.00139263 -0.0132465 -0.0168292 -0.0249668 -0.0170162 -0.017339 -0.0259536 -0.0311192 -0.0147586 -0.00604546 -0.0096007 -0.00892203 -0.0048788 -0.00729909 -0.0146156 -0.0107311 -0.00901086 -0.00490546 -0.00147325 -0.00488963 -0.0169472 -0.0175592 -0.0211319 -0.0208414 -0.0124531 -0.00843981 -0.0169074 -0.0249689 -0.0268765 -0.00663022 0.00331923 -0.00647148 -0.0139649 -0.0157818 -0.0182966 -0.0316955 -0.0278476 -0.026083 -0.019138 -0.0081586 -0.0143188 -0.0236915 -0.0229415 -0.0280096 -0.0270828 -0.0229864 -0.0260933 -0.0312781 -0.0237843 -0.0153101 0.000105613 0.00479531 -0.00452676 -0.0124005 -0.0159193 -0.01738 -0.0182324 -0.0172738 -0.0179878 -0.0154967 -0.014146 -0.0186016 -0.015753 -0.0173027 -0.0183691 -0.0285901 -0.0248302 -0.0209876 -0.0161799 0.0104505 -0.00112571 -0.00217368 -0.00518283 -0.00372733 -0.00560397 -0.00818567 -0.0163403 -0.023584 -0.0299322 -0.0289999 -0.0246357 -0.0240948 -0.0185481 -0.023446 -0.0210661 -0.0150453 -0.0113219 0.00767467 -0.0043974 -0.00482226 0.0161495 0.00739274 -0.00791858 -0.00824618 -0.010217 -0.0225188 -0.0209637 -0.0262339 -0.0300328 -0.0323637 -0.0235671 -0.0178961 -0.0194785 -0.0140662 -0.0262881 -0.0285716 -0.0141291 -0.00806593 0.0117229 0.00960031 0.00722888 0.00812612 0.00693397 -0.009372 -0.00404519 -0.00636555 -0.0162455 -0.020834 -0.0260166 -0.0266382 -0.0247551 -0.0206944 -0.0125975 -0.0108375 -0.0173482 -0.0194072 -0.0165999 0.00159365 -0.00319201 0.0030004 0.0074852 0.00401769 0.00446791 0.000128829 -0.0240158 -0.0247762 -0.0215075 -0.019699 -0.0271364 -0.0230006 -0.0212128 -0.0283114 -0.0220905 -0.0106537 -0.00588178 -0.011702 -0.0129678 -0.000641638 0.0179259 0.00776351 0.00224404 0.00373034 -0.00118449 0.00261249 0.00174864 -0.0181138 -0.0176785 -0.011548 -0.0215945 -0.0280672 -0.0336347 -0.0316023 -0.021228 -0.00176788 -0.00121157 -0.00220991 -0.00611829 -0.000625724 0.00016233 0.0141249 0.000239111 -0.000878863 0.00424366 0.00446663 0.00481428 0.00394128 -0.0085078 -0.0111082 -0.0131394 -0.0191379 -0.0214842 -0.0236047 -0.0225657 -0.0141877 -0.00556229 -0.00666908 -0.00914098 -0.0118016 -0.00449468 -0.0021692 0.0109038 0.00332963 0.00110015 0.00160086 0.000279934 0.00228738 -0.000836733 -0.00571699 -0.00789513 -0.0100979 -0.0139243 -0.013533 -0.0139254 -0.011821 -0.0103818 -0.00493822 -0.00543941 -0.016607 -0.0185096 -0.00712628 -0.00266118 0.00655976 0.00599573 0.00298191 0.00164692 0.00139938 0.00111469 4.02651e-07 -0.0065809 0.0017076 -0.00626158 -0.0162427 -0.00979308 -0.010525 -0.0130098 -0.0107232 -0.00573149 0.0137161 0.0201041 0.0122701 0.00804896 0.000483467 0.00550255 0.00636557 0.00435293 0.00566223 0.00524783 0.00266099 0.0051662 -0.0116182 0.00264229 0.00538902 -7.75556e-05 -0.00424172 -0.00536115 -0.00880969 0.00447153 0.0123937 0.0150546 0.0205831 0.0234381 0.0144713 0.00559412 0.00551359 0.00515464 0.00117286 0.00166576 -0.00161025 -0.00566806 -0.000841701 -0.00901659 -0.00558807 -0.00982427 -0.00108654 -0.00586098 0.00147113 0.00423105 0.0214502 0.0247468 0.0223585 0.0137591 0.0190583 0.0141555 0.00730815 0.0042831 0.00360018 0.00184737 0.00198202 -0.00244048 -0.00579038 -0.00333016 -0.0273794 -0.0215132 -0.0212634 -0.0168628 -0.0191033 -0.0201754 -0.0159731 -0.014386 -0.0151643 -0.0192371 -0.015217 -0.0191411 -0.0198159 -0.0189745 -0.0164381 -0.0133129 -0.0117965 -0.0124283 -0.00895166 -0.00883813 -0.0141923 -0.0258735 -0.0158819 -0.0172257 -0.0116902 -0.00967328 -0.00942653 -0.0106495 -0.0108426 -0.0151327 -0.0190447 -0.0180949 -0.0145293 -0.0182193 -0.0177725 -0.0142211 -0.0137843 -0.0197337 -0.0153705 -0.0151929 -0.0135548 -0.017635 -0.0217982 -0.0183352 -0.0218311 -0.0189901 -0.0187837 -0.0202553 -0.0220553 -0.0197889 -0.0153507 -0.0134285 -0.00869152 -0.00557632 -0.0121235 -0.0114334 -0.0073488 -0.00847223 -0.01141 -0.0129104 -0.00921363 -0.0146652 -0.0188937 -0.0274519 -0.0257475 -0.0255158 -0.0161929 -0.015104 -0.0148007 -0.0120662 -0.0107954 -0.00636752 -0.000676238 -0.00345724 -0.00422946 -0.00669506 -0.00375279 0.000875638 -0.00413438 -0.0127125 -0.0270504 -0.0274314 -0.0376023 -0.0195433 -0.0243307 -0.0168862 -0.0184781 -0.0123234 -0.00933879 -0.00800595 -0.00441821 -0.000885944 0.00125945 0.0037803 -0.00531112 -0.00628518 -0.0111295 -0.0108814 -0.011458 -0.0147195 -0.0228082 -0.0327157 -0.0455723 -0.0492007 -0.038765 -0.0239603 -0.0199851 -0.0165919 -0.0161339 -0.0131843 -0.0123567 -0.00440585 0.0027727 -0.000919966 -0.00832838 -0.018282 -0.0164966 -0.0178545 -0.0102452 -0.0206741 -0.0272692 -0.0331402 -0.0337855 -0.0337216 -0.0304146 -0.0295342 -0.0310989 -0.0237231 -0.0129103 -0.00747572 -0.00269769 -0.00314899 -0.0018175 -0.00245729 0.000392491 0.00167448 0.00557973 0.0110782 -0.00188631 -0.00741118 -0.0170983 -0.0236333 -0.027503 -0.0333582 -0.0312695 -0.0278955 -0.0287595 -0.0168044 -0.00940732 -0.00701532 -0.00861042 -0.00197168 0.00224907 -0.00471619 -0.0102406 -0.00916862 0.000253866 -0.00201381 0.00356493 -0.0104143 -0.0059653 -0.0151284 -0.0209452 -0.0281663 -0.023274 -0.0265455 -0.033056 -0.03722 -0.00645049 0.0019436 -0.000112267 -0.00582352 -0.00255327 -0.00537181 -0.0108294 -0.00682756 -0.00716267 -0.00475301 -0.00742419 -0.0050689 -0.0225694 -0.0193542 -0.0246473 -0.0209013 -0.0154643 -0.0102277 -0.0278317 -0.0361281 -0.037597 0.00155254 0.0104707 0.000248372 -0.0110653 -0.0125892 -0.0145814 -0.0262452 -0.0295354 -0.0244049 -0.0185447 -0.0120769 -0.0140448 -0.032767 -0.0262421 -0.0320203 -0.0315283 -0.0263353 -0.0287963 -0.0420257 -0.0374706 -0.02588 0.00684769 0.0115388 0.00293247 -0.00346126 -0.00670512 -0.0100585 -0.0174382 -0.0170888 -0.0163999 -0.0140763 -0.0189077 -0.0215237 -0.0203535 -0.0171107 -0.0170987 -0.0239129 -0.0255581 -0.0191362 -0.0228605 0.00553733 -0.00262418 -0.00256572 -0.00268773 0.0010761 -0.000316515 -0.00190726 -0.0118915 -0.0240026 -0.0358318 -0.0379063 -0.0357916 -0.0342743 -0.0246126 -0.0287761 -0.022492 -0.0214437 -0.0159927 -0.000246646 0.00169234 -0.0140847 0.00608989 -0.000903726 -0.00740685 -0.00639577 -0.0119432 -0.0243537 -0.0191537 -0.0173873 -0.0265001 -0.0316329 -0.0288462 -0.0213074 -0.0225714 -0.0142817 -0.027165 -0.0241241 -0.0198531 -0.0106015 0.00159876 0.00377278 0.0036313 0.00656007 -0.000943279 -0.0073736 -0.00336961 -0.00153413 -0.0114734 -0.0147916 -0.0209443 -0.0278086 -0.02372 -0.0202065 -0.0132347 -0.0177559 -0.016556 -0.0218374 -0.0193437 -0.0022551 -0.00174943 -0.00112662 0.00152134 -0.00255371 -0.00182398 -0.00602619 -0.0205295 -0.0234966 -0.0174282 -0.01575 -0.0216406 -0.0227162 -0.0242477 -0.0315623 -0.0246423 -0.0076459 -0.00960924 -0.0131201 -0.0169792 -0.0135459 0.0107016 0.0032436 -0.00132715 -0.000152003 -0.00753513 -0.00363233 -0.00441973 -0.017997 -0.0135168 -0.0109842 -0.0226728 -0.031271 -0.0409752 -0.0385427 -0.0254432 -0.006768 -0.00123008 -0.0080147 -0.00968935 -0.00212206 -0.0119173 0.00561787 -0.00326669 -0.00453928 -0.0027788 -0.00399555 -0.0064944 -0.00794059 -0.00934243 -0.0117312 -0.013657 -0.019252 -0.0199296 -0.0231512 -0.026491 -0.0188415 -0.00809894 -0.00561598 -0.0119106 -0.015452 -0.00145681 -0.0120142 0.00805675 -0.00327851 -0.00475674 -0.00629145 -0.00855407 -0.00726862 -0.00994951 -0.00974043 -0.00821729 -0.0125646 -0.0162546 -0.014666 -0.0122996 -0.0129297 -0.0148154 -0.010607 -0.00678985 -0.0153569 -0.0250792 -0.00674544 -0.0110449 0.00310064 -0.000520169 -0.0029932 -0.00533536 -0.00648861 -0.0060378 -0.00877063 -0.00610836 0.00251784 -0.00981406 -0.0184479 -0.0112059 -0.0162485 -0.0173017 -0.0165732 -0.0152464 0.00390725 0.00858121 0.00154047 0.0116845 -0.00273591 0.00217503 0.00219781 -0.0018089 -0.00186513 -0.00391344 -0.00646625 -0.0033892 -0.0122579 0.00157286 0.00731873 0.00176331 -0.00297022 -0.0114894 -0.0151542 0.00480125 0.0063544 0.010422 0.0137291 0.0122971 0.00812661 -0.000979073 -0.00242771 -0.00292545 -0.00762262 -0.00445204 -0.00613766 -0.00893704 -0.0062623 -0.0171788 -0.0119804 -0.00910171 -0.00352181 -0.00595629 -0.00293765 -0.00293713 0.0187003 0.0161979 0.0136384 0.00495188 0.00541302 0.00575064 -0.00281874 -0.00343897 -0.00304868 -0.00567219 -0.0027213 -0.00657533 -0.00912075 -0.00925905 0.0267179 0.0242023 0.0221749 0.0218751 0.0214707 0.0223051 0.024389 0.021002 0.0166367 0.0146125 0.0137555 0.0138781 0.0115113 0.0103202 0.0114304 0.0127442 0.0113933 0.0099591 0.0106956 0.012917 0.0135091 0.0240645 0.0239157 0.0228653 0.0248278 0.0231558 0.0204428 0.0163362 0.0130322 0.00974428 0.00975279 0.00915646 0.00926995 0.00919512 0.00777983 0.0109427 0.0119099 0.0110801 0.00983682 0.011727 0.01437 0.0157329 0.0231379 0.0225392 0.0192944 0.0170166 0.0136637 0.0112333 0.00958348 0.00759014 0.0064699 0.00691508 0.00656909 0.00671691 0.00707249 0.00624347 0.00697729 0.00789262 0.00826176 0.00957429 0.0102575 0.0152578 0.0175743 0.0282749 0.0221288 0.0177852 0.0141409 0.00929078 0.00745224 0.00521136 0.00422911 0.00407138 0.00722593 0.0081608 0.00865667 0.00743255 0.00608594 0.00645578 0.00867075 0.0130872 0.0142879 0.0146358 0.0156558 0.0160577 0.0220053 0.0164101 0.0138249 0.0119581 0.0086815 0.00688435 0.00566593 0.00655695 0.00791677 0.00998094 0.00942513 0.00958027 0.00766226 0.00610346 0.00607438 0.00640687 0.0130373 0.0171824 0.0178823 0.0205629 0.019307 0.0179313 0.0135521 0.0105101 0.00809946 0.00632143 0.00677672 0.00816219 0.00891749 0.00998765 0.011142 0.00839267 0.00620926 0.00320131 0.00663898 0.00860759 0.00983546 0.0137445 0.0141232 0.0117192 0.0113581 0.012196 0.02108 0.0174203 0.013349 0.00923359 0.00727103 0.00530552 0.00538454 0.00475726 0.00519165 0.00533884 0.00380614 0.00221654 -0.00156721 0.00121688 0.00388992 0.00572577 0.0115205 0.0136743 0.0127295 0.0140032 0.0159539 0.0168198 0.0131379 0.0106417 0.00864629 0.00608645 0.00616199 0.00423526 0.00472225 0.00149902 -0.00099252 -0.00237025 -0.0025264 -0.00635074 -0.000180246 0.00376847 0.0066757 0.0107543 0.0122661 0.0139826 0.0188927 0.0191721 0.0151846 0.0103968 0.00639472 0.0057769 0.0078222 0.00746279 0.00364946 0.00513609 0.00222432 0.00161475 0.00411673 0.0107896 0.00982124 0.0228843 0.0323244 0.0318014 0.0258124 0.0247487 0.0247189 0.0263029 0.0172796 0.0144188 0.0149136 0.0129724 0.0122759 0.0146118 0.0146503 0.0146702 0.0168281 0.0137807 0.015237 0.0190795 0.0286815 0.0282198 0.0266621 0.0205568 0.0191394 0.0168122 0.0183981 0.0152179 0.0119616 0.00137686 0.0171095 0.015839 0.0183831 0.0221874 0.0238469 0.0221801 0.0179331 0.0153623 0.00969819 0.00567014 0.00341209 0.00616575 0.00539752 0.00677248 0.00991043 0.00893502 0.0116708 0.0113689 -0.00162002 -0.00388119 -0.0102342 0.030467 0.0359358 0.0437399 0.0458644 0.0474358 0.0448104 0.0349152 0.0283028 0.0175813 0.0113149 0.00485588 0.00436143 0.00500765 0.0102367 0.00985396 0.0024873 0.000254747 0.000352964 -0.0101044 -0.0103182 -0.012321 0.0459392 0.0471595 0.0492189 0.0463443 0.04536 0.0379837 0.0270838 0.0210937 0.0119935 0.00982745 0.00985318 0.0146559 0.0118195 0.00712642 0.000716498 -0.00803292 -0.0136162 -0.0144843 -0.0147662 -0.0138299 -0.0125104 0.0540081 0.0558382 0.050766 0.0431715 0.0358047 0.0293635 0.0158697 0.0109256 0.00808921 0.00757171 0.00421183 0.00642924 0.00453816 -0.00268365 -0.00871587 -0.0132712 -0.0141871 -0.0125018 -0.0130375 -0.0132155 -0.0121154 0.0522338 0.0438884 0.0344241 0.0303092 0.0268296 0.0220931 0.0145336 0.0117828 0.00996104 0.0112819 0.0128836 0.0145846 0.00732106 -0.00468602 -0.00962552 -0.0111782 -0.011011 -0.0108233 -0.0115139 -0.0101058 -0.00936213 0.0353529 0.0292168 0.0261027 0.0193827 0.0169803 0.0109237 0.00269976 0.000407784 0.00344848 0.00497996 0.00569297 0.00719851 0.00628057 -0.00501295 -0.00865076 -0.00876602 -0.00891718 -0.00878663 -0.00867483 -0.00652878 -0.00719888 0.0348112 0.0312291 0.0291176 0.0275983 0.0234476 0.018521 0.0115257 0.00597881 0.00548284 0.00790889 0.00815229 0.0062953 0.00431772 -0.00409983 -0.00596433 -0.00726042 -0.00835092 -0.00727758 -0.00673425 -0.00645593 -0.00724116 0.0361134 0.0336993 0.0293054 0.0268928 0.027164 0.0262273 0.0186653 0.0151498 0.0112724 0.0097502 0.0069128 0.00349962 0.00169039 -0.00485256 -0.00569128 -0.00676105 -0.00683085 -0.00674481 -0.00641825 -0.00478053 -0.00478169 0.038852 0.0368627 0.0339579 0.0311394 0.0302352 0.0300574 0.0249637 0.0156062 0.00690813 0.00591898 0.00773266 0.00242602 4.95003e-05 -0.00421432 -0.00443836 -0.00325333 -0.00256604 -0.00173454 -0.00209211 -0.00163797 -0.00115937 0.0523273 0.0465355 0.0398869 0.0347688 0.0305697 0.0277076 0.0168113 0.0101828 0.00768125 0.00984427 0.0105488 0.006853 0.00325841 0.000183418 0.000445336 0.000308688 -0.00112799 0.000420096 0.000997194 0.000442295 -0.000197464 0.0489015 0.0453817 0.0382355 0.030509 0.0198003 0.0165193 0.0102653 0.0122289 0.0124931 0.0126576 0.0109933 0.00727783 0.00524829 0.00198866 0.00221708 0.0021624 0.00252101 0.00211459 0.00220997 0.00143595 0.00126138 0.0140363 0.0121203 0.0105027 0.0107764 0.0111633 0.0118622 0.0132385 0.0106558 0.00780935 0.00697526 0.00717534 0.00714197 0.00561934 0.00514371 0.00649546 0.00834518 0.00837123 0.00760997 0.00874353 0.0102827 0.0110843 0.0110194 0.0113679 0.0104994 0.0115468 0.0105331 0.00936585 0.00695124 0.00453513 0.00171172 0.00217343 0.00292186 0.00324838 0.00385788 0.00253404 0.00633264 0.00719459 0.00692219 0.00596222 0.00827197 0.0103763 0.0114777 0.00846135 0.00805689 0.00586764 0.00423828 0.0025646 0.00134475 0.000734179 -0.000176512 -0.000257463 0.000465486 0.00118881 0.00152135 0.00221562 0.00150154 0.00249262 0.00376141 0.00320333 0.00478542 0.00573976 0.0100282 0.0121452 0.0100303 0.00580241 0.00308212 0.00109543 -0.00162347 -0.00253028 -0.00344578 -0.00301583 -0.00213955 0.000717585 0.00184403 0.00196205 0.000241048 0.000280932 0.00106261 0.00366169 0.00553102 0.00631727 0.00678463 0.00756189 0.0092687 0.00497604 0.00120062 0.000399165 -0.000744746 -0.00225836 -0.00373656 -0.00358167 -0.00162915 -6.18794e-05 0.00123155 0.00145542 0.00264553 0.000278623 -0.00104042 -0.000861543 -0.000236919 0.00407332 0.00727376 0.0082813 0.0107565 0.0107508 0.000504549 -0.0026075 -0.00420647 -0.00506868 -0.00575325 -0.00434835 -0.00227134 -0.00124748 -1.30718e-05 0.000870566 -0.000475294 -0.00255019 -0.0045633 -0.00108351 -0.000331607 0.000871705 0.00327 0.00326085 0.00242303 0.00355041 0.00472374 0.00291663 -0.000765007 -0.00352747 -0.00501947 -0.00513144 -0.00621973 -0.00549551 -0.0052642 -0.00400163 -0.00297217 -0.00242888 -0.00322596 -0.00623611 -0.00532072 -0.00459947 -0.002877 0.00167003 0.00320115 0.00293484 0.0047091 0.00663239 -0.00207109 -0.00524856 -0.00722252 -0.00749457 -0.00884607 -0.00778628 -0.00814082 -0.0063255 -0.00840331 -0.00881725 -0.0087434 -0.00910919 -0.0123087 -0.00687845 -0.00452796 -0.00189623 0.000951302 0.00218429 0.00541544 0.00961786 0.0102481 -0.00429385 -0.00786968 -0.0112751 -0.0109707 -0.00945836 -0.00822314 -0.0104567 -0.00742869 -0.009102 -0.00857671 -0.00481859 0.00048828 -0.00109576 0.0100779 0.0184118 0.0184772 0.0142157 0.0147314 0.0154716 0.0175508 0.0106643 -0.00597093 -0.00552214 -0.00943796 -0.00904731 -0.00629264 -0.00534136 -0.0041495 -0.000613388 -0.000694331 0.00208354 0.00850339 0.0160898 0.0150289 0.0133515 0.00737917 0.00646873 0.00559874 0.00775294 0.00584587 0.00384849 -0.00230676 -0.0061763 -0.00759335 -0.00727376 -0.00428362 -0.000959076 -0.000448098 -0.00238171 -0.00204861 -0.00334406 -0.00273194 -0.000407142 0.000780648 -0.000208045 -0.000871054 0.00098325 -0.00074548 0.00267638 0.00297247 -0.00476717 -0.00627988 -0.00980321 0.00191307 0.00447972 0.0107932 0.0143036 0.0177734 0.0173054 0.0100882 0.00707492 0.000713013 -0.00209732 -0.00472322 -0.0042257 -0.00311098 0.00135804 0.00122182 -0.00266433 -0.00424178 -0.00416555 -0.0102559 -0.0102196 -0.0116022 0.00999695 0.0115199 0.0140445 0.0130704 0.0137051 0.00935858 0.00231787 -0.000244075 -0.00567328 -0.00468851 -0.00130588 0.00340455 0.0021047 -0.00114212 -0.00521308 -0.0100042 -0.0127967 -0.0129726 -0.0129998 -0.0129012 -0.0111809 0.0151911 0.0187674 0.0161173 0.0102008 0.00478374 0.000983565 -0.00635188 -0.00682872 -0.00672467 -0.00527153 -0.00528156 -0.00413757 -0.00522721 -0.00857704 -0.0120311 -0.0134954 -0.0130726 -0.0114759 -0.0116205 -0.0119368 -0.010939 0.0152532 0.00908591 0.00269193 0.000498075 -0.00119636 -0.00467184 -0.00791503 -0.0071541 -0.00537518 -0.00168145 0.00216151 0.00409276 -0.000897568 -0.00836547 -0.0118322 -0.0119117 -0.0111119 -0.0105855 -0.0106775 -0.00956097 -0.00905953 0.00264907 -0.00180068 -0.00310646 -0.00704933 -0.0085181 -0.0136051 -0.0177077 -0.0166327 -0.0102956 -0.00747682 -0.00488144 -0.00303207 -0.00235338 -0.00799196 -0.010835 -0.00980111 -0.0103133 -0.00953971 -0.00929939 -0.00713841 -0.00727335 0.00438149 0.00212552 -0.000222719 -0.000581477 -0.0030617 -0.00495246 -0.00788921 -0.00993411 -0.00800141 -0.00551672 -0.00318471 -0.00339769 -0.00260791 -0.00718882 -0.00847102 -0.00863483 -0.0100438 -0.00821977 -0.0073844 -0.00757983 -0.008225 0.00498293 0.00313658 0.00016863 -0.00098943 0.000146657 0.00156184 -0.00276399 -0.00277582 -0.00314009 -0.00388804 -0.00407066 -0.0061773 -0.00559616 -0.00870615 -0.008866 -0.00921666 -0.00898809 -0.00837781 -0.00803348 -0.00678847 -0.00650465 0.00844658 0.0072963 0.00617433 0.00397132 0.00358863 0.00487235 0.00249974 -0.003762 -0.00694726 -0.00402117 -0.000411326 -0.00476601 -0.00605599 -0.00799768 -0.00795736 -0.00605641 -0.0054999 -0.00393966 -0.00377599 -0.00361551 -0.0029472 0.0177557 0.0142342 0.0107233 0.00859836 0.00575008 0.0047572 -0.00206695 -0.00518144 -0.00458931 -0.000953678 0.00231224 0.000376503 -0.00249526 -0.00387469 -0.00365736 -0.00380846 -0.00422297 -0.00268258 -0.00156589 -0.00185617 -0.00213486 0.0171917 0.0158306 0.0111849 0.00732557 -0.000391289 -0.00188257 -0.00575039 -0.00174951 -5.31937e-05 0.00100198 0.00193737 0.000277785 -0.00107635 -0.00295397 -0.0023375 -0.00222292 -0.0014976 -0.00172472 -0.000449004 -0.000744137 -0.000896502 0.00696628 0.00575593 0.00494509 0.00547912 0.00632964 0.00686749 0.00815785 0.00686078 0.00455426 0.004124 0.00478205 0.00462357 0.00354945 0.00400139 0.00572233 0.00699009 0.00775842 0.00723381 0.00893528 0.0104333 0.0112673 0.00391772 0.00465168 0.00483768 0.00701306 0.00646012 0.00588494 0.00404228 0.00212188 -0.000682981 -8.37034e-05 0.00163502 0.00180234 0.00269889 0.0018259 0.00476381 0.00601404 0.00613105 0.00533607 0.00797542 0.0104291 0.0111937 0.00232563 0.00248682 0.00106005 0.000282691 -0.000497229 -0.000988946 -0.00118738 -0.00209494 -0.00190427 -0.000679579 0.00109145 0.000905808 0.00168466 0.00114539 0.00159156 0.0029035 0.00292776 0.00447077 0.00531373 0.0094309 0.0109976 0.00348521 0.000716935 -0.00110904 -0.0024118 -0.00374488 -0.004334 -0.00467807 -0.00396373 -0.00250651 0.000326788 0.00155243 0.00113528 -0.000434726 -1.61117e-05 0.00108378 0.002664 0.003435 0.00363927 0.00448833 0.0061819 0.00769965 -0.00105477 -0.00347303 -0.00368723 -0.00395299 -0.0044256 -0.00556089 -0.00511261 -0.00303954 -0.0015876 0.000116196 0.000586353 0.00156831 -0.000627513 -0.00173584 -0.00182376 -0.0017008 0.00182512 0.00410473 0.00593007 0.00806165 0.00830584 -0.00540557 -0.00764612 -0.00853668 -0.00835792 -0.00803846 -0.00575348 -0.00353884 -0.00205805 -0.00124032 9.98321e-05 -0.000693997 -0.00301562 -0.00497797 -0.00238723 -0.00248638 -0.00140726 -5.06681e-06 0.000396467 0.00108741 0.00207246 0.00242243 -0.00345197 -0.0057919 -0.00750531 -0.0075151 -0.00693249 -0.00806005 -0.00701937 -0.00582897 -0.00449584 -0.00336584 -0.00188169 -0.00259618 -0.00563849 -0.00528462 -0.00568911 -0.00515081 -0.00161155 -0.000229126 6.58949e-06 0.00179341 0.00293567 -0.00715514 -0.00869259 -0.00972411 -0.0093225 -0.00985776 -0.00855083 -0.00816309 -0.00591863 -0.00748411 -0.00800212 -0.00745503 -0.00824429 -0.0119598 -0.00779722 -0.00580001 -0.00492752 -0.00331488 -0.00119797 0.0032947 0.00660326 0.00642193 -0.00875504 -0.0101874 -0.0126287 -0.0117316 -0.00984233 -0.00866234 -0.0100116 -0.00690939 -0.00862542 -0.00741673 -0.00401481 -0.000153299 -0.00265387 0.00526669 0.0129272 0.0139886 0.00995383 0.0107398 0.0118691 0.0129033 0.00645364 -0.010403 -0.00843118 -0.0113539 -0.0102749 -0.00725642 -0.00664433 -0.00485229 -0.00113444 -0.000880938 0.00175932 0.00688847 0.0124592 0.0101085 0.00883483 0.00200817 0.00168203 0.00178701 0.00408332 0.00291839 0.00177176 -0.00259403 -0.0106453 -0.0102777 -0.00930295 -0.00547572 -0.00197266 -0.000578859 -0.00185133 -0.00170009 -0.0021198 -0.00132859 3.1491e-05 0.000221078 -0.000745507 -0.0015347 -0.00114338 -0.0032933 0.000232865 0.00105312 -0.0037375 -0.00518385 -0.00810013 -0.00358671 -0.00095694 0.00534666 0.00963127 0.0130169 0.0139385 0.00779876 0.00486646 0.00098115 -0.00031447 -0.00420646 -0.00363016 -0.00270885 0.000230394 -0.000611968 -0.00211004 -0.00332568 -0.0046537 -0.00830288 -0.00844789 -0.00913345 0.00177512 0.004552 0.0075912 0.00808633 0.0100612 0.00773115 0.00199911 -0.000674736 -0.00429512 -0.00275062 0.00013881 0.00387222 0.0021698 -0.0011519 -0.00454009 -0.00815892 -0.00934543 -0.00979801 -0.0100263 -0.0103714 -0.00893119 0.00321209 0.00930246 0.008598 0.00462619 0.00102723 -0.00112736 -0.00496128 -0.00459627 -0.00372496 -0.00196946 -0.00363214 -0.00375536 -0.00473333 -0.00725363 -0.00937474 -0.0107084 -0.0104649 -0.00925957 -0.00917394 -0.00990504 -0.00921765 0.00431881 0.00126006 -0.00292847 -0.00344472 -0.00264636 -0.00538609 -0.00726873 -0.00657325 -0.00402291 8.0174e-05 0.00260976 0.00335853 -0.000249709 -0.00558552 -0.00872329 -0.00899823 -0.00871973 -0.00826259 -0.00851468 -0.00764962 -0.00749712 -0.00568746 -0.00774654 -0.00721459 -0.00971195 -0.00988277 -0.0149126 -0.017059 -0.0150212 -0.00803367 -0.00466594 -0.00281104 -0.0016141 -0.000670191 -0.00538499 -0.00780438 -0.00743435 -0.00826901 -0.0074245 -0.0073451 -0.00547071 -0.00587681 -0.00406715 -0.00414483 -0.00497818 -0.00456618 -0.00567565 -0.00666011 -0.00769224 -0.00782399 -0.00651201 -0.00434318 -0.00266473 -0.00238685 -0.000725917 -0.00520482 -0.00646882 -0.00640714 -0.00824379 -0.00685858 -0.00617011 -0.00644847 -0.00727562 -0.00381308 -0.00425263 -0.00644324 -0.00611919 -0.00414087 -0.00158206 -0.00350004 -0.00325572 -0.00256881 -0.00273766 -0.0031192 -0.00479266 -0.00402256 -0.0070558 -0.00771916 -0.00804233 -0.00837466 -0.00777063 -0.00744307 -0.0066125 -0.00618986 -0.000363239 -0.000689757 -0.000813476 -0.00197733 -0.00172109 0.000260234 -0.000133121 -0.00513747 -0.00646084 -0.00402764 -0.000398367 -0.00410872 -0.00508887 -0.00661987 -0.00696328 -0.00524943 -0.00499911 -0.00321761 -0.00351961 -0.00411785 -0.00350684 0.00620403 0.0047482 0.00253645 0.0024907 0.000461454 -0.000262618 -0.0046286 -0.00674896 -0.00556314 -0.00135156 0.00221665 0.000563166 -0.00236466 -0.00358035 -0.00309736 -0.00310347 -0.00365876 -0.0028104 -0.00228832 -0.00259748 -0.00299763 0.00532303 0.005415 0.00287612 0.000659888 -0.00416968 -0.0049917 -0.00796199 -0.00349479 -0.00162485 -0.000434445 0.000844889 1.28553e-05 -0.00132348 -0.00310257 -0.00235459 -0.00272566 -0.00239298 -0.00214918 -0.00170059 -0.00152358 -0.00201723 0.00478078 0.00376181 0.00325856 0.00354872 0.00501254 0.00623927 0.00815745 0.00706968 0.00532115 0.00444801 0.00571835 0.00412357 0.00355738 0.00385446 0.0057231 0.00689273 0.00751875 0.00682592 0.00861635 0.0103746 0.010826 0.00131698 0.00256387 0.0029688 0.00608895 0.00653659 0.00614853 0.00431611 0.00243399 7.68534e-05 0.000771267 0.00280223 0.00272492 0.00363545 0.00278036 0.00503167 0.00593462 0.00640315 0.00525217 0.00764244 0.0107998 0.0108142 0.000341091 0.00179947 0.000810499 0.00020682 -0.000429883 -0.00026593 -0.000327025 -0.00117694 -0.000731456 0.000284611 0.00225821 0.00246286 0.00318147 0.00262869 0.00255999 0.00364251 0.00382185 0.00446813 0.00539893 0.00981456 0.0099416 0.00219544 0.000126994 -0.00113925 -0.00166578 -0.00278986 -0.0023632 -0.00266575 -0.00217316 -0.000516079 0.00226559 0.00314206 0.00251365 0.0013733 0.001428 0.00236675 0.00414259 0.00468947 0.00364555 0.00460104 0.00579286 0.00684234 -0.00142977 -0.00315768 -0.00349007 -0.00289575 -0.0034612 -0.00367587 -0.0031038 -0.00121723 0.000508894 0.00253531 0.002335 0.00268898 0.00104327 -0.0001735 -0.00174184 -0.00216575 0.00078163 0.0024367 0.00415756 0.00678957 0.00679038 -0.00534973 -0.00639904 -0.00711762 -0.00675581 -0.0065286 -0.00400584 -0.00124392 0.000331092 0.000620123 0.00213016 0.00077991 -0.0017404 -0.00299644 -0.00104862 -0.00266641 -0.00209307 -0.00123038 -0.000710193 0.000291022 0.00188485 0.00187708 -0.00439116 -0.00504163 -0.00676198 -0.00583669 -0.0049368 -0.0060436 -0.00466405 -0.0030013 -0.00199565 -0.000947569 0.000422347 -0.000499482 -0.00383232 -0.00367175 -0.00494461 -0.00505865 -0.00238762 -0.000917505 -0.000893951 0.000581009 0.00133738 -0.00705177 -0.00732672 -0.00868415 -0.00804341 -0.00756367 -0.00613206 -0.00527595 -0.00285923 -0.00508089 -0.00535414 -0.00427798 -0.00501268 -0.00958166 -0.00656743 -0.00537345 -0.00435961 -0.00331231 -0.000226314 0.00214861 0.00496898 0.00428225 -0.00773992 -0.0077777 -0.0103665 -0.00945355 -0.00666076 -0.00636844 -0.0077858 -0.00503553 -0.00660625 -0.00504183 -0.00135134 0.00158531 -0.00239681 0.00393199 0.00998625 0.01162 0.0094548 0.00982337 0.0093666 0.00917758 0.0038723 -0.00875358 -0.00626083 -0.00878943 -0.00789008 -0.00458878 -0.00449251 -0.00341013 0.000839322 0.000127579 0.0024602 0.00699944 0.0123239 0.0094963 0.00809541 0.00122539 0.000749478 0.0021103 0.0041437 0.00303465 0.00229604 -0.00143895 -0.0086563 -0.00740677 -0.00753916 -0.00420435 0.000688951 0.00226183 0.000856637 0.00108314 0.000192148 0.00040463 0.000660032 0.00117989 0.00102864 1.64826e-06 -0.000498505 -0.00273968 0.00060265 0.00176474 -0.00175269 -0.0014857 -0.00491332 -0.00289072 0.000147394 0.00545617 0.00928898 0.0130809 0.0139193 0.00815667 0.00526812 0.00203474 0.00161808 -0.00254734 -0.00212486 -0.00148642 0.000889964 4.6479e-05 -0.0009851 -0.000645377 -0.00257229 -0.00638329 -0.00578241 -0.00690466 0.00267331 0.00521743 0.00775577 0.00813101 0.0108629 0.00919719 0.00320369 0.000537809 -0.0028993 -0.000916841 0.00167402 0.00593103 0.0036938 0.000283685 -0.000949228 -0.00480659 -0.00603159 -0.00671737 -0.00735893 -0.00787107 -0.0071049 0.00304911 0.00878172 0.0083053 0.00499247 0.00206316 0.00119525 -0.00224084 -0.00157135 -0.000250319 0.000784928 -0.00243991 -0.00204976 -0.00243331 -0.00504265 -0.00510786 -0.00662997 -0.0068564 -0.00579804 -0.00657702 -0.00799728 -0.00765057 0.00427874 0.00194671 -0.00107301 -0.00112158 -0.000275643 -0.00287521 -0.00503456 -0.00314513 -0.000764276 0.00285334 0.00480005 0.00594969 0.0024958 -0.00217894 -0.00428288 -0.00530174 -0.00608602 -0.00559474 -0.00630766 -0.00608359 -0.00653945 -0.00336527 -0.00467806 -0.00465104 -0.00788865 -0.00841374 -0.0125204 -0.013684 -0.0107498 -0.0036447 -0.000755312 2.68312e-05 0.000644169 0.00151386 -0.00296541 -0.00401454 -0.00436471 -0.00556497 -0.00530971 -0.00550558 -0.00427294 -0.00510744 -0.00262196 -0.00233764 -0.00255582 -0.00330634 -0.00397358 -0.00382536 -0.00488605 -0.00425996 -0.00274445 -0.00163991 -0.000422731 -0.000179874 0.00138479 -0.00316034 -0.00399636 -0.00403347 -0.00619477 -0.0055241 -0.00538647 -0.00567172 -0.00608719 -0.00207275 -0.00281079 -0.0042887 -0.00439347 -0.00227111 0.000972856 -0.00135425 -0.00129333 -0.000259701 -0.00026734 -0.00108419 -0.00249992 -0.00198954 -0.00572622 -0.00557431 -0.0059579 -0.00723731 -0.00680015 -0.00667518 -0.00601302 -0.00545258 -0.000117079 0.000359638 -0.000134312 -0.0022066 -0.00163712 0.000421396 0.00140457 -0.00280781 -0.00442948 -0.00150406 0.00206899 -0.00250024 -0.00274803 -0.00501375 -0.00510494 -0.00390022 -0.00406091 -0.00298743 -0.00303374 -0.00357584 -0.00310818 0.0041197 0.00449835 0.00366187 0.00267423 0.001953 0.000711626 -0.00271636 -0.00380354 -0.00290035 0.00174098 0.00447278 0.0025165 -0.000860291 -0.00221749 -0.00234146 -0.00209424 -0.00326547 -0.00256913 -0.00216728 -0.0025656 -0.00292393 0.0041535 0.00531143 0.00384107 0.00144388 -0.00195773 -0.00226932 -0.00476388 -0.00069108 0.00117368 0.00210104 0.00172986 0.00119507 -8.90862e-05 -0.00241427 -0.00193422 -0.00240567 -0.00279925 -0.0021349 -0.00175495 -0.00167332 -0.00217868 0.0045518 0.00346667 0.00274127 0.0034645 0.0047955 0.00548087 0.00784342 0.00710084 0.00547786 0.00436135 0.00597803 0.00318396 0.00266866 0.00293404 0.00484365 0.00656679 0.0069144 0.00619326 0.00836062 0.00964078 0.0108872 0.000353516 0.00154275 0.00231472 0.00553038 0.00646285 0.00563884 0.00490582 0.00307155 0.000825691 0.00139658 0.00305162 0.00257933 0.00329466 0.00271906 0.00478879 0.00552334 0.00603676 0.00535982 0.00760417 0.010252 0.0108506 -0.000490999 0.00172795 0.000935573 0.00109487 0.000244309 0.000115448 -0.000153229 -0.000666239 4.10584e-05 0.000763513 0.0026861 0.00319411 0.00360646 0.00288256 0.0031127 0.00393029 0.0040827 0.0048407 0.00577938 0.009292 0.00921299 0.00325423 0.00203167 0.000453283 0.000118384 -0.00129423 -0.00131715 -0.00173976 -0.00114482 0.000736928 0.00301051 0.00348207 0.00354857 0.00229438 0.00210094 0.00335567 0.00491979 0.00494825 0.00309303 0.00487437 0.00499047 0.00569433 -0.00046938 -0.00188338 -0.00230575 -0.0018646 -0.00247977 -0.00257304 -0.00171054 0.000501643 0.00250454 0.00395579 0.00278415 0.0032649 0.00161295 0.00015857 -0.00121913 -0.00179386 0.00128593 0.00247358 0.00344483 0.00540562 0.00582287 -0.0034406 -0.0040214 -0.00469113 -0.00418022 -0.004711 -0.0018601 0.000355884 0.00241877 0.0024897 0.00314995 0.00156076 -0.000550875 -0.00232989 -0.000620834 -0.00278993 -0.00180207 -0.000983753 -0.000750213 8.65583e-06 0.00175771 0.00218932 -0.00215165 -0.00247402 -0.00386871 -0.00298255 -0.00274355 -0.00358968 -0.0025234 -0.000655199 0.000723384 0.0016488 0.00233247 0.00138197 -0.00302051 -0.00309673 -0.00455724 -0.00422881 -0.00226245 -0.00114531 -0.00107119 0.000694245 0.00168348 -0.0044991 -0.00426702 -0.00567584 -0.00439918 -0.00427566 -0.0024516 -0.00199142 0.000304902 -0.00189767 -0.0017685 -0.00145685 -0.00162817 -0.00733613 -0.00499574 -0.0045155 -0.00316205 -0.0023223 0.000818753 0.00248387 0.00533302 0.00358974 -0.00499458 -0.0039674 -0.00624906 -0.0050187 -0.00255851 -0.00229134 -0.00375251 -0.00144397 -0.00314567 -0.00282188 0.000290581 0.00229703 -0.00261124 0.0033146 0.00901056 0.00941694 0.00774906 0.00886647 0.00791875 0.00853826 0.00281993 -0.00601018 -0.00228453 -0.00563091 -0.00432032 -0.000547956 -0.000965118 0.000274908 0.00347828 0.00209492 0.00373761 0.00762185 0.011407 0.00909255 0.00581905 -0.000264887 -0.000266796 0.00158115 0.0039739 0.00267539 0.002352 -0.00120265 -0.00447097 -0.00250951 -0.00479688 -0.00216255 0.00374984 0.00522581 0.00412203 0.00471548 0.00297076 0.00202372 0.0020262 0.00182623 0.0026045 -0.000223681 0.000404125 -0.0020575 0.000436529 0.00165561 6.63533e-05 0.000358859 -0.00278627 -0.00060927 0.00192047 0.00681672 0.00970606 0.0135834 0.015477 0.00966265 0.00638968 0.00195437 0.00150408 -0.0014284 -0.00132122 0.000230862 0.00187402 0.000959592 -0.000503596 0.000519592 -0.00317552 -0.00361208 -0.00382614 -0.00477348 0.00341947 0.00634907 0.00835699 0.00767566 0.0107008 0.0103668 0.00449299 0.00216368 -0.00170784 0.000613078 0.00250552 0.0063875 0.00468885 0.0006534 0.000689156 -0.00300135 -0.00312619 -0.00477852 -0.00570336 -0.00687495 -0.0057648 0.0038456 0.00917755 0.00911531 0.00553266 0.00349885 0.00254876 -0.00110139 0.00136561 0.00313632 0.00311158 7.07173e-05 -0.00120534 -0.00144285 -0.00389671 -0.00267851 -0.00411826 -0.00437489 -0.00414654 -0.00521617 -0.00678673 -0.00684214 0.00480392 0.00385512 0.0011711 0.00130054 0.00173435 -0.000471423 -0.00319804 -9.30214e-05 0.00234327 0.0041936 0.00530959 0.0057366 0.0031844 -0.000446084 -0.00203818 -0.00383333 -0.00440292 -0.00401083 -0.0050325 -0.00529756 -0.00605577 -0.00189163 -0.00240724 -0.00130621 -0.00486882 -0.006502 -0.0105588 -0.0119011 -0.00749417 -0.00110342 0.000892343 0.00143728 0.00120045 0.00195582 -0.000868222 -0.00216908 -0.00356626 -0.00474025 -0.00516923 -0.00542975 -0.00414035 -0.00504462 0.000854912 0.000107496 0.000535859 -0.000880079 -0.0019049 -0.00159448 -0.00390415 -0.00260052 -0.000482839 -0.000181903 0.000396278 0.00100793 0.00158037 -0.000936618 -0.00363729 -0.00373488 -0.00559009 -0.0055657 -0.00514762 -0.00563031 -0.00583843 0.000962666 -0.000540187 -0.00112215 -0.00145671 0.000363147 0.00234308 -0.000379123 0.000596997 0.00106944 0.000513296 0.000434737 -0.00128242 -0.0018784 -0.00350592 -0.00427919 -0.00498466 -0.00635191 -0.00639737 -0.0061851 -0.00573642 -0.00487119 0.00209063 0.00299514 0.00234592 -0.000184881 0.000107395 0.00185324 0.0014961 -0.00181934 -0.00379477 0.000222061 0.00382404 -3.27275e-05 -0.00219602 -0.00349522 -0.00419981 -0.00308222 -0.00341007 -0.00304612 -0.00288148 -0.00329168 -0.0023867 0.00537691 0.00622025 0.00595329 0.0048844 0.00367931 0.00278317 -0.00116107 -0.000952388 -0.00100239 0.00324063 0.00574926 0.00369456 -0.000219725 -0.00134456 -0.00186498 -0.00183877 -0.00320883 -0.00274275 -0.00210213 -0.0022592 -0.00227887 0.00593817 0.00683994 0.00489008 0.00303684 -0.000592796 -2.16189e-05 -0.0035426 0.00119857 0.00354966 0.00418432 0.00283551 0.0025921 0.000762281 -0.00168327 -0.00175017 -0.0018766 -0.00190491 -0.00145138 -0.00135403 -0.00100519 -0.0013224 0.00404255 0.00301908 0.00227476 0.00262857 0.00378647 0.00438388 0.00658357 0.00620569 0.00453145 0.00358149 0.00525871 0.0023082 0.00154373 0.00150302 0.00330736 0.00529047 0.00627447 0.0057712 0.00804485 0.0094167 0.0104642 -0.000346211 0.000398323 0.00100548 0.00438014 0.00533753 0.00424844 0.00364769 0.00169787 -0.00017037 0.000820549 0.00238766 0.00166073 0.00193485 0.0018587 0.00447004 0.00567429 0.00563796 0.00533608 0.00739571 0.0107665 0.0113095 -0.000488408 0.00152153 0.000659759 0.000272828 -0.000464781 -0.00149647 -0.00160932 -0.00171139 -0.000479074 0.000836866 0.00274453 0.00330898 0.00334687 0.00334636 0.00365365 0.00453061 0.00481347 0.00522293 0.00635703 0.00994688 0.00958965 0.00355101 0.00176535 -0.000239487 -0.000685989 -0.00172351 -0.00227162 -0.0022229 -0.00131553 0.0013853 0.00322682 0.0033666 0.00353645 0.002876 0.00359406 0.0041261 0.00515435 0.00408865 0.00204211 0.00388905 0.00554402 0.00542415 -0.000476306 -0.00192598 -0.00285534 -0.00233439 -0.00266928 -0.00266117 -0.00142699 0.000585956 0.00301502 0.00443593 0.00340596 0.00385439 0.00257783 0.0011717 -0.000576517 -0.00121039 0.000851102 0.00148182 0.00131365 0.00329461 0.00506937 -0.00305438 -0.00368226 -0.00406154 -0.00387956 -0.00438178 -0.00113598 0.00135751 0.0030236 0.00285408 0.0029642 0.00167544 5.21531e-05 -0.00150998 -0.000407709 -0.00261764 -0.00235151 -0.0018783 -0.00207149 -0.000557981 0.00150289 0.00216302 -0.00190903 -0.00168915 -0.0027454 -0.00242429 -0.00257722 -0.00290332 -0.0017371 0.00014708 0.00173119 0.00261532 0.00319172 0.00267913 -0.00186386 -0.00253067 -0.00404079 -0.00429379 -0.00257512 -0.00201323 -0.00202086 0.000134716 0.000857419 -0.00291894 -0.00242543 -0.00374619 -0.00236975 -0.00227334 -0.000404632 -0.000405625 0.00110331 -0.00115184 -0.000823813 -0.000448667 6.09646e-05 -0.00530864 -0.00381658 -0.00380171 -0.00306635 -0.00186094 -0.00023128 0.00165937 0.00456419 0.00253027 -0.00302472 -0.001783 -0.00457272 -0.00302613 -0.000450434 -0.000143413 -0.00212591 -0.000354761 -0.0022118 -0.00180523 0.00113517 0.00239328 -0.00280286 0.000428065 0.00579776 0.00673072 0.00613435 0.00749468 0.00655524 0.00683715 0.00212671 -0.00412891 1.43571e-05 -0.00458063 -0.00335391 0.000735097 4.95246e-05 0.000376597 0.00354793 0.00150818 0.0033606 0.00636874 0.00899217 0.00613837 0.00339063 -0.00185843 -0.00192442 0.000404803 0.00264918 0.0019078 0.00210853 0.000144689 -0.00299614 -0.000659199 -0.00277104 -0.000294629 0.0044873 0.00603156 0.00521168 0.00550194 0.00297178 0.00160457 0.00111118 0.00120296 0.0022905 0.000474887 0.000257478 -0.00233264 0.000143745 0.00114608 0.000750785 0.00214846 -0.00111618 0.00119075 0.00324216 0.00786619 0.0103398 0.0132862 0.0140383 0.00928267 0.00569231 0.00201591 0.000958574 -0.0029012 -0.000676858 0.000406114 0.00201203 0.000586166 -0.000137343 0.000514205 -0.000635543 -0.00220795 -0.00182096 -0.0029494 0.00329948 0.00612801 0.00795056 0.00786286 0.0109028 0.00997717 0.00490106 0.00274162 -0.000649451 0.00169313 0.00290323 0.00708153 0.00453516 0.00198684 0.00167015 -0.00123563 -0.00168684 -0.00256448 -0.00379289 -0.00546252 -0.00464625 0.00398682 0.00865418 0.00854823 0.00550962 0.00420883 0.00209056 