0.156736 0.150486 0.13241 0.111993 0.103137 0.0834062 0.0738025 0.0697974 0.0806683 0.0758261 0.0768861 0.145828 0.131219 0.110492 0.0969563 0.0914856 0.0853538 0.0765032 0.0632856 0.0628461 0.0599836 0.0582286 0.129139 0.113773 0.0996006 0.0743006 0.0671709 0.0653739 0.0612631 0.0457678 0.0596847 0.0633922 0.0636545 0.122029 0.102351 0.0881038 0.0650559 0.0466796 0.0558007 0.0771631 0.0801833 0.126829 0.16541 0.159888 0.149031 0.142508 0.151565 0.130019 0.122351 0.130811 0.161619 0.148997 0.134514 0.0953037 0.0911543 0.202118 0.177883 0.157657 0.121216 0.0907545 16.1271 0.0839003 0.0757728 0.0775007 0.0617864 0.0562686 0.282189 0.234129 0.197326 0.148183 0.106141 0.0666734 0.0587042 0.0580413 0.0761806 0.0678676 0.0405775 0.262331 0.210717 0.17736 0.139266 0.113237 0.106618 0.126255 0.11106 0.0931204 0.0646028 0.0353403 0.254847 0.193596 0.159461 0.138064 0.110785 0.0795196 0.0823493 0.0768763 0.053739 0.0587657 0.0450248 0.225718 0.186575 0.166996 0.153075 0.14572 0.145823 0.14591 0.1142 0.0715857 0.0607361 0.0560067 0.160781 0.121609 0.106715 0.113768 0.106895 0.102563 0.108504 0.110812 0.0722809 0.0667647 0.0666413 0.0930344 0.0878093 0.0756458 0.0543245 0.0451181 0.0361152 0.0294138 0.0211455 0.0286368 0.0268636 0.0222702 0.0829681 0.07058 0.0559971 0.0481557 0.047129 0.0494971 0.0417459 0.022302 0.0132207 0.00894311 0.00436697 0.0533278 0.0411646 0.037731 0.0204456 0.020116 0.0235215 0.0181144 -0.00320317 0.00439585 0.00520544 0.00857346 0.0341471 0.0182604 0.0143861 -0.00306438 -0.0129206 -0.00201681 0.00942032 0.00275623 0.0443552 0.0822316 0.0857365 0.0289181 0.017881 0.0307076 0.0239992 0.0309179 0.051678 0.0754329 0.0626805 0.0537272 0.0190167 0.021877 0.0657317 0.0441868 0.0379282 0.0247446 0.0191367 0.0268649 0.0308615 0.0191081 0.0167151 -0.00123503 -0.00602705 0.126469 0.0837471 0.0626374 0.0330256 0.00622663 -0.0101944 -0.00709974 -0.00306747 0.014352 0.0129183 0.00712765 0.0972426 0.0576596 0.0392154 0.0193281 0.0130783 0.0269294 0.042786 0.0388255 0.0272339 0.0128203 0.00851628 0.0869568 0.0469058 0.0307813 0.0268313 0.0145719 0.00801581 0.00929544 0.00868594 0.00315168 0.0165463 0.0153062 0.0635403 0.0378837 0.0329576 0.0386743 0.0431623 0.0649297 0.0726222 0.0481198 0.0327346 0.0255089 0.0284302 0.0150343 -0.00798453 -0.00787426 0.0103109 0.0101191 0.0185962 0.0279338 0.0351104 0.03299 0.031855 0.0355241 0.0640841 0.0629372 0.0529561 0.0326544 0.024398 0.0156797 0.0105615 -0.000645486 -0.00167913 -0.00585342 -0.00916151 0.0486707 0.040864 0.0304028 0.0253571 0.0315667 0.0373768 0.0328365 0.010177 -0.00392801 -0.0148566 -0.027968 0.021644 0.0205293 0.0187315 0.00435044 0.00664081 0.0101657 0.00466454 -0.0167027 -0.0164148 -0.0197375 -0.0282512 -0.00238362 -0.00970842 -0.0143084 -0.0263167 -0.0257481 -0.0161645 -0.016773 -0.0278292 -0.00331357 0.0323529 0.03803 -0.0182356 -0.0135117 -0.00657678 -0.00820718 -0.00141136 0.0196652 0.043207 0.0244909 0.0173844 -0.0152934 -0.0162161 0.025274 0.0131621 0.00442272 -0.00747532 -0.00858453 -0.00252917 0.00107416 -0.0070789 -0.0137576 -0.0259935 -0.0295237 0.0728002 0.0407663 0.0199341 0.00146304 -0.0145445 -0.036758 -0.032157 -0.0215613 -0.0129591 -0.016195 -0.0154755 0.0470395 0.0179935 0.000678325 -0.0117329 -0.00570369 0.00186863 0.0122714 0.00863369 -0.00178579 -0.00537804 -0.00713335 0.0282475 0.0101737 0.00234843 0.00487949 0.000685716 -0.0134386 -0.0186715 -0.0202345 -0.0183446 0.00733041 0.00991651 0.0122422 0.00396281 -0.00356266 0.00430016 0.0127292 0.0282707 0.032592 0.0203948 0.0151354 0.0181028 0.0243345 -0.0338777 -0.0427451 -0.0405746 -0.016791 -0.00792099 0.000625612 0.00969013 0.0176335 0.0208694 0.0263284 0.030848 0.0463657 0.0450092 0.0394651 0.0263954 0.0189999 0.00996152 0.00379656 -0.00669023 -0.0040609 -0.015295 -0.0195761 0.0324754 0.0259447 0.0215098 0.0192598 0.0212895 0.0290008 0.0295508 0.00593115 -0.00679884 -0.0247112 -0.0381502 0.00755351 0.00441378 0.00835092 0.0012637 0.00301688 0.00826681 0.00194526 -0.0247079 -0.0218919 -0.0296162 -0.0386237 -0.0126207 -0.0215745 -0.0221686 -0.0255763 -0.0290277 -0.0168816 -0.0190891 -0.0413139 -0.0187678 0.0101763 0.0158775 -0.0256392 -0.026708 -0.0114417 -0.00940492 -0.00257147 0.0096747 0.0277411 0.00185077 -0.00303273 -0.0372797 -0.0362623 0.0127354 0.00188957 -0.00300003 -0.00896896 -0.00923567 -0.00779605 -0.00571616 -0.0110187 -0.0186582 -0.0408216 -0.0436795 0.0496324 0.0211462 -3.3164e-05 -0.0113753 -0.0230587 -0.0410321 -0.0430887 -0.0372997 -0.0291462 -0.036324 -0.0247331 0.0320622 0.000756313 -0.0149341 -0.0214081 -0.0143513 -0.00638743 0.000669061 -0.00593286 -0.0156696 -0.0113756 -0.0102438 0.0130919 -0.00521547 -0.00848365 -0.0032867 -0.00517864 -0.0229954 -0.0367837 -0.031503 -0.0260905 0.00844923 0.0123531 -0.00294802 -0.0171622 -0.0115266 -0.00446842 0.00190409 0.014232 0.00877329 0.00560883 0.0127011 0.0239645 0.0281615 -0.0511508 -0.052654 -0.0423933 -0.0161172 -0.00972887 -0.00698423 -0.00714224 0.00452058 0.0124653 0.0270473 0.0284981 0.056206 0.0544616 0.0531186 0.0338279 0.0289707 0.0172354 0.013132 0.00252528 0.000588703 -0.0162371 -0.0205992 0.0395984 0.0340111 0.0344356 0.0289583 0.0317465 0.0311294 0.0323055 0.00698493 -0.00722602 -0.0257641 -0.0317689 0.02105 0.0160761 0.021624 0.0107283 0.0147826 0.0153146 0.012159 -0.0167982 -0.0196286 -0.0320452 -0.0359418 -0.000213094 -0.00459632 -0.00159785 -0.0123476 -0.0182074 -0.00899944 -0.0132047 -0.0399839 -0.0192746 0.000349713 0.00244747 -0.0175042 -0.013114 -0.0075064 -0.0100651 -0.00788886 0.00558535 0.0254121 -0.00214665 -0.0187667 -0.0427253 -0.0390688 0.0119787 5.26848e-06 -0.00584394 -0.0112944 -0.011485 -0.0135256 -0.0198688 -0.0198205 -0.0354243 -0.0398995 -0.0445675 0.0480521 0.0175521 -0.000635405 -0.0224627 -0.026964 -0.0398785 -0.0437847 -0.0325742 -0.0297546 -0.0371551 -0.0285272 0.0202332 -0.006146 -0.0198921 -0.030698 -0.0218329 -0.014553 -0.00525487 -0.00708912 -0.0243096 -0.0195098 -0.0129176 -0.00434395 -0.0141232 -0.00868306 -0.000869119 -0.00560264 -0.0229965 -0.0383487 -0.0321458 -0.0295356 0.00296043 0.013988 -0.0143585 -0.0258912 -0.0136877 -0.00643103 -0.0039698 0.00789323 0.00436607 0.00499489 0.01287 0.0209015 0.0268463 -0.0568147 -0.0632112 -0.0465532 -0.0210557 -0.014658 -0.0120869 -0.0135064 -0.00394909 0.0147608 0.0247184 0.0264132 0.0535057 0.0541674 0.0457628 0.0313118 0.0184135 0.00726086 0.0032587 0.000677253 -0.000913478 -0.0160598 -0.0179719 0.0394503 0.0339713 0.03327 0.0294059 0.0311144 0.0329897 0.0327166 0.0130161 0.00115904 -0.0233668 -0.0269301 0.0272311 0.0235861 0.0200783 0.0100387 0.0148284 0.0143389 0.0140736 -0.00805354 -0.00943642 -0.0250404 -0.0265433 0.00471882 0.00041305 -0.00267051 -0.0122019 -0.0159261 -0.0107782 -0.0183752 -0.0405776 -0.0253311 -0.00821383 -0.00370783 -0.0158435 -0.0163264 -0.0113003 -0.0168234 -0.0125945 -0.00291304 0.00954729 -0.00507062 -0.0169087 -0.0458812 -0.0467355 0.00397492 -0.00529797 -0.00867783 -0.0203827 -0.0214782 -0.0229853 -0.0206715 -0.0101994 -0.0229709 -0.0358845 -0.0358421 0.032833 0.0102505 -0.0109012 -0.0304306 -0.0369472 -0.0526244 -0.0454044 -0.0338598 -0.029981 -0.0359475 -0.0288241 0.0118651 -0.0119601 -0.0258746 -0.0379876 -0.0289 -0.0223143 -0.0108575 -0.011012 -0.0168761 -0.0133822 -0.00722099 -0.00678439 -0.0218102 -0.0149379 -0.00682556 -0.00894556 -0.0331722 -0.039806 -0.0377965 -0.0266759 0.00953178 0.0183165 -0.0220642 -0.0331602 -0.0213534 -0.00946421 -0.00349383 0.00294044 -0.000775954 -0.003387 0.0168072 0.0328956 0.0322619 -0.0641779 -0.0612349 -0.0440514 -0.0200246 -0.00821998 -0.0108826 -0.0108037 3.15911e-05 0.0170465 0.0337456 0.0301712 0.050521 0.0507547 0.0440575 0.031353 0.0138365 0.00743402 0.00511699 -0.00148371 -0.00291264 -0.0214981 -0.0287612 0.0361226 0.0330485 0.0328973 0.0320641 0.0333797 0.035074 0.0348957 0.01091 -0.00474315 -0.0309469 -0.0395593 0.0215953 0.0153076 0.0128321 0.00789402 0.0160944 0.0209097 0.019798 -0.00460117 -0.0121745 -0.0308906 -0.0348843 0.0010143 -0.00911548 -0.010646 -0.0169369 -0.0160593 -0.00853539 -0.0133514 -0.034156 -0.0237397 -0.0138069 -0.00942531 -0.0267736 -0.0269434 -0.018693 -0.0189812 -0.0120684 -0.00178837 0.00606158 -0.00569194 -0.0200454 -0.0465075 -0.0487737 0.00322619 -0.00641559 -0.0127809 -0.0212553 -0.0192007 -0.0246486 -0.0245266 -0.0236477 -0.0316546 -0.0366115 -0.0431314 0.0181587 -0.00147201 -0.0152321 -0.0305436 -0.0321734 -0.0423136 -0.0376069 -0.0364968 -0.0327016 -0.0380048 -0.0277093 -0.00400503 -0.0238107 -0.0313269 -0.0380277 -0.0297892 -0.0236688 -0.00919741 -0.0164661 -0.0190386 -0.0181143 0.00135779 -0.01759 -0.0244437 -0.0138507 -0.012667 -0.0114282 -0.0284965 -0.0333311 -0.0331981 -0.0200641 0.011286 0.0272974 -0.0322906 -0.0363925 -0.0230382 -0.00852357 -0.00533154 -0.00117554 -0.00286407 -0.00357718 0.0159544 0.0301131 0.0354995 -0.0657167 -0.0633573 -0.0474801 -0.0150312 -0.00676072 -0.00978831 -0.0100454 0.0070458 0.022344 0.0281739 0.0289954 0.051694 0.0513516 0.0466609 0.0330466 0.0227065 0.0138373 0.0104574 0.007673 0.00580148 -0.0127119 -0.0264173 0.0397573 0.0359378 0.0353009 0.0366282 0.0377941 0.0397651 0.0422993 0.020142 0.00536062 -0.01874 -0.0319728 0.027071 0.0219028 0.0185823 0.010087 0.0211327 0.0286053 0.0297546 0.00772611 -0.000281967 -0.0208905 -0.0321919 0.00561183 -0.00126417 -0.00419397 -0.0123391 -0.0110336 -0.00328942 -0.00937578 -0.0354559 -0.0237389 -0.0156887 -0.0123995 -0.0180319 -0.0157303 -0.00817292 -0.0162908 -0.0124666 -4.27135e-06 -0.000362594 -0.0151739 -0.0257885 -0.0439244 -0.0438424 0.00223305 -0.00181165 -0.00277744 -0.00939879 -0.0104447 -0.0225685 -0.0282619 -0.0305967 -0.0362322 -0.037517 -0.0425837 0.0191034 -0.00203215 -0.0143217 -0.0252071 -0.0266497 -0.0330091 -0.0347857 -0.0363691 -0.0321039 -0.0314012 -0.0301075 0.0032095 -0.0136012 -0.0229669 -0.0339506 -0.0245154 -0.0104181 -0.000538633 -0.013963 -0.0210403 0.00147201 0.0102719 -0.0100529 -0.0226886 -0.0135775 -0.00904981 -0.00560826 -0.023955 -0.0277317 -0.0226235 -0.0182817 0.0215258 0.0335665 -0.0257734 -0.0331272 -0.0244242 -0.0122814 -0.00907624 -0.00723909 -0.00513124 -0.00146797 0.0181902 0.0376477 0.0384307 -0.0642485 -0.0650925 -0.0463262 -0.0153747 -0.00745127 -0.0129408 -0.0155028 0.00297426 0.0214947 0.0349357 0.0334753 0.0530326 0.0563878 0.0494759 0.0315019 0.0241733 0.0184113 0.0138258 0.014271 0.0156995 -0.0017102 -0.015527 0.0450033 0.0440499 0.0465527 0.0408852 0.0428698 0.0464445 0.0469447 0.0294026 0.0151509 -0.00617846 -0.0199768 0.0342146 0.0304519 0.0253885 0.0199524 0.0298864 0.033163 0.0325926 0.0181336 0.0100576 -0.00901453 -0.0251156 0.0107485 0.0071065 0.0040716 -0.00492213 -0.00595579 0.000923557 -0.00833221 -0.0311074 -0.0305002 -0.0207888 -0.00972794 -0.0148683 -0.016527 -0.0140676 -0.0173605 -0.0122594 -0.00144115 -0.00286004 -0.0162922 -0.0245176 -0.0379783 -0.0375237 0.00175557 -0.00296245 -0.007152 -0.0087594 -0.00878185 -0.0166352 -0.0207069 -0.0232324 -0.0289671 -0.0358643 -0.0388335 0.0121092 -0.00209788 -0.0185383 -0.022789 -0.0201983 -0.0266735 -0.0265933 -0.0306372 -0.0268642 -0.023404 -0.00910322 -0.00250139 -0.0122153 -0.0278575 -0.0269555 -0.0165922 -0.00155898 0.00461886 -0.0101408 -0.0128417 0.00802118 0.0231509 -0.0193046 -0.0205078 -0.0164523 -0.00020995 0.00257495 -0.016048 -0.0180157 -0.0117088 -0.00497358 0.0299343 0.0422614 -0.0264124 -0.0253652 -0.023473 -0.0070241 0.00416069 0.0116487 0.0103031 0.013538 0.0263232 0.0511922 0.0459278 -0.0650203 -0.0593773 -0.0429586 -0.00120298 0.00885114 0.00218219 -0.00458116 0.0173078 0.0228397 0.0422846 0.0368573 0.0517438 0.0559335 0.0463327 0.035798 0.0196361 0.015739 0.0176214 0.0173375 0.0163373 -0.00645501 -0.0119252 0.047459 0.0510143 0.0509057 0.0514899 0.0514764 0.0543404 0.0551724 0.0351632 0.0212392 -0.00760456 -0.00863112 0.0342374 0.0295029 0.0224089 0.0191831 0.0317937 0.0337534 0.0291384 0.0143308 0.012609 -0.0076163 -0.00618108 0.0178187 0.010203 0.00405255 -0.00100473 -0.00482902 0.00118426 -0.0111248 -0.0269114 -0.0178912 -0.0145908 -0.00933813 -0.0196612 -0.0194733 -0.0140027 -0.0153524 -0.0145891 -0.000757214 0.00369816 -0.0109857 -0.0186411 -0.0318451 -0.0341121 0.000416044 -0.00384701 -0.00489051 -0.00565978 -0.00648127 -0.0138124 -0.0152643 -0.0193965 -0.0246949 -0.0300598 -0.0334354 0.00833741 -0.00237965 -0.0166125 -0.0301691 -0.0236727 -0.0265416 -0.0282209 -0.0292915 -0.0264665 -0.0223239 -0.00208044 -0.00210415 -0.0124178 -0.0257472 -0.0342532 -0.017675 -0.00810561 -0.00645035 -0.0189032 -0.0189045 0.00253 0.0227936 -0.0158644 -0.0212606 -0.00684177 -0.00168536 -0.000774756 -0.0121324 -0.0179803 -0.0192215 -0.00769282 0.030312 0.0423283 -0.0196835 -0.0213344 -0.0152386 -0.00960765 0.00394374 0.0120375 0.0064158 -0.0043155 0.0245206 0.0521294 0.0498852 -0.0569743 -0.0509548 -0.0312105 -0.000495339 0.00279185 -0.00151558 -0.00760851 0.00190622 0.0266667 0.0525462 0.0421712 0.0462665 0.0509302 0.0474928 0.0300004 0.0179022 0.0152384 0.0154134 0.00905642 0.00586401 -0.00497954 -0.0204907 0.0463331 0.0473871 0.0513361 0.0505641 0.0532256 0.0532029 0.0551849 0.0331692 0.00989324 -0.00472096 -0.0165677 0.0364176 0.0289682 0.0258464 0.0196916 0.032119 0.0337703 0.0299357 0.0136806 0.00585234 -0.00704379 -0.0156992 0.0233548 0.0127203 0.00867224 0.000220094 0.00053603 0.00447577 -0.0110356 -0.0241103 -0.0286918 -0.0267736 -0.0222852 -0.0112367 -0.0197356 -0.00926959 -0.0130798 -0.0122498 0.00483115 0.00435697 -0.0134578 -0.0297228 -0.0409724 -0.0366239 0.00802024 0.000267445 0.00121449 -0.000576821 0.00210047 -0.00506664 -0.0116901 -0.0216833 -0.025068 -0.0192556 -0.0320824 0.00563695 -0.000802244 -0.0189532 -0.0213788 -0.0163279 -0.0260268 -0.0203947 -0.023766 -0.022274 -0.0212512 -0.000157432 -0.00610597 -0.0105389 -0.0217127 -0.0253202 -0.0122315 -0.00158596 0.00234986 -0.0189709 -0.0149641 0.00554197 0.029538 -0.0197867 -0.0169783 -0.00534819 -0.0021138 0.0022849 -0.0110022 -0.0162093 -0.0177687 0.000417933 0.0312062 0.0462516 -0.0205415 -0.0176316 -0.0131277 -0.00293221 0.0112436 0.0166958 0.00673425 -0.00175245 0.036968 0.0509856 0.0525193 -0.0564851 -0.0480484 -0.0278852 0.0062234 0.0139624 0.0090345 0.00256948 0.00840594 0.0385134 0.0484424 0.0438219 0.0464654 0.0536371 0.0486908 0.0348912 0.0178312 0.0113131 0.0109651 0.0096292 0.00721704 -0.00398544 -0.0180497 0.0493864 0.0540511 0.0522363 0.0476423 0.0516044 0.0562798 0.0546698 0.0351451 0.0149075 -0.00119149 -0.0123137 0.0364667 0.0301185 0.0235582 0.0183051 0.0343166 0.0360601 0.0313091 0.0148438 0.00701418 -0.00609574 -0.00911868 0.0204288 0.0131768 0.00820832 0.00214969 0.00369105 0.0047362 -0.00790302 -0.0234572 -0.0208655 -0.0139481 -0.0147184 -0.0098478 -0.0243454 -0.0153564 -0.017841 -0.00753869 0.00621097 0.00306752 -0.0195413 -0.0280498 -0.0336148 -0.0293967 0.00185776 -0.00178356 -0.000211466 -0.00567798 -0.00512765 -0.0116355 -0.0146119 -0.0162939 -0.0177159 -0.0156675 -0.0287247 0.000736609 -0.00859038 -0.018228 -0.0239224 -0.0225821 -0.029305 -0.0202343 -0.0244793 -0.0222617 -0.0183774 -0.00713187 -0.0123337 -0.013734 -0.0216096 -0.0229317 -0.0137795 -0.00162498 0.00564894 -0.0169118 -0.011876 0.00851708 0.0300313 -0.0195335 -0.016283 -0.00386075 0.00400845 0.00193626 -0.0136451 -0.0208997 -0.0180826 -0.00651554 0.0353463 0.0503098 -0.0152335 -0.0160867 -0.010177 -7.86434e-05 0.0091066 0.0124479 0.00178957 -0.00555708 0.029691 0.058307 0.0572586 -0.048357 -0.0441483 -0.0276653 0.00353051 0.0120903 -0.00238747 -0.00511841 0.0114575 0.0353117 0.0597123 0.0514979 0.0503224 0.0579279 0.0473497 0.0377372 0.0192506 0.0114427 0.00841069 0.0094091 0.00950973 -0.00616145 -0.0132661 0.0532007 0.0561449 0.0464088 0.0431342 0.0442483 0.051283 0.0502751 0.0327761 0.0167003 -0.00454258 -0.00849801 0.039552 0.0344918 0.0249623 0.01848 0.0310865 0.0347869 0.0324519 0.0157963 0.0110217 -0.00942205 -0.00977511 0.022919 0.0150749 0.00964571 0.00677708 0.00263754 0.00559496 -0.00430689 -0.017361 -0.00963164 -0.011466 -0.00839074 -0.00387734 -0.0195571 -0.00955577 -0.00668297 -0.00269102 0.00498791 0.00173966 -0.0175189 -0.0271768 -0.0246397 -0.023029 0.00332003 0.0020197 4.30067e-05 0.00179326 0.00445234 0.00137093 -0.00101474 -0.0039377 -0.0221736 -0.0184268 -0.0268545 0.000642388 -0.00741187 -0.0161514 -0.0220488 -0.0150917 -0.0189382 -0.0122745 -0.0175089 -0.0198101 -0.0170756 -0.00801547 -0.00639656 -0.0106298 -0.0158231 -0.0123524 -0.00195968 0.00708114 0.00959017 -0.0140472 -0.0165025 0.0120209 0.0307014 -0.0184792 -0.0171078 -0.000773102 0.00736648 0.00906726 -0.00365455 -0.0159975 -0.0179826 -0.0102789 0.0339546 0.0514041 -0.00863512 -0.00877802 -0.00428565 0.00543263 0.013448 0.017905 0.0113478 0.00251666 0.0295172 0.0607329 0.0633931 -0.0457135 -0.0374146 -0.0189976 0.0100871 0.0140257 0.00341216 -0.00404276 0.00959063 0.0303061 0.0557638 0.0532885 0.0460245 0.0510659 0.0447171 0.0335225 0.0133997 0.00640706 0.00775535 0.00250034 0.000820953 -0.014659 -0.0218072 0.0485137 0.0481576 0.0403536 0.0378713 0.0380183 0.0436139 0.0477521 0.0270003 0.0100953 -0.00695513 -0.0133233 0.0403112 0.0299323 0.0208404 0.0190311 0.0309756 0.0298033 0.0313057 0.014385 0.0094722 -0.00825278 -0.00833407 0.0216371 0.0101723 0.0065106 0.00559012 0.00566105 0.0032183 -0.00541132 -0.0177713 -0.0180374 -0.0162705 -0.0121694 1.45297e-05 -0.0181755 -0.0079814 -0.00590835 0.00107701 0.00633902 0.00123625 -0.0181127 -0.0288063 -0.0385077 -0.02949 0.00742898 0.00332079 0.00344796 0.00444538 0.00386582 -0.00145134 -0.00185417 -0.00750961 -0.0174616 -0.023423 -0.0311207 -0.00341643 -0.0105749 -0.0204722 -0.0122548 -0.0116199 -0.0201453 -0.0121067 -0.0232825 -0.0279258 -0.0245636 -0.00706123 -0.0109768 -0.0125779 -0.0241852 -0.0106492 -0.0068865 -0.00310809 0.00721003 -0.0181045 -0.0235189 -0.00446726 0.0255674 -0.0144991 -0.00883214 0.000504599 0.0108675 0.00221379 -0.0128264 -0.0227394 -0.0241632 -0.00937627 0.0318905 0.0506428 -0.00407352 -0.000648213 -0.00641071 0.00561981 0.0154694 0.016296 0.00327413 -0.00367335 0.0281876 0.0601228 0.0638321 -0.0422006 -0.0311201 -0.0175114 0.0122702 0.0093604 -0.00181944 -0.00571242 0.00553023 0.0289055 0.0566747 0.0539524 0.0505782 0.0543217 0.045147 0.0345504 0.0161173 0.00608329 0.00522673 0.00168617 -0.000191087 -0.0185987 -0.0252754 0.0526797 0.0514644 0.041258 0.0402382 0.0433725 0.0478741 0.0505441 0.0291568 0.00886369 -0.0116439 -0.0213684 0.0442224 0.033475 0.0226605 0.0222812 0.0349894 0.0344569 0.0329772 0.0158777 0.00841699 -0.0132792 -0.0150242 0.019137 0.00836361 0.00911278 0.00923046 0.00834378 0.00867689 -0.00408131 -0.0195579 -0.0139836 -0.0181179 -0.0167414 0.00151203 -0.0149192 -0.00885606 -0.00384409 -0.00201292 0.00722254 0.00722524 -0.0189254 -0.0393864 -0.0462246 -0.0425725 0.00744134 -0.000271922 -0.00098259 0.00236746 0.00390809 0.00156805 -0.00227572 -0.0163987 -0.0252255 -0.0324284 -0.0336377 -0.00609271 -0.0178711 -0.0240043 -0.0158653 -0.0105596 -0.0223211 -0.0165207 -0.027587 -0.0329899 -0.0333504 -0.0126264 -0.00756577 -0.0147493 -0.0251539 -0.0178966 -0.00536035 -0.00513531 0.00420116 -0.0222059 -0.0266776 -0.00775452 0.0301708 -0.011823 -0.010029 0.00227198 0.00798797 0.00724446 -0.0091203 -0.02136 -0.0263369 -0.0127687 0.02703 0.0533216 -0.00901592 -0.0105542 -0.0117179 -0.000854038 0.0115939 0.015077 0.00363284 -0.00762269 0.0182231 0.056579 0.062182 -0.0527716 -0.0421704 -0.0253096 0.000645101 0.000778266 -0.00866369 -0.013598 -0.00237803 0.0226518 0.0528343 0.0514573 0.0228449 0.0240663 0.0239786 0.0270212 0.0288464 0.0242547 0.021371 0.0175616 0.0215672 0.023238 0.0255906 0.0205331 0.0205552 0.0190279 0.0193159 0.0176567 0.0141501 0.0118005 0.00693828 0.0119617 0.0157541 0.0188568 0.0227278 0.01969 0.0191363 0.0138614 0.00893186 0.00569339 0.00346804 -0.000846974 0.00815905 0.01417 0.0187334 0.0271868 0.0201628 0.0187128 0.0138305 0.0104724 0.0127306 0.0207414 0.0212678 0.0394167 0.0517046 0.0501847 0.0388172 0.0361773 0.0361964 0.0303066 0.0309054 0.0336539 0.0464481 0.0445371 0.0426039 0.0332052 0.0327536 0.0513128 0.0436417 0.0368138 0.0258474 0.018939 0.0147815 0.017921 0.0174799 0.0203608 0.0228315 0.0233342 0.084265 0.0684436 0.0558459 0.0377711 0.0269189 0.0178154 0.0157083 0.0177614 0.0255658 0.0238503 0.0119597 0.0794325 0.0612171 0.0490769 0.0330061 0.0282319 0.0272914 0.0340119 0.0296983 0.0226611 0.0106546 -0.00909525 0.0725576 0.0496217 0.0391912 0.0290169 0.0242867 0.0207344 0.0236856 0.0210617 0.00961994 -0.00317033 -0.0206216 0.0631178 0.0475795 0.0400544 0.0335147 0.0331657 0.0354262 0.0380943 0.0269713 0.00528637 -0.00896454 -0.0198632 0.0474868 0.0326849 0.0278136 0.027592 0.0279725 0.0293892 0.028902 0.0248084 0.00195977 -0.0107228 -0.0176592 0.00292956 0.00526365 0.00613357 0.00978013 0.0114804 0.00964631 0.00775487 0.00547616 0.00943901 0.010235 0.0120472 -0.000660286 0.000783859 0.00144918 0.00394029 0.00407496 0.00360451 0.00264075 -0.000857117 0.00151902 0.00295536 0.00569209 -0.00193972 -0.00262416 -0.000676776 -0.00302939 -0.00461507 -0.00543103 -0.00712508 -0.010348 -0.00217403 0.00197412 0.00620894 -0.000903944 -0.0049019 -0.00298223 -0.00478391 -0.0060229 -0.00148981 0.00547467 0.00559924 0.0209699 0.0318786 0.0316072 0.00451763 0.00407428 0.00636641 0.00617732 0.00940082 0.0167241 0.0279562 0.0263426 0.0246937 0.0153474 0.0153245 0.0116416 0.00789366 0.00607383 0.00242365 0.00241964 0.00597298 0.00745811 0.00697635 0.0072956 0.00902705 0.00864733 0.0375887 0.026269 0.0193995 0.00823357 0.00320586 -0.000108323 -0.000551451 0.00305394 0.0104749 0.00958009 0.000836511 0.02997 0.0174472 0.0107774 0.000431582 0.000944763 0.00555484 0.0128639 0.0117392 0.00676839 -0.00136315 -0.0161125 0.0216142 0.00708264 0.00352005 -0.00102405 -0.0013767 0.000659289 0.00281546 0.00169965 -0.00410239 -0.0128843 -0.0263906 0.0134625 0.00444825 0.00269387 0.00169657 0.00524809 0.011879 0.0158631 0.00847215 -0.00651143 -0.0178788 -0.0265647 0.00117352 -0.00829943 -0.00833918 -0.00279785 0.000444005 0.0059089 0.00694695 0.00531351 -0.00969103 -0.0201311 -0.0255132 -0.00383938 -0.00110103 0.000490933 0.00392457 0.00667456 0.00582866 0.00425142 0.00176683 0.00477842 0.0048432 0.00653755 -0.00801974 -0.00567608 -0.00379812 -0.00069465 0.000126185 0.00114805 0.000768846 -0.00264435 -0.00120098 -0.000929227 0.000436737 -0.00829911 -0.00758422 -0.00492202 -0.00628872 -0.00751103 -0.00764955 -0.00901827 -0.0123987 -0.00611712 -0.00235381 0.000171906 -0.00749125 -0.00954865 -0.00703157 -0.00840531 -0.00835562 -0.00412465 0.00176121 0.000583 0.0126766 0.022272 0.023204 -0.00377079 -0.00207224 0.000945413 0.00204251 0.00509521 0.0116762 0.0214456 0.0186758 0.0164056 0.00699629 0.00740775 0.00472559 0.00268836 0.00123329 -0.00064831 -0.000166084 0.00293711 0.00411841 0.00425647 0.00370466 0.00468129 0.00322407 0.027004 0.0177526 0.011758 0.00430227 0.00159833 -0.00216829 -0.00221968 0.00133628 0.00719128 0.0057342 -0.000623918 0.0208191 0.0110443 0.00528755 -0.00230939 -0.000616321 0.00377668 0.0104399 0.00870793 0.00306254 -0.00312433 -0.0159979 0.0115284 0.00263447 0.000889764 -0.00187722 -0.00123985 -0.000538997 -0.000238131 -0.0010817 -0.00677119 -0.0127811 -0.0251337 0.00414254 -0.00166678 -0.00276673 -0.00183156 0.00263103 0.00812604 0.0106909 0.00565804 -0.00715912 -0.0170637 -0.0254081 -0.00854577 -0.0146725 -0.0131814 -0.00610911 -0.0018496 0.0029823 0.00380727 0.00324844 -0.0108167 -0.0199848 -0.0259196 -0.0046482 -0.00149218 0.000699744 0.00312385 0.00649965 0.00543742 0.00299419 0.00175999 0.00392488 0.00298303 0.00422761 -0.00819195 -0.00577074 -0.0029401 -0.000486054 0.000489441 0.00154394 0.00096141 -0.00262665 -0.0016198 -0.00145734 -0.000508438 -0.00792435 -0.00669041 -0.00317192 -0.00499873 -0.0061545 -0.00586602 -0.00728811 -0.0116499 -0.0066111 -0.00347436 -0.000733115 -0.00724822 -0.00898071 -0.00618425 -0.00748158 -0.00704772 -0.00247251 0.00229529 -0.000411302 0.00971961 0.0172323 0.0189026 -0.00379501 -0.00315285 0.00102263 0.00200331 0.00520229 0.0108897 0.0196596 0.0162418 0.0138884 0.00474352 0.00510471 0.00419216 0.00243806 0.00180817 0.000582077 0.000801522 0.00254732 0.00363773 0.0046854 0.00398226 0.00398053 0.00219392 0.0228172 0.0143744 0.00916877 0.00338637 0.00201796 -0.00163672 -0.00148609 0.00164163 0.00622554 0.00483539 -0.000204216 0.0187257 0.00921981 0.00367135 -0.00231681 0.000293629 0.00405869 0.0108806 0.00853509 0.00316818 -0.000748238 -0.0126029 0.00986871 0.00265516 0.00146601 -0.000319534 5.05614e-05 -0.000877634 4.15824e-05 -4.08962e-05 -0.00500747 -0.00889562 -0.0206096 0.00239494 -0.00269474 -0.00233312 -0.00091518 0.00339524 0.0082425 0.0111796 0.00661983 -0.00390049 -0.0127072 -0.021603 -0.00984934 -0.0141948 -0.0114919 -0.00354603 0.000519621 0.00423884 0.00439066 0.00360774 -0.00871293 -0.0165032 -0.0230309 -0.00436478 -0.0011351 0.00139073 0.00379408 0.00630828 0.00502039 0.00331998 0.00179223 0.00402084 0.00218458 0.00377823 -0.00706173 -0.00450386 -0.00129308 0.00127443 0.00234061 0.00237892 0.00199362 -0.00257015 -0.00145521 -0.00211725 -5.54938e-05 -0.0051063 -0.00408169 -0.000541944 -0.00266364 -0.00271524 -0.00364367 -0.00445093 -0.0100324 -0.00558732 -0.00388213 -0.00042415 -0.00434327 -0.00560078 -0.00298329 -0.00445486 -0.00508414 -0.00117188 0.00249677 -0.00168636 0.00795262 0.01544 0.01602 -0.000957774 0.000255257 0.00351927 0.00357685 0.00607938 0.0110272 0.0177803 0.0151817 0.0115867 0.00285888 0.00381615 0.00586456 0.00461899 0.0047285 0.00274535 0.00214872 0.00329382 0.00363363 0.00551756 0.00303358 0.00376531 0.00173036 0.0225658 0.0146813 0.00980113 0.00281743 0.00228624 -0.000437909 -0.000161007 0.00307219 0.0065546 0.00510695 -0.000579762 0.0183603 0.00978052 0.00484151 -0.00199227 0.00103874 0.0036119 0.0102098 0.00883767 0.00296948 0.000759814 -0.0117665 0.00933607 0.00238654 0.00351874 0.00255146 0.00164674 0.000278366 -0.000345777 -0.000318215 -0.00519533 -0.00678363 -0.0183809 0.00316852 -0.00214038 4.26142e-05 0.00137266 0.00385492 0.00713724 0.00959853 0.00647498 -0.00255359 -0.0107361 -0.0204321 -0.00938684 -0.0138526 -0.00911951 -0.00183732 0.00109966 0.00425384 0.00411411 0.00315081 -0.00707465 -0.0147687 -0.0221649 -0.00461972 -0.00103205 0.00104905 0.00344795 0.00520121 0.00475903 0.00349035 0.0024572 0.00397384 0.00194265 0.00326289 -0.00731297 -0.00457885 -0.00163528 0.00169547 0.00269182 0.0029215 0.00284574 -0.00109716 -0.000739744 -0.00191399 -0.000188756 -0.00382441 -0.00300986 -0.000805273 -0.00259781 -0.00211828 -0.00296186 -0.00303587 -0.00778945 -0.00441963 -0.0033134 -0.000214304 -0.0027391 -0.0045417 -0.00250526 -0.00411402 -0.00488548 -0.000596833 0.00197734 -0.0020019 0.00484405 0.0122173 0.013516 -0.000310489 -0.000178709 0.00317091 0.00250706 0.00530135 0.00975853 0.0146279 0.0129409 0.0102697 0.00150679 0.00210864 0.00637442 0.00528246 0.0050354 0.00226238 0.00129019 0.00212641 0.00342687 0.00627626 0.00476143 0.00410461 0.00190547 0.0205615 0.0138548 0.00834366 0.00250087 0.00139387 -0.00223871 0.000822748 0.00358041 0.00684671 0.00496148 0.000169869 0.0172059 0.00988555 0.00524868 -0.000809387 0.00248336 0.00472642 0.011352 0.00885581 0.00498834 0.00160315 -0.0102706 0.00816667 0.0029876 0.00551465 0.00412926 0.00323396 0.000576164 0.000466152 -0.000828981 -0.0038032 -0.00491553 -0.0171907 0.00311997 -0.00178965 0.000630159 0.00258662 0.00452458 0.00826834 0.00907994 0.00465407 -0.00105826 -0.00830114 -0.0193904 -0.00900832 -0.0119772 -0.00701343 -0.000375922 0.00242041 0.0050216 0.00416962 0.00258352 -0.00717025 -0.0134441 -0.0216853 -0.00444142 -0.00110611 0.00190438 0.0044579 0.00537834 0.00482387 0.00403034 0.00232435 0.00331456 0.000939764 0.00176909 -0.00684783 -0.00409463 -0.000627915 0.00320371 0.00417118 0.00420681 0.00487615 0.000617979 -0.000181053 -0.00257407 -0.00114513 -0.00348786 -0.00329054 -0.00104592 -0.00211872 -0.000868958 -0.00158401 -0.00159445 -0.0056892 -0.00392202 -0.00405458 -0.00127116 -0.00216377 -0.00459419 -0.00247215 -0.00395634 -0.0039934 0.000203605 0.00179476 -0.00110173 0.00525473 0.0101466 0.0105238 -0.00150868 -0.000755963 0.00232341 0.00149698 0.00410038 0.00908439 0.0123363 0.0109161 0.00815116 0.000466785 0.00071347 0.00550261 0.0049321 0.00413835 0.00153797 0.000738558 0.00163231 0.00268707 0.0041647 0.00314217 0.00330484 0.00096927 0.0179907 0.01158 0.00640346 0.000854288 0.00091339 -0.00152335 0.000251702 0.00213791 0.00564144 0.00388475 0.000682677 0.015509 0.00888253 0.00443389 -0.00143081 0.00230108 0.0048317 0.00988767 0.0062155 0.00336132 2.6303e-05 -0.00874139 0.00797014 0.00296701 0.00621808 0.00341857 0.0026555 0.000301875 -0.000647572 -0.00200606 -0.00483215 -0.00600955 -0.0162054 0.00208025 -0.00198212 0.000668691 0.0023285 0.00345877 0.00712329 0.00726515 0.00273058 -0.00242048 -0.00863164 -0.0186689 -0.00924346 -0.0124093 -0.0078449 -0.000656031 0.00170513 0.00426038 0.00267796 0.00143232 -0.00735277 -0.0137262 -0.021841 -0.00554921 -0.00231542 0.000616164 0.00361931 0.00536713 0.00458808 0.00416683 0.00277813 0.00439345 0.00207613 0.00109672 -0.00709428 -0.00397892 -0.000587141 0.00317344 0.00484021 0.00502382 0.00622366 0.00186874 0.000994482 -0.00163094 -0.0011093 -0.00304228 -0.00320295 -0.00150132 -0.00226219 0.000426578 -0.000121625 -0.000263583 -0.00399237 -0.00255662 -0.00353274 -0.0025427 -0.00229912 -0.00415159 -0.00238024 -0.00376821 -0.00316004 0.000352745 0.00174466 -0.00130921 0.00353973 0.00670451 0.00717821 -0.00158592 -0.00121695 0.00252083 0.00141424 0.00337964 0.00841486 0.0103506 0.00810894 0.00506215 -0.00126739 -0.00157458 0.00423982 0.00467041 0.0045064 0.00264846 0.00193167 0.000735509 0.00101762 0.00181907 0.00020977 0.00212802 -0.00159383 0.0162406 0.00994675 0.00596044 0.000866424 0.000785986 -0.00167413 -0.00051038 0.000453678 0.00366107 0.0028706 -0.00119035 0.0138417 0.00727093 0.00406559 -0.000796739 0.00198316 0.00476383 0.00886748 0.00423728 0.000904321 0.000267033 -0.0079082 0.00674131 0.0018681 0.00604166 0.00373785 0.0036172 0.00064329 -0.000252217 -0.000546322 -0.00487761 -0.00534356 -0.0141265 0.00294376 -0.00131522 0.00100961 0.00249572 0.00456535 0.0071144 0.00678579 0.00325022 -0.00123493 -0.00666179 -0.0168013 -0.0088125 -0.0119775 -0.00701975 0.00044935 0.00302151 0.00547508 0.00299572 0.00198786 -0.00665394 -0.0121808 -0.0209444 -0.00600355 -0.00241105 0.000613271 0.00347555 0.00480487 0.00486832 0.00457373 0.00356366 0.00453215 0.00168902 0.00131284 -0.00750789 -0.00393305 0.000272676 0.00385678 0.00588123 0.00634486 0.00764683 0.00429476 0.00231683 -0.000538987 0.000141313 -0.00286138 -0.00357173 -0.00150146 -0.000880133 0.00212929 0.00109818 0.000230343 -0.00232105 -0.00103983 -0.00188024 -0.000442912 -0.00160252 -0.00343693 -0.00187804 -0.00366233 -0.0030755 0.000810315 0.0007099 -0.000339463 0.00263483 0.00517854 0.00658388 -0.00125951 -0.00200615 0.000820127 -6.71136e-05 0.00189361 0.00774129 0.00759123 0.00575707 0.00323038 -0.0022086 -0.00180904 0.00318898 0.00311157 0.00281266 0.00122531 0.000861795 0.000402377 0.00109173 0.00234558 -0.000394347 0.00164477 -0.00156882 0.013893 0.00816597 0.00380521 -0.000485292 0.000569685 -0.000390739 0.000406775 0.00119134 0.00318874 0.00216792 3.59782e-05 0.0101407 0.00489029 0.00132335 -0.00157742 0.00196627 0.00536788 0.00882527 0.00479782 0.00110963 -0.000811066 -0.00739196 0.00419013 0.00121081 0.00476455 0.00303716 0.00333035 0.00185183 -0.00029932 -0.00023544 -0.0037182 -0.00575317 -0.0148132 0.00195876 -0.00142643 7.62387e-05 0.00133589 0.00490051 0.00845747 0.00638671 0.00215873 -0.0013516 -0.00613729 -0.0173711 -0.0102178 -0.011544 -0.0068117 0.000774418 0.00316923 0.00552911 0.00221652 0.000438285 -0.00757613 -0.0121573 -0.0212941 -0.00753661 -0.00335454 -0.00101756 0.00308605 0.0039129 0.00452386 0.00572913 0.00424365 0.00440677 0.00126265 0.00186419 -0.00725577 -0.00327505 -0.000105275 0.00443123 0.00686174 0.00699059 0.00877574 0.00486091 0.00276187 -0.000295673 0.00184857 -0.00259267 -0.00318417 -0.00178775 -0.000843335 0.00275114 0.00115855 0.0010613 -0.00155344 0.000605435 -0.00113451 0.00194292 -0.00109535 -0.00293165 -0.00240271 -0.00300827 -0.0022849 0.00167493 0.00133025 -9.70174e-05 0.00323432 0.00537179 0.0064263 -0.00247802 -0.00349452 -0.000464683 -0.000453112 0.00155839 0.0079214 0.0070681 0.00594484 0.00309057 -0.00209689 -0.00184791 0.002044 0.00168758 0.00148131 0.00043056 0.000918999 0.00066075 0.000651074 0.00235114 0.000479987 0.00144057 -0.00109163 0.0112209 0.00604381 0.00274391 -0.00199982 -0.000296143 -0.000579493 0.000231957 0.00144835 0.00313155 0.00260576 0.000800094 0.00859015 0.00349116 0.000939712 -0.002267 0.00164722 0.00456592 0.00676629 0.00392828 0.000668747 -0.000192623 -0.00662942 0.00331123 0.000695602 0.00545582 0.00284198 0.00155334 0.00117193 -0.00109533 -0.00148977 -0.00455331 -0.00456694 -0.014596 0.00171628 -0.0018794 0.000269015 0.000760145 0.00385346 0.00785138 0.00571457 0.000318301 -0.00131615 -0.00551691 -0.0170239 -0.0103853 -0.0119471 -0.00694803 0.000556517 0.00194 0.00472672 0.00112643 -0.00178165 -0.0080474 -0.0115625 -0.0208188 -0.00784343 -0.00285211 -2.14816e-08 0.00284666 0.00415236 0.00456207 0.00524834 0.00337933 0.00319533 0.00149352 0.000794414 -0.00600604 -0.00190371 0.00160904 0.00549212 0.00805538 0.00749094 0.00916554 0.00534078 0.00247888 0.00024458 0.00133602 -0.00162463 -0.00222537 -0.000152393 -0.00043319 0.00322706 0.00132536 0.000941536 -0.00131456 0.000543858 -0.0010116 0.0013246 0.000355483 -0.00147229 -0.00102377 -0.0020865 -0.00137581 0.00183115 0.00116282 0.000323743 0.00213426 0.00340764 0.00450523 -0.00195982 -0.00394786 0.000598589 -0.000111183 0.00244479 0.00776068 0.00587209 0.00350228 -0.000743748 -0.00426571 -0.0020903 0.00206464 0.00161174 0.00228995 0.000311161 0.00158284 0.00084959 -2.64783e-05 0.000183116 -0.000835195 0.00118227 -0.00165584 0.0100346 0.00598881 0.00193456 -0.00255417 -0.000977021 -0.00157786 -9.07888e-06 0.000317771 0.00229379 0.00228507 0.000669773 0.0079166 0.00423885 0.000898295 -0.00239751 0.00139944 0.00408208 0.00645784 0.00171794 -0.000475626 -0.00031402 -0.00537705 0.00294226 0.000983479 0.00445596 0.00148796 0.000897854 -6.96666e-06 -0.00250994 -0.00307863 -0.0042563 -0.00363461 -0.0131321 0.00160854 -0.00142176 -0.000163568 0.000726225 0.00435737 0.0069936 0.0045716 -0.000718162 -0.00102713 -0.00560321 -0.0165152 -0.0106276 -0.0115908 -0.00690952 0.00101002 0.00322128 0.0052579 0.00199093 -0.00113803 -0.00734895 -0.0117776 -0.0204431 -0.00656485 -0.00191538 0.000952716 0.00428358 0.00461912 0.00490704 0.00472853 0.00399612 0.00324405 0.000576168 -0.000386934 -0.0040319 -0.00035306 0.00289153 0.00634882 0.0081244 0.00833576 0.00912803 0.0056909 0.00210525 -0.000477839 0.000630024 -0.0004248 -0.000945485 0.000649074 0.000579938 0.00420073 0.00251511 0.000937729 -0.00191152 -0.000758206 -0.00200375 0.00133074 0.00092445 -0.00129737 -0.000406966 -0.00124124 -0.000613353 0.00265772 0.00112836 0.00136271 0.00272992 0.00358226 0.0043917 -0.000711283 -0.0041333 -0.000195165 4.78813e-05 0.00335178 0.00797608 0.0055238 0.00279139 -0.000829665 -0.00358544 -0.00201849 0.00219085 0.00167725 0.00249496 0.000487135 0.00148241 0.00140872 0.000590197 0.000957652 -0.000448328 0.00190566 -0.000874328 0.00917883 0.00462176 0.00115153 -0.00330788 -0.00102357 -0.00133711 0.000345644 0.000282892 0.00185554 0.00210042 0.00046406 0.00615558 0.00305952 0.000370268 -0.0019586 0.00242214 0.00506361 0.00692109 0.0016406 -9.20622e-05 -0.000432973 -0.00530099 0.000838658 -0.00038174 0.00386289 0.0016651 0.00146307 0.00023793 -0.00274051 -0.00266716 -0.00443464 -0.00312402 -0.0124986 0.00068693 -0.00272472 -0.000957448 -0.000146616 0.00336079 0.00607474 0.00322539 -0.00225194 -0.00172262 -0.00484226 -0.0158525 -0.0108725 -0.0116759 -0.00672128 0.00055478 0.0030238 0.00417647 0.00104405 -0.00087978 -0.00712901 -0.0104299 -0.0198873 -0.00631298 -0.00155605 0.00134666 0.00436638 0.00399499 0.00417574 0.00372046 0.00254818 0.00290689 0.000462727 0.000333627 -0.00375938 0.000285 0.00282517 0.00613236 0.00708441 0.00761467 0.00799285 0.00461589 0.00246681 -0.000294596 0.000900794 -0.000627889 -0.000823128 0.000653834 0.000462264 0.00331757 0.00238138 0.000710114 -0.00204928 0.000142532 -0.00133374 0.00122735 0.000235769 -0.00206745 -0.000874521 -0.000530102 -0.000531658 0.00315015 0.00169226 0.00203359 0.00451163 0.00534905 0.00558573 -0.000800298 -0.0038405 0.00102811 0.00205839 0.00388475 0.00842861 0.00513682 0.00376662 0.00063711 -0.00167768 -0.000767622 0.00257943 0.00239152 0.0031666 0.00223396 0.00310762 0.00338876 0.00271393 0.00236836 -0.000946828 0.00140624 -0.00133019 0.00823359 0.00451528 0.0017185 -0.00113055 0.00105841 -0.000365508 -1.03597e-05 6.85962e-06 0.000716483 0.000959195 -0.00166441 0.00639569 0.00304688 -0.000102135 -0.000646971 0.00297623 0.00531237 0.00634217 0.000491621 -0.00192617 -0.000948979 -0.00697268 0.00144323 -0.00149551 0.0028085 0.0024754 0.00200563 0.000664816 -0.00327224 -0.0048241 -0.00639892 -0.00463961 -0.014076 0.00192324 -0.0010576 -0.000277168 0.000621685 0.00337765 0.00645903 0.00378288 -0.00272897 -0.00295453 -0.00624634 -0.0168409 -0.00913744 -0.0104171 -0.00592535 0.00148457 0.00217151 0.00319669 0.000471861 -0.00216059 -0.00850494 -0.0121278 -0.0211828 -0.00677234 -0.00195909 0.000677885 0.00387799 0.00267136 0.00307362 0.00249182 0.000899802 0.00139765 -0.00144262 -0.0014574 -0.00436221 0.000365894 0.00183266 0.00549416 0.00591639 0.00599205 0.00666446 0.00371792 0.0013743 -0.00175661 -0.00103158 0.000269809 2.78937e-05 -0.000172165 0.000453724 0.00353167 0.00164071 0.000413 -0.0019928 -0.000267928 -0.00197232 0.000838416 -0.000243031 -0.0023377 -0.00167505 -0.000333853 0.000691814 0.00342784 0.00189155 0.00210088 0.00332233 0.00438513 0.00486093 5.97834e-05 -0.00330939 0.00115164 0.00300813 0.00457619 0.00944314 0.00667311 0.00529129 0.00176592 -0.00321291 -0.00197305 0.00307257 0.00277704 0.00363264 0.00323308 0.00390387 0.00433585 0.00440433 0.00289331 0.000326962 -8.36559e-06 -0.00200366 0.00743 0.00400048 0.00104271 -8.48269e-05 0.00104134 -0.000893514 0.000157399 -0.000551302 0.000216626 0.000209972 -0.00284817 0.00533751 0.00271464 -0.00145806 -0.00129786 0.00198605 0.00370553 0.00643284 0.000581104 -0.00147452 -0.00338121 -0.00938902 0.000966881 -0.00149429 0.00193241 0.00177125 -1.25257e-05 -0.000821966 -0.00339415 -0.00541559 -0.00683787 -0.00627511 -0.0166645 0.000553422 -0.00233178 -0.00236901 -0.000444469 0.00283091 0.00601753 0.0031422 -0.00387484 -0.00367946 -0.00718925 -0.018833 -0.0104351 -0.0102655 -0.00655187 0.000365994 -6.08937e-05 0.00175495 9.39949e-05 -0.0037558 -0.0101608 -0.012926 -0.0229061 -0.00638914 -0.00215718 0.000677788 0.00339878 0.00163036 0.00144724 0.000726017 -0.00054656 0.000182188 -0.00262281 -0.00253669 -0.00389111 0.000410284 0.00191527 0.00477525 0.00545938 0.00547135 0.00650254 0.00355119 0.00106534 -0.00231618 -0.00269184 0.000373025 -0.000100529 -0.000350467 0.000601659 0.00363733 0.00147237 0.000435146 -0.0024353 -0.000891536 -0.00222242 -1.1403e-05 -0.000688918 -0.00238711 -0.00101001 0.000510083 0.000660846 0.0038655 0.00140307 0.000968193 0.00280273 0.00345842 0.00329343 0.000192152 -0.00247475 0.000984079 0.0025632 0.00347123 0.00801706 0.00648487 0.00358814 -0.00133672 -0.00600664 -0.00520346 0.00261151 0.00171351 0.00201319 0.00230319 0.00303173 0.0026192 0.00252915 0.000207006 -0.00336156 -0.00320245 -0.00554074 0.00744262 0.00249674 -0.00086932 -0.00213128 -0.000241558 -0.00303721 -0.00192968 -0.00306587 -0.00314711 -0.00384261 -0.00616999 0.00515957 0.00116419 -0.00281103 -0.00265578 0.000795674 0.000668787 0.00363124 -0.00222621 -0.00513122 -0.00738537 -0.0115219 0.000555168 -0.00286463 0.000776555 0.000185977 -0.000719636 -0.00238083 -0.00554878 -0.00805708 -0.00939203 -0.00916421 -0.018163 -0.00137 -0.00446709 -0.00427012 -0.0025387 0.000940392 0.0043178 0.00111037 -0.00652976 -0.0069676 -0.00929705 -0.0206103 -0.0126919 -0.0136428 -0.00995663 -0.0030723 -0.00325912 -0.00109767 -0.00253788 -0.00604705 -0.012537 -0.015381 -0.024677 0.0228449 0.0240663 0.0239786 0.0270212 0.0288464 0.0242547 0.021371 0.0175616 0.0215672 0.023238 0.0255906 0.0205331 0.0205552 0.0190279 0.0193159 0.0176567 0.0141501 0.0118005 0.00693828 0.0119617 0.0157541 0.0188568 0.0227278 0.01969 0.0191363 0.0138614 0.00893186 0.00569339 0.00346804 -0.000846974 0.00815905 0.01417 0.0187334 0.0271868 0.0201628 0.0187128 0.0138305 0.0104724 0.0127306 0.0207414 0.0212678 0.0394167 0.0517046 0.0501847 0.0388172 0.0361773 0.0361964 0.0303066 0.0309054 0.0336539 0.0464481 0.0445371 0.0426039 0.0332052 0.0327536 0.0513128 0.0436417 0.0368138 0.0258474 0.018939 0.0147815 0.017921 0.0174799 0.0203608 0.0228315 0.0233342 0.084265 0.0684436 0.0558459 0.0377711 0.0269189 0.0178154 0.0157083 0.0177614 0.0255658 0.0238503 0.0119597 0.0794325 0.0612171 0.0490769 0.0330061 0.0282319 0.0272914 0.0340119 0.0296983 0.0226611 0.0106546 -0.00909525 0.0725576 0.0496217 0.0391912 0.0290169 0.0242867 0.0207344 0.0236856 0.0210617 0.00961994 -0.00317033 -0.0206216 0.0631178 0.0475795 0.0400544 0.0335147 0.0331657 0.0354262 0.0380943 0.0269713 0.00528637 -0.00896454 -0.0198632 0.0474868 0.0326849 0.0278136 0.027592 0.0279725 0.0293892 0.028902 0.0248084 0.00195977 -0.0107228 -0.0176592 0.00292956 0.00526365 0.00613357 0.00978013 0.0114804 0.00964631 0.00775487 0.00547616 0.00943901 0.010235 0.0120472 -0.000660286 0.000783859 0.00144918 0.00394029 0.00407496 0.00360451 0.00264075 -0.000857117 0.00151902 0.00295536 0.00569209 -0.00193972 -0.00262416 -0.000676776 -0.00302939 -0.00461507 -0.00543103 -0.00712508 -0.010348 -0.00217403 0.00197412 0.00620894 -0.000903944 -0.0049019 -0.00298223 -0.00478391 -0.0060229 -0.00148981 0.00547467 0.00559924 0.0209699 0.0318786 0.0316072 0.00451763 0.00407428 0.00636641 0.00617732 0.00940082 0.0167241 0.0279562 0.0263426 0.0246937 0.0153474 0.0153245 0.0116416 0.00789366 0.00607383 0.00242365 0.00241964 0.00597298 0.00745811 0.00697635 0.0072956 0.00902705 0.00864733 0.0375887 0.026269 0.0193995 0.00823357 0.00320586 -0.000108323 -0.000551451 0.00305394 0.0104749 0.00958009 0.000836511 0.02997 0.0174472 0.0107774 0.000431582 0.000944763 0.00555484 0.0128639 0.0117392 0.00676839 -0.00136315 -0.0161125 0.0216142 0.00708264 0.00352005 -0.00102405 -0.0013767 0.000659289 0.00281546 0.00169965 -0.00410239 -0.0128843 -0.0263906 0.0134625 0.00444825 0.00269387 0.00169657 0.00524809 0.011879 0.0158631 0.00847215 -0.00651143 -0.0178788 -0.0265647 0.00117352 -0.00829943 -0.00833918 -0.00279785 0.000444005 0.0059089 0.00694695 0.00531351 -0.00969103 -0.0201311 -0.0255132 -0.00383938 -0.00110103 0.000490933 0.00392457 0.00667456 0.00582866 0.00425142 0.00176683 0.00477842 0.0048432 0.00653755 -0.00801974 -0.00567608 -0.00379812 -0.00069465 0.000126185 0.00114805 0.000768846 -0.00264435 -0.00120098 -0.000929227 0.000436737 -0.00829911 -0.00758422 -0.00492202 -0.00628872 -0.00751103 -0.00764955 -0.00901827 -0.0123987 -0.00611712 -0.00235381 0.000171906 -0.00749125 -0.00954865 -0.00703157 -0.00840531 -0.00835562 -0.00412465 0.00176121 0.000583 0.0126766 0.022272 0.023204 -0.00377079 -0.00207224 0.000945413 0.00204251 0.00509521 0.0116762 0.0214456 0.0186758 0.0164056 0.00699629 0.00740775 0.00472559 0.00268836 0.00123329 -0.00064831 -0.000166084 0.00293711 0.00411841 0.00425647 0.00370466 0.00468129 0.00322407 0.027004 0.0177526 0.011758 0.00430227 0.00159833 -0.00216829 -0.00221968 0.00133628 0.00719128 0.0057342 -0.000623918 0.0208191 0.0110443 0.00528755 -0.00230939 -0.000616321 0.00377668 0.0104399 0.00870793 0.00306254 -0.00312433 -0.0159979 0.0115284 0.00263447 0.000889764 -0.00187722 -0.00123985 -0.000538997 -0.000238131 -0.0010817 -0.00677119 -0.0127811 -0.0251337 0.00414254 -0.00166678 -0.00276673 -0.00183156 0.00263103 0.00812604 0.0106909 0.00565804 -0.00715912 -0.0170637 -0.0254081 -0.00854577 -0.0146725 -0.0131814 -0.00610911 -0.0018496 0.0029823 0.00380727 0.00324844 -0.0108167 -0.0199848 -0.0259196 -0.0046482 -0.00149218 0.000699744 0.00312385 0.00649965 0.00543742 0.00299419 0.00175999 0.00392488 0.00298303 0.00422761 -0.00819195 -0.00577074 -0.0029401 -0.000486054 0.000489441 0.00154394 0.00096141 -0.00262665 -0.0016198 -0.00145734 -0.000508438 -0.00792435 -0.00669041 -0.00317192 -0.00499873 -0.0061545 -0.00586602 -0.00728811 -0.0116499 -0.0066111 -0.00347436 -0.000733115 -0.00724822 -0.00898071 -0.00618425 -0.00748158 -0.00704772 -0.00247251 0.00229529 -0.000411302 0.00971961 0.0172323 0.0189026 -0.00379501 -0.00315285 0.00102263 0.00200331 0.00520229 0.0108897 0.0196596 0.0162418 0.0138884 0.00474352 0.00510471 0.00419216 0.00243806 0.00180817 0.000582077 0.000801522 0.00254732 0.00363773 0.0046854 0.00398226 0.00398053 0.00219392 0.0228172 0.0143744 0.00916877 0.00338637 0.00201796 -0.00163672 -0.00148609 0.00164163 0.00622554 0.00483539 -0.000204216 0.0187257 0.00921981 0.00367135 -0.00231681 0.000293629 0.00405869 0.0108806 0.00853509 0.00316818 -0.000748238 -0.0126029 0.00986871 0.00265516 0.00146601 -0.000319534 5.05614e-05 -0.000877634 4.15824e-05 -4.08962e-05 -0.00500747 -0.00889562 -0.0206096 0.00239494 -0.00269474 -0.00233312 -0.00091518 0.00339524 0.0082425 0.0111796 0.00661983 -0.00390049 -0.0127072 -0.021603 -0.00984934 -0.0141948 -0.0114919 -0.00354603 0.000519621 0.00423884 0.00439066 0.00360774 -0.00871293 -0.0165032 -0.0230309 -0.00436478 -0.0011351 0.00139073 0.00379408 0.00630828 0.00502039 0.00331998 0.00179223 0.00402084 0.00218458 0.00377823 -0.00706173 -0.00450386 -0.00129308 0.00127443 0.00234061 0.00237892 0.00199362 -0.00257015 -0.00145521 -0.00211725 -5.54938e-05 -0.0051063 -0.00408169 -0.000541944 -0.00266364 -0.00271524 -0.00364367 -0.00445093 -0.0100324 -0.00558732 -0.00388213 -0.00042415 -0.00434327 -0.00560078 -0.00298329 -0.00445486 -0.00508414 -0.00117188 0.00249677 -0.00168636 0.00795262 0.01544 0.01602 -0.000957774 0.000255257 0.00351927 0.00357685 0.00607938 0.0110272 0.0177803 0.0151817 0.0115867 0.00285888 0.00381615 0.00586456 0.00461899 0.0047285 0.00274535 0.00214872 0.00329382 0.00363363 0.00551756 0.00303358 0.00376531 0.00173036 0.0225658 0.0146813 0.00980113 0.00281743 0.00228624 -0.000437909 -0.000161007 0.00307219 0.0065546 0.00510695 -0.000579762 0.0183603 0.00978052 0.00484151 -0.00199227 0.00103874 0.0036119 0.0102098 0.00883767 0.00296948 0.000759814 -0.0117665 0.00933607 0.00238654 0.00351874 0.00255146 0.00164674 0.000278366 -0.000345777 -0.000318215 -0.00519533 -0.00678363 -0.0183809 0.00316852 -0.00214038 4.26142e-05 0.00137266 0.00385492 0.00713724 0.00959853 0.00647498 -0.00255359 -0.0107361 -0.0204321 -0.00938684 -0.0138526 -0.00911951 -0.00183732 0.00109966 0.00425384 0.00411411 0.00315081 -0.00707465 -0.0147687 -0.0221649 -0.00461972 -0.00103205 0.00104905 0.00344795 0.00520121 0.00475903 0.00349035 0.0024572 0.00397384 0.00194265 0.00326289 -0.00731297 -0.00457885 -0.00163528 0.00169547 0.00269182 0.0029215 0.00284574 -0.00109716 -0.000739744 -0.00191399 -0.000188756 -0.00382441 -0.00300986 -0.000805273 -0.00259781 -0.00211828 -0.00296186 -0.00303587 -0.00778945 -0.00441963 -0.0033134 -0.000214304 -0.0027391 -0.0045417 -0.00250526 -0.00411402 -0.00488548 -0.000596833 0.00197734 -0.0020019 0.00484405 0.0122173 0.013516 -0.000310489 -0.000178709 0.00317091 0.00250706 0.00530135 0.00975853 0.0146279 0.0129409 0.0102697 0.00150679 0.00210864 0.00637442 0.00528246 0.0050354 0.00226238 0.00129019 0.00212641 0.00342687 0.00627626 0.00476143 0.00410461 0.00190547 0.0205615 0.0138548 0.00834366 0.00250087 0.00139387 -0.00223871 0.000822748 0.00358041 0.00684671 0.00496148 0.000169869 0.0172059 0.00988555 0.00524868 -0.000809387 0.00248336 0.00472642 0.011352 0.00885581 0.00498834 0.00160315 -0.0102706 0.00816667 0.0029876 0.00551465 0.00412926 0.00323396 0.000576164 0.000466152 -0.000828981 -0.0038032 -0.00491553 -0.0171907 0.00311997 -0.00178965 0.000630159 0.00258662 0.00452458 0.00826834 0.00907994 0.00465407 -0.00105826 -0.00830114 -0.0193904 -0.00900832 -0.0119772 -0.00701343 -0.000375922 0.00242041 0.0050216 0.00416962 0.00258352 -0.00717025 -0.0134441 -0.0216853 -0.00444142 -0.00110611 0.00190438 0.0044579 0.00537834 0.00482387 0.00403034 0.00232435 0.00331456 0.000939764 0.00176909 -0.00684783 -0.00409463 -0.000627915 0.00320371 0.00417118 0.00420681 0.00487615 0.000617979 -0.000181053 -0.00257407 -0.00114513 -0.00348786 -0.00329054 -0.00104592 -0.00211872 -0.000868958 -0.00158401 -0.00159445 -0.0056892 -0.00392202 -0.00405458 -0.00127116 -0.00216377 -0.00459419 -0.00247215 -0.00395634 -0.0039934 0.000203605 0.00179476 -0.00110173 0.00525473 0.0101466 0.0105238 -0.00150868 -0.000755963 0.00232341 0.00149698 0.00410038 0.00908439 0.0123363 0.0109161 0.00815116 0.000466785 0.00071347 0.00550261 0.0049321 0.00413835 0.00153797 0.000738558 0.00163231 0.00268707 0.0041647 0.00314217 0.00330484 0.00096927 0.0179907 0.01158 0.00640346 0.000854288 0.00091339 -0.00152335 0.000251702 0.00213791 0.00564144 0.00388475 0.000682677 0.015509 0.00888253 0.00443389 -0.00143081 0.00230108 0.0048317 0.00988767 0.0062155 0.00336132 2.6303e-05 -0.00874139 0.00797014 0.00296701 0.00621808 0.00341857 0.0026555 0.000301875 -0.000647572 -0.00200606 -0.00483215 -0.00600955 -0.0162054 0.00208025 -0.00198212 0.000668691 0.0023285 0.00345877 0.00712329 0.00726515 0.00273058 -0.00242048 -0.00863164 -0.0186689 -0.00924346 -0.0124093 -0.0078449 -0.000656031 0.00170513 0.00426038 0.00267796 0.00143232 -0.00735277 -0.0137262 -0.021841 -0.00554921 -0.00231542 0.000616164 0.00361931 0.00536713 0.00458808 0.00416683 0.00277813 0.00439345 0.00207613 0.00109672 -0.00709428 -0.00397892 -0.000587141 0.00317344 0.00484021 0.00502382 0.00622366 0.00186874 0.000994482 -0.00163094 -0.0011093 -0.00304228 -0.00320295 -0.00150132 -0.00226219 0.000426578 -0.000121625 -0.000263583 -0.00399237 -0.00255662 -0.00353274 -0.0025427 -0.00229912 -0.00415159 -0.00238024 -0.00376821 -0.00316004 0.000352745 0.00174466 -0.00130921 0.00353973 0.00670451 0.00717821 -0.00158592 -0.00121695 0.00252083 0.00141424 0.00337964 0.00841486 0.0103506 0.00810894 0.00506215 -0.00126739 -0.00157458 0.00423982 0.00467041 0.0045064 0.00264846 0.00193167 0.000735509 0.00101762 0.00181907 0.00020977 0.00212802 -0.00159383 0.0162406 0.00994675 0.00596044 0.000866424 0.000785986 -0.00167413 -0.00051038 0.000453678 0.00366107 0.0028706 -0.00119035 0.0138417 0.00727093 0.00406559 -0.000796739 0.00198316 0.00476383 0.00886748 0.00423728 0.000904321 0.000267033 -0.0079082 0.00674131 0.0018681 0.00604166 0.00373785 0.0036172 0.00064329 -0.000252217 -0.000546322 -0.00487761 -0.00534356 -0.0141265 0.00294376 -0.00131522 0.00100961 0.00249572 0.00456535 0.0071144 0.00678579 0.00325022 -0.00123493 -0.00666179 -0.0168013 -0.0088125 -0.0119775 -0.00701975 0.00044935 0.00302151 0.00547508 0.00299572 0.00198786 -0.00665394 -0.0121808 -0.0209444 -0.00600355 -0.00241105 0.000613271 0.00347555 0.00480487 0.00486832 0.00457373 0.00356366 0.00453215 0.00168902 0.00131284 -0.00750789 -0.00393305 0.000272676 0.00385678 0.00588123 0.00634486 0.00764683 0.00429476 0.00231683 -0.000538987 0.000141313 -0.00286138 -0.00357173 -0.00150146 -0.000880133 0.00212929 0.00109818 0.000230343 -0.00232105 -0.00103983 -0.00188024 -0.000442912 -0.00160252 -0.00343693 -0.00187804 -0.00366233 -0.0030755 0.000810315 0.0007099 -0.000339463 0.00263483 0.00517854 0.00658388 -0.00125951 -0.00200615 0.000820127 -6.71136e-05 0.00189361 0.00774129 0.00759123 0.00575707 0.00323038 -0.0022086 -0.00180904 0.00318898 0.00311157 0.00281266 0.00122531 0.000861795 0.000402377 0.00109173 0.00234558 -0.000394347 0.00164477 -0.00156882 0.013893 0.00816597 0.00380521 -0.000485292 0.000569685 -0.000390739 0.000406775 0.00119134 0.00318874 0.00216792 3.59782e-05 0.0101407 0.00489029 0.00132335 -0.00157742 0.00196627 0.00536788 0.00882527 0.00479782 0.00110963 -0.000811066 -0.00739196 0.00419013 0.00121081 0.00476455 0.00303716 0.00333035 0.00185183 -0.00029932 -0.00023544 -0.0037182 -0.00575317 -0.0148132 0.00195876 -0.00142643 7.62387e-05 0.00133589 0.00490051 0.00845747 0.00638671 0.00215873 -0.0013516 -0.00613729 -0.0173711 -0.0102178 -0.011544 -0.0068117 0.000774418 0.00316923 0.00552911 0.00221652 0.000438285 -0.00757613 -0.0121573 -0.0212941 -0.00753661 -0.00335454 -0.00101756 0.00308605 0.0039129 0.00452386 0.00572913 0.00424365 0.00440677 0.00126265 0.00186419 -0.00725577 -0.00327505 -0.000105275 0.00443123 0.00686174 0.00699059 0.00877574 0.00486091 0.00276187 -0.000295673 0.00184857 -0.00259267 -0.00318417 -0.00178775 -0.000843335 0.00275114 0.00115855 0.0010613 -0.00155344 0.000605435 -0.00113451 0.00194292 -0.00109535 -0.00293165 -0.00240271 -0.00300827 -0.0022849 0.00167493 0.00133025 -9.70174e-05 0.00323432 0.00537179 0.0064263 -0.00247802 -0.00349452 -0.000464683 -0.000453112 0.00155839 0.0079214 0.0070681 0.00594484 0.00309057 -0.00209689 -0.00184791 0.002044 0.00168758 0.00148131 0.00043056 0.000918999 0.00066075 0.000651074 0.00235114 0.000479987 0.00144057 -0.00109163 0.0112209 0.00604381 0.00274391 -0.00199982 -0.000296143 -0.000579493 0.000231957 0.00144835 0.00313155 0.00260576 0.000800094 0.00859015 0.00349116 0.000939712 -0.002267 0.00164722 0.00456592 0.00676629 0.00392828 0.000668747 -0.000192623 -0.00662942 0.00331123 0.000695602 0.00545582 0.00284198 0.00155334 0.00117193 -0.00109533 -0.00148977 -0.00455331 -0.00456694 -0.014596 0.00171628 -0.0018794 0.000269015 0.000760145 0.00385346 0.00785138 0.00571457 0.000318301 -0.00131615 -0.00551691 -0.0170239 -0.0103853 -0.0119471 -0.00694803 0.000556517 0.00194 0.00472672 0.00112643 -0.00178165 -0.0080474 -0.0115625 -0.0208188 -0.00784343 -0.00285211 -2.14816e-08 0.00284666 0.00415236 0.00456207 0.00524834 0.00337933 0.00319533 0.00149352 0.000794414 -0.00600604 -0.00190371 0.00160904 0.00549212 0.00805538 0.00749094 0.00916554 0.00534078 0.00247888 0.00024458 0.00133602 -0.00162463 -0.00222537 -0.000152393 -0.00043319 0.00322706 0.00132536 0.000941536 -0.00131456 0.000543858 -0.0010116 0.0013246 0.000355483 -0.00147229 -0.00102377 -0.0020865 -0.00137581 0.00183115 0.00116282 0.000323743 0.00213426 0.00340764 0.00450523 -0.00195982 -0.00394786 0.000598589 -0.000111183 0.00244479 0.00776068 0.00587209 0.00350228 -0.000743748 -0.00426571 -0.0020903 0.00206464 0.00161174 0.00228995 0.000311161 0.00158284 0.00084959 -2.64783e-05 0.000183116 -0.000835195 0.00118227 -0.00165584 0.0100346 0.00598881 0.00193456 -0.00255417 -0.000977021 -0.00157786 -9.07888e-06 0.000317771 0.00229379 0.00228507 0.000669773 0.0079166 0.00423885 0.000898295 -0.00239751 0.00139944 0.00408208 0.00645784 0.00171794 -0.000475626 -0.00031402 -0.00537705 0.00294226 0.000983479 0.00445596 0.00148796 0.000897854 -6.96666e-06 -0.00250994 -0.00307863 -0.0042563 -0.00363461 -0.0131321 0.00160854 -0.00142176 -0.000163568 0.000726225 0.00435737 0.0069936 0.0045716 -0.000718162 -0.00102713 -0.00560321 -0.0165152 -0.0106276 -0.0115908 -0.00690952 0.00101002 0.00322128 0.0052579 0.00199093 -0.00113803 -0.00734895 -0.0117776 -0.0204431 -0.00656485 -0.00191538 0.000952716 0.00428358 0.00461912 0.00490704 0.00472853 0.00399612 0.00324405 0.000576168 -0.000386934 -0.0040319 -0.00035306 0.00289153 0.00634882 0.0081244 0.00833576 0.00912803 0.0056909 0.00210525 -0.000477839 0.000630024 -0.0004248 -0.000945485 0.000649074 0.000579938 0.00420073 0.00251511 0.000937729 -0.00191152 -0.000758206 -0.00200375 0.00133074 0.00092445 -0.00129737 -0.000406966 -0.00124124 -0.000613353 0.00265772 0.00112836 0.00136271 0.00272992 0.00358226 0.0043917 -0.000711283 -0.0041333 -0.000195165 4.78813e-05 0.00335178 0.00797608 0.0055238 0.00279139 -0.000829665 -0.00358544 -0.00201849 0.00219085 0.00167725 0.00249496 0.000487135 0.00148241 0.00140872 0.000590197 0.000957652 -0.000448328 0.00190566 -0.000874328 0.00917883 0.00462176 0.00115153 -0.00330788 -0.00102357 -0.00133711 0.000345644 0.000282892 0.00185554 0.00210042 0.00046406 0.00615558 0.00305952 0.000370268 -0.0019586 0.00242214 0.00506361 0.00692109 0.0016406 -9.20622e-05 -0.000432973 -0.00530099 0.000838658 -0.00038174 0.00386289 0.0016651 0.00146307 0.00023793 -0.00274051 -0.00266716 -0.00443464 -0.00312402 -0.0124986 0.00068693 -0.00272472 -0.000957448 -0.000146616 0.00336079 0.00607474 0.00322539 -0.00225194 -0.00172262 -0.00484226 -0.0158525 -0.0108725 -0.0116759 -0.00672128 0.00055478 0.0030238 0.00417647 0.00104405 -0.00087978 -0.00712901 -0.0104299 -0.0198873 -0.00631298 -0.00155605 0.00134666 0.00436638 0.00399499 0.00417574 0.00372046 0.00254818 0.00290689 0.000462727 0.000333627 -0.00375938 0.000285 0.00282517 0.00613236 0.00708441 0.00761467 0.00799285 0.00461589 0.00246681 -0.000294596 0.000900794 -0.000627889 -0.000823128 0.000653834 0.000462264 0.00331757 0.00238138 0.000710114 -0.00204928 0.000142532 -0.00133374 0.00122735 0.000235769 -0.00206745 -0.000874521 -0.000530102 -0.000531658 0.00315015 0.00169226 0.00203359 0.00451163 0.00534905 0.00558573 -0.000800298 -0.0038405 0.00102811 0.00205839 0.00388475 0.00842861 0.00513682 0.00376662 0.00063711 -0.00167768 -0.000767622 0.00257943 0.00239152 0.0031666 0.00223396 0.00310762 0.00338876 0.00271393 0.00236836 -0.000946828 0.00140624 -0.00133019 0.00823359 0.00451528 0.0017185 -0.00113055 0.00105841 -0.000365508 -1.03597e-05 6.85962e-06 0.000716483 0.000959195 -0.00166441 0.00639569 0.00304688 -0.000102135 -0.000646971 0.00297623 0.00531237 0.00634217 0.000491621 -0.00192617 -0.000948979 -0.00697268 0.00144323 -0.00149551 0.0028085 0.0024754 0.00200563 0.000664816 -0.00327224 -0.0048241 -0.00639892 -0.00463961 -0.014076 0.00192324 -0.0010576 -0.000277168 0.000621685 0.00337765 0.00645903 0.00378288 -0.00272897 -0.00295453 -0.00624634 -0.0168409 -0.00913744 -0.0104171 -0.00592535 0.00148457 0.00217151 0.00319669 0.000471861 -0.00216059 -0.00850494 -0.0121278 -0.0211828 -0.00677234 -0.00195909 0.000677885 0.00387799 0.00267136 0.00307362 0.00249182 0.000899802 0.00139765 -0.00144262 -0.0014574 -0.00436221 0.000365894 0.00183266 0.00549416 0.00591639 0.00599205 0.00666446 0.00371792 0.0013743 -0.00175661 -0.00103158 0.000269809 2.78937e-05 -0.000172165 0.000453724 0.00353167 0.00164071 0.000413 -0.0019928 -0.000267928 -0.00197232 0.000838416 -0.000243031 -0.0023377 -0.00167505 -0.000333853 0.000691814 0.00342784 0.00189155 0.00210088 0.00332233 0.00438513 0.00486093 5.97834e-05 -0.00330939 0.00115164 0.00300813 0.00457619 0.00944314 0.00667311 0.00529129 0.00176592 -0.00321291 -0.00197305 0.00307257 0.00277704 0.00363264 0.00323308 0.00390387 0.00433585 0.00440433 0.00289331 0.000326962 -8.36559e-06 -0.00200366 0.00743 0.00400048 0.00104271 -8.48269e-05 0.00104134 -0.000893514 0.000157399 -0.000551302 0.000216626 0.000209972 -0.00284817 0.00533751 0.00271464 -0.00145806 -0.00129786 0.00198605 0.00370553 0.00643284 0.000581104 -0.00147452 -0.00338121 -0.00938902 0.000966881 -0.00149429 0.00193241 0.00177125 -1.25257e-05 -0.000821966 -0.00339415 -0.00541559 -0.00683787 -0.00627511 -0.0166645 0.000553422 -0.00233178 -0.00236901 -0.000444469 0.00283091 0.00601753 0.0031422 -0.00387484 -0.00367946 -0.00718925 -0.018833 -0.0104351 -0.0102655 -0.00655187 0.000365994 -6.08937e-05 0.00175495 9.39949e-05 -0.0037558 -0.0101608 -0.012926 -0.0229061 -0.00638914 -0.00215718 0.000677788 0.00339878 0.00163036 0.00144724 0.000726017 -0.00054656 0.000182188 -0.00262281 -0.00253669 -0.00389111 0.000410284 0.00191527 0.00477525 0.00545938 0.00547135 0.00650254 0.00355119 0.00106534 -0.00231618 -0.00269184 0.000373025 -0.000100529 -0.000350467 0.000601659 0.00363733 0.00147237 0.000435146 -0.0024353 -0.000891536 -0.00222242 -1.1403e-05 -0.000688918 -0.00238711 -0.00101001 0.000510083 0.000660846 0.0038655 0.00140307 0.000968193 0.00280273 0.00345842 0.00329343 0.000192152 -0.00247475 0.000984079 0.0025632 0.00347123 0.00801706 0.00648487 0.00358814 -0.00133672 -0.00600664 -0.00520346 0.00261151 0.00171351 0.00201319 0.00230319 0.00303173 0.0026192 0.00252915 0.000207006 -0.00336156 -0.00320245 -0.00554074 0.00744262 0.00249674 -0.00086932 -0.00213128 -0.000241558 -0.00303721 -0.00192968 -0.00306587 -0.00314711 -0.00384261 -0.00616999 0.00515957 0.00116419 -0.00281103 -0.00265578 0.000795674 0.000668787 0.00363124 -0.00222621 -0.00513122 -0.00738537 -0.0115219 0.000555168 -0.00286463 0.000776555 0.000185977 -0.000719636 -0.00238083 -0.00554878 -0.00805708 -0.00939203 -0.00916421 -0.018163 -0.00137 -0.00446709 -0.00427012 -0.0025387 0.000940392 0.0043178 0.00111037 -0.00652976 -0.0069676 -0.00929705 -0.0206103 -0.0126919 -0.0136428 -0.00995663 -0.0030723 -0.00325912 -0.00109767 -0.00253788 -0.00604705 -0.012537 -0.015381 -0.024677 0.0228449 0.0240663 0.0239786 0.0270212 0.0288464 0.0242547 0.021371 0.0175616 0.0215672 0.023238 0.0255906 0.0205331 0.0205552 0.0190279 0.0193159 0.0176567 0.0141501 0.0118005 0.00693828 0.0119617 0.0157541 0.0188568 0.0227278 0.01969 0.0191363 0.0138614 0.00893186 0.00569339 0.00346804 -0.000846974 0.00815905 0.01417 0.0187334 0.0271868 0.0201628 0.0187128 0.0138305 0.0104724 0.0127306 0.0207414 0.0212678 0.0394167 0.0517046 0.0501847 0.0388172 0.0361773 0.0361964 0.0303066 0.0309054 0.0336539 0.0464481 0.0445371 0.0426039 0.0332052 0.0327536 0.0513128 0.0436417 0.0368138 0.0258474 0.018939 0.0147815 0.017921 0.0174799 0.0203608 0.0228315 0.0233342 0.084265 0.0684436 0.0558459 0.0377711 0.0269189 0.0178154 0.0157083 0.0177614 0.0255658 0.0238503 0.0119597 0.0794325 0.0612171 0.0490769 0.0330061 0.0282319 0.0272914 0.0340119 0.0296983 0.0226611 0.0106546 -0.00909525 0.0725576 0.0496217 0.0391912 0.0290169 0.0242867 0.0207344 0.0236856 0.0210617 0.00961994 -0.00317033 -0.0206216 0.0631178 0.0475795 0.0400544 0.0335147 0.0331657 0.0354262 0.0380943 0.0269713 0.00528637 -0.00896454 -0.0198632 0.0474868 0.0326849 0.0278136 0.027592 0.0279725 0.0293892 0.028902 0.0248084 0.00195977 -0.0107228 -0.0176592 0.00292956 0.00526365 0.00613357 0.00978013 0.0114804 0.00964631 0.00775487 0.00547616 0.00943901 0.010235 0.0120472 -0.000660286 0.000783859 0.00144918 0.00394029 0.00407496 0.00360451 0.00264075 -0.000857117 0.00151902 0.00295536 0.00569209 -0.00193972 -0.00262416 -0.000676776 -0.00302939 -0.00461507 -0.00543103 -0.00712508 -0.010348 -0.00217403 0.00197412 0.00620894 -0.000903944 -0.0049019 -0.00298223 -0.00478391 -0.0060229 -0.00148981 0.00547467 0.00559924 0.0209699 0.0318786 0.0316072 0.00451763 0.00407428 0.00636641 0.00617732 0.00940082 0.0167241 0.0279562 0.0263426 0.0246937 0.0153474 0.0153245 0.0116416 0.00789366 0.00607383 0.00242365 0.00241964 0.00597298 0.00745811 0.00697635 0.0072956 0.00902705 0.00864733 0.0375887 0.026269 0.0193995 0.00823357 0.00320586 -0.000108323 -0.000551451 0.00305394 0.0104749 0.00958009 0.000836511 0.02997 0.0174472 0.0107774 0.000431582 0.000944763 0.00555484 0.0128639 0.0117392 0.00676839 -0.00136315 -0.0161125 0.0216142 0.00708264 0.00352005 -0.00102405 -0.0013767 0.000659289 0.00281546 0.00169965 -0.00410239 -0.0128843 -0.0263906 0.0134625 0.00444825 0.00269387 0.00169657 0.00524809 0.011879 0.0158631 0.00847215 -0.00651143 -0.0178788 -0.0265647 0.00117352 -0.00829943 -0.00833918 -0.00279785 0.000444005 0.0059089 0.00694695 0.00531351 -0.00969103 -0.0201311 -0.0255132 -0.00383938 -0.00110103 0.000490933 0.00392457 0.00667456 0.00582866 0.00425142 0.00176683 0.00477842 0.0048432 0.00653755 -0.00801974 -0.00567608 -0.00379812 -0.00069465 0.000126185 0.00114805 0.000768846 -0.00264435 -0.00120098 -0.000929227 0.000436737 -0.00829911 -0.00758422 -0.00492202 -0.00628872 -0.00751103 -0.00764955 -0.00901827 -0.0123987 -0.00611712 -0.00235381 0.000171906 -0.00749125 -0.00954865 -0.00703157 -0.00840531 -0.00835562 -0.00412465 0.00176121 0.000583 0.0126766 0.022272 0.023204 -0.00377079 -0.00207224 0.000945413 0.00204251 0.00509521 0.0116762 0.0214456 0.0186758 0.0164056 0.00699629 0.00740775 0.00472559 0.00268836 0.00123329 -0.00064831 -0.000166084 0.00293711 0.00411841 0.00425647 0.00370466 0.00468129 0.00322407 0.027004 0.0177526 0.011758 0.00430227 0.00159833 -0.00216829 -0.00221968 0.00133628 0.00719128 0.0057342 -0.000623918 0.0208191 0.0110443 0.00528755 -0.00230939 -0.000616321 0.00377668 0.0104399 0.00870793 0.00306254 -0.00312433 -0.0159979 0.0115284 0.00263447 0.000889764 -0.00187722 -0.00123985 -0.000538997 -0.000238131 -0.0010817 -0.00677119 -0.0127811 -0.0251337 0.00414254 -0.00166678 -0.00276673 -0.00183156 0.00263103 0.00812604 0.0106909 0.00565804 -0.00715912 -0.0170637 -0.0254081 -0.00854577 -0.0146725 -0.0131814 -0.00610911 -0.0018496 0.0029823 0.00380727 0.00324844 -0.0108167 -0.0199848 -0.0259196 -0.0046482 -0.00149218 0.000699744 0.00312385 0.00649965 0.00543742 0.00299419 0.00175999 0.00392488 0.00298303 0.00422761 -0.00819195 -0.00577074 -0.0029401 -0.000486054 0.000489441 0.00154394 0.00096141 -0.00262665 -0.0016198 -0.00145734 -0.000508438 -0.00792435 -0.00669041 -0.00317192 -0.00499873 -0.0061545 -0.00586602 -0.00728811 -0.0116499 -0.0066111 -0.00347436 -0.000733115 -0.00724822 -0.00898071 -0.00618425 -0.00748158 -0.00704772 -0.00247251 0.00229529 -0.000411302 0.00971961 0.0172323 0.0189026 -0.00379501 -0.00315285 0.00102263 0.00200331 0.00520229 0.0108897 0.0196596 0.0162418 0.0138884 0.00474352 0.00510471 0.00419216 0.00243806 0.00180817 0.000582077 0.000801522 0.00254732 0.00363773 0.0046854 0.00398226 0.00398053 0.00219392 0.0228172 0.0143744 0.00916877 0.00338637 0.00201796 -0.00163672 -0.00148609 0.00164163 0.00622554 0.00483539 -0.000204216 0.0187257 0.00921981 0.00367135 -0.00231681 0.000293629 0.00405869 0.0108806 0.00853509 0.00316818 -0.000748238 -0.0126029 0.00986871 0.00265516 0.00146601 -0.000319534 5.05614e-05 -0.000877634 4.15824e-05 -4.08962e-05 -0.00500747 -0.00889562 -0.0206096 0.00239494 -0.00269474 -0.00233312 -0.00091518 0.00339524 0.0082425 0.0111796 0.00661983 -0.00390049 -0.0127072 -0.021603 -0.00984934 -0.0141948 -0.0114919 -0.00354603 0.000519621 0.00423884 0.00439066 0.00360774 -0.00871293 -0.0165032 -0.0230309 -0.00436478 -0.0011351 0.00139073 0.00379408 0.00630828 0.00502039 0.00331998 0.00179223 0.00402084 0.00218458 0.00377823 -0.00706173 -0.00450386 -0.00129308 0.00127443 0.00234061 0.00237892 0.00199362 -0.00257015 -0.00145521 -0.00211725 -5.54938e-05 -0.0051063 -0.00408169 -0.000541944 -0.00266364 -0.00271524 -0.00364367 -0.00445093 -0.0100324 -0.00558732 -0.00388213 -0.00042415 -0.00434327 -0.00560078 -0.00298329 -0.00445486 -0.00508414 -0.00117188 0.00249677 -0.00168636 0.00795262 0.01544 0.01602 -0.000957774 0.000255257 0.00351927 0.00357685 0.00607938 0.0110272 0.0177803 0.0151817 0.0115867 0.00285888 0.00381615 0.00586456 0.00461899 0.0047285 0.00274535 0.00214872 0.00329382 0.00363363 0.00551756 0.00303358 0.00376531 0.00173036 0.0225658 0.0146813 0.00980113 0.00281743 0.00228624 -0.000437909 -0.000161007 0.00307219 0.0065546 0.00510695 -0.000579762 0.0183603 0.00978052 0.00484151 -0.00199227 0.00103874 0.0036119 0.0102098 0.00883767 0.00296948 0.000759814 -0.0117665 0.00933607 0.00238654 0.00351874 0.00255146 0.00164674 0.000278366 -0.000345777 -0.000318215 -0.00519533 -0.00678363 -0.0183809 0.00316852 -0.00214038 4.26142e-05 0.00137266 0.00385492 0.00713724 0.00959853 0.00647498 -0.00255359 -0.0107361 -0.0204321 -0.00938684 -0.0138526 -0.00911951 -0.00183732 0.00109966 0.00425384 0.00411411 0.00315081 -0.00707465 -0.0147687 -0.0221649 -0.00461972 -0.00103205 0.00104905 0.00344795 0.00520121 0.00475903 0.00349035 0.0024572 0.00397384 0.00194265 0.00326289 -0.00731297 -0.00457885 -0.00163528 0.00169547 0.00269182 0.0029215 0.00284574 -0.00109716 -0.000739744 -0.00191399 -0.000188756 -0.00382441 -0.00300986 -0.000805273 -0.00259781 -0.00211828 -0.00296186 -0.00303587 -0.00778945 -0.00441963 -0.0033134 -0.000214304 -0.0027391 -0.0045417 -0.00250526 -0.00411402 -0.00488548 -0.000596833 0.00197734 -0.0020019 0.00484405 0.0122173 0.013516 -0.000310489 -0.000178709 0.00317091 0.00250706 0.00530135 0.00975853 0.0146279 0.0129409 0.0102697 0.00150679 0.00210864 0.00637442 0.00528246 0.0050354 0.00226238 0.00129019 0.00212641 0.00342687 0.00627626 0.00476143 0.00410461 0.00190547 0.0205615 0.0138548 0.00834366 0.00250087 0.00139387 -0.00223871 0.000822748 0.00358041 0.00684671 0.00496148 0.000169869 0.0172059 0.00988555 0.00524868 -0.000809387 0.00248336 0.00472642 0.011352 0.00885581 0.00498834 0.00160315 -0.0102706 0.00816667 0.0029876 0.00551465 0.00412926 0.00323396 0.000576164 0.000466152 -0.000828981 -0.0038032 -0.00491553 -0.0171907 0.00311997 -0.00178965 0.000630159 0.00258662 0.00452458 0.00826834 0.00907994 0.00465407 -0.00105826 -0.00830114 -0.0193904 -0.00900832 -0.0119772 -0.00701343 -0.000375922 0.00242041 0.0050216 0.00416962 0.00258352 -0.00717025 -0.0134441 -0.0216853 -0.00444142 -0.00110611 0.00190438 0.0044579 0.00537834 0.00482387 0.00403034 0.00232435 0.00331456 0.000939764 0.00176909 -0.00684783 -0.00409463 -0.000627915 0.00320371 0.00417118 0.00420681 0.00487615 0.000617979 -0.000181053 -0.00257407 -0.00114513 -0.00348786 -0.00329054 -0.00104592 -0.00211872 -0.000868958 -0.00158401 -0.00159445 -0.0056892 -0.00392202 -0.00405458 -0.00127116 -0.00216377 -0.00459419 -0.00247215 -0.00395634 -0.0039934 0.000203605 0.00179476 -0.00110173 0.00525473 0.0101466 0.0105238 -0.00150868 -0.000755963 0.00232341 0.00149698 0.00410038 0.00908439 0.0123363 0.0109161 0.00815116 0.000466785 0.00071347 0.00550261 0.0049321 0.00413835 0.00153797 0.000738558 0.00163231 0.00268707 0.0041647 0.00314217 0.00330484 0.00096927 0.0179907 0.01158 0.00640346 0.000854288 0.00091339 -0.00152335 0.000251702 0.00213791 0.00564144 0.00388475 0.000682677 0.015509 0.00888253 0.00443389 -0.00143081 0.00230108 0.0048317 0.00988767 0.0062155 0.00336132 2.6303e-05 -0.00874139 0.00797014 0.00296701 0.00621808 0.00341857 0.0026555 0.000301875 -0.000647572 -0.00200606 -0.00483215 -0.00600955 -0.0162054 0.00208025 -0.00198212 0.000668691 0.0023285 0.00345877 0.00712329 0.00726515 0.00273058 -0.00242048 -0.00863164 -0.0186689 -0.00924346 -0.0124093 -0.0078449 -0.000656031 0.00170513 0.00426038 0.00267796 0.00143232 -0.00735277 -0.0137262 -0.021841 -0.00554921 -0.00231542 0.000616164 0.00361931 0.00536713 0.00458808 0.00416683 0.00277813 0.00439345 0.00207613 0.00109672 -0.00709428 -0.00397892 -0.000587141 0.00317344 0.00484021 0.00502382 0.00622366 0.00186874 0.000994482 -0.00163094 -0.0011093 -0.00304228 -0.00320295 -0.00150132 -0.00226219 0.000426578 -0.000121625 -0.000263583 -0.00399237 -0.00255662 -0.00353274 -0.0025427 -0.00229912 -0.00415159 -0.00238024 -0.00376821 -0.00316004 0.000352745 0.00174466 -0.00130921 0.00353973 0.00670451 0.00717821 -0.00158592 -0.00121695 0.00252083 0.00141424 0.00337964 0.00841486 0.0103506 0.00810894 0.00506215 -0.00126739 -0.00157458 0.00423982 0.00467041 0.0045064 0.00264846 0.00193167 0.000735509 0.00101762 0.00181907 0.00020977 0.00212802 -0.00159383 0.0162406 0.00994675 0.00596044 0.000866424 0.000785986 -0.00167413 -0.00051038 0.000453678 0.00366107 0.0028706 -0.00119035 0.0138417 0.00727093 0.00406559 -0.000796739 0.00198316 0.00476383 0.00886748 0.00423728 0.000904321 0.000267033 -0.0079082 0.00674131 0.0018681 0.00604166 0.00373785 0.0036172 0.00064329 -0.000252217 -0.000546322 -0.00487761 -0.00534356 -0.0141265 0.00294376 -0.00131522 0.00100961 0.00249572 0.00456535 0.0071144 0.00678579 0.00325022 -0.00123493 -0.00666179 -0.0168013 -0.0088125 -0.0119775 -0.00701975 0.00044935 0.00302151 0.00547508 0.00299572 0.00198786 -0.00665394 -0.0121808 -0.0209444 -0.00600355 -0.00241105 0.000613271 0.00347555 0.00480487 0.00486832 0.00457373 0.00356366 0.00453215 0.00168902 0.00131284 -0.00750789 -0.00393305 0.000272676 0.00385678 0.00588123 0.00634486 0.00764683 0.00429476 0.00231683 -0.000538987 0.000141313 -0.00286138 -0.00357173 -0.00150146 -0.000880133 0.00212929 0.00109818 0.000230343 -0.00232105 -0.00103983 -0.00188024 -0.000442912 -0.00160252 -0.00343693 -0.00187804 -0.00366233 -0.0030755 0.000810315 0.0007099 -0.000339463 0.00263483 0.00517854 0.00658388 -0.00125951 -0.00200615 0.000820127 -6.71136e-05 0.00189361 0.00774129 0.00759123 0.00575707 0.00323038 -0.0022086 -0.00180904 0.00318898 0.00311157 0.00281266 0.00122531 0.000861795 0.000402377 0.00109173 0.00234558 -0.000394347 0.00164477 -0.00156882 0.013893 0.00816597 0.00380521 -0.000485292 0.000569685 -0.000390739 0.000406775 0.00119134 0.00318874 0.00216792 3.59782e-05 0.0101407 0.00489029 0.00132335 -0.00157742 0.00196627 0.00536788 0.00882527 0.00479782 0.00110963 -0.000811066 -0.00739196 0.00419013 0.00121081 0.00476455 0.00303716 0.00333035 0.00185183 -0.00029932 -0.00023544 -0.0037182 -0.00575317 -0.0148132 0.00195876 -0.00142643 7.62387e-05 0.00133589 0.00490051 0.00845747 0.00638671 0.00215873 -0.0013516 -0.00613729 -0.0173711 -0.0102178 -0.011544 -0.0068117 0.000774418 0.00316923 0.00552911 0.00221652 0.000438285 -0.00757613 -0.0121573 -0.0212941 -0.00753661 -0.00335454 -0.00101756 0.00308605 0.0039129 0.00452386 0.00572913 0.00424365 0.00440677 0.00126265 0.00186419 -0.00725577 -0.00327505 -0.000105275 0.00443123 0.00686174 0.00699059 0.00877574 0.00486091 0.00276187 -0.000295673 0.00184857 -0.00259267 -0.00318417 -0.00178775 -0.000843335 0.00275114 0.00115855 0.0010613 -0.00155344 0.000605435 -0.00113451 0.00194292 -0.00109535 -0.00293165 -0.00240271 -0.00300827 -0.0022849 0.00167493 0.00133025 -9.70174e-05 0.00323432 0.00537179 0.0064263 -0.00247802 -0.00349452 -0.000464683 -0.000453112 0.00155839 0.0079214 0.0070681 0.00594484 0.00309057 -0.00209689 -0.00184791 0.002044 0.00168758 0.00148131 0.00043056 0.000918999 0.00066075 0.000651074 0.00235114 0.000479987 0.00144057 -0.00109163 0.0112209 0.00604381 0.00274391 -0.00199982 -0.000296143 -0.000579493 0.000231957 0.00144835 0.00313155 0.00260576 0.000800094 0.00859015 0.00349116 0.000939712 -0.002267 0.00164722 0.00456592 0.00676629 0.00392828 0.000668747 -0.000192623 -0.00662942 0.00331123 0.000695602 0.00545582 0.00284198 0.00155334 0.00117193 -0.00109533 -0.00148977 -0.00455331 -0.00456694 -0.014596 0.00171628 -0.0018794 0.000269015 0.000760145 0.00385346 0.00785138 0.00571457 0.000318301 -0.00131615 -0.00551691 -0.0170239 -0.0103853 -0.0119471 -0.00694803 0.000556517 0.00194 0.00472672 0.00112643 -0.00178165 -0.0080474 -0.0115625 -0.0208188 -0.00784343 -0.00285211 -2.14816e-08 0.00284666 0.00415236 0.00456207 0.00524834 0.00337933 0.00319533 0.00149352 0.000794414 -0.00600604 -0.00190371 0.00160904 0.00549212 0.00805538 0.00749094 0.00916554 0.00534078 0.00247888 0.00024458 0.00133602 -0.00162463 -0.00222537 -0.000152393 -0.00043319 0.00322706 0.00132536 0.000941536 -0.00131456 0.000543858 -0.0010116 0.0013246 0.000355483 -0.00147229 -0.00102377 -0.0020865 -0.00137581 0.00183115 0.00116282 0.000323743 0.00213426 0.00340764 0.00450523 -0.00195982 -0.00394786 0.000598589 -0.000111183 0.00244479 0.00776068 0.00587209 0.00350228 -0.000743748 -0.00426571 -0.0020903 0.00206464 0.00161174 0.00228995 0.000311161 0.00158284 0.00084959 -2.64783e-05 0.000183116 -0.000835195 0.00118227 -0.00165584 0.0100346 0.00598881 0.00193456 -0.00255417 -0.000977021 -0.00157786 -9.07888e-06 0.000317771 0.00229379 0.00228507 0.000669773 0.0079166 0.00423885 0.000898295 -0.00239751 0.00139944 0.00408208 0.00645784 0.00171794 -0.000475626 -0.00031402 -0.00537705 0.00294226 0.000983479 0.00445596 0.00148796 0.000897854 -6.96666e-06 -0.00250994 -0.00307863 -0.0042563 -0.00363461 -0.0131321 0.00160854 -0.00142176 -0.000163568 0.000726225 0.00435737 0.0069936 0.0045716 -0.000718162 -0.00102713 -0.00560321 -0.0165152 -0.0106276 -0.0115908 -0.00690952 0.00101002 0.00322128 0.0052579 0.00199093 -0.00113803 -0.00734895 -0.0117776 -0.0204431 -0.00656485 -0.00191538 0.000952716 0.00428358 0.00461912 0.00490704 0.00472853 0.00399612 0.00324405 0.000576168 -0.000386934 -0.0040319 -0.00035306 0.00289153 0.00634882 0.0081244 0.00833576 0.00912803 0.0056909 0.00210525 -0.000477839 0.000630024 -0.0004248 -0.000945485 0.000649074 0.000579938 0.00420073 0.00251511 0.000937729 -0.00191152 -0.000758206 -0.00200375 0.00133074 0.00092445 -0.00129737 -0.000406966 -0.00124124 -0.000613353 0.00265772 0.00112836 0.00136271 0.00272992 0.00358226 0.0043917 -0.000711283 -0.0041333 -0.000195165 4.78813e-05 0.00335178 0.00797608 0.0055238 0.00279139 -0.000829665 -0.00358544 -0.00201849 0.00219085 0.00167725 0.00249496 0.000487135 0.00148241 0.00140872 0.000590197 0.000957652 -0.000448328 0.00190566 -0.000874328 0.00917883 0.00462176 0.00115153 -0.00330788 -0.00102357 -0.00133711 0.000345644 0.000282892 0.00185554 0.00210042 0.00046406 0.00615558 0.00305952 0.000370268 -0.0019586 0.00242214 0.00506361 0.00692109 0.0016406 -9.20622e-05 -0.000432973 -0.00530099 0.000838658 -0.00038174 0.00386289 0.0016651 0.00146307 0.00023793 -0.00274051 -0.00266716 -0.00443464 -0.00312402 -0.0124986 0.00068693 -0.00272472 -0.000957448 -0.000146616 0.00336079 0.00607474 0.00322539 -0.00225194 -0.00172262 -0.00484226 -0.0158525 -0.0108725 -0.0116759 -0.00672128 0.00055478 0.0030238 0.00417647 0.00104405 -0.00087978 -0.00712901 -0.0104299 -0.0198873 -0.00631298 -0.00155605 0.00134666 0.00436638 0.00399499 0.00417574 0.00372046 0.00254818 0.00290689 0.000462727 0.000333627 -0.00375938 0.000285 0.00282517 0.00613236 0.00708441 0.00761467 0.00799285 0.00461589 0.00246681 -0.000294596 0.000900794 -0.000627889 -0.000823128 0.000653834 0.000462264 0.00331757 0.00238138 0.000710114 -0.00204928 0.000142532 -0.00133374 0.00122735 0.000235769 -0.00206745 -0.000874521 -0.000530102 -0.000531658 0.00315015 0.00169226 0.00203359 0.00451163 0.00534905 0.00558573 -0.000800298 -0.0038405 0.00102811 0.00205839 0.00388475 0.00842861 0.00513682 0.00376662 0.00063711 -0.00167768 -0.000767622 0.00257943 0.00239152 0.0031666 0.00223396 0.00310762 0.00338876 0.00271393 0.00236836 -0.000946828 0.00140624 -0.00133019 0.00823359 0.00451528 0.0017185 -0.00113055 0.00105841 -0.000365508 -1.03597e-05 6.85962e-06 0.000716483 0.000959195 -0.00166441 0.00639569 0.00304688 -0.000102135 -0.000646971 0.00297623 0.00531237 0.00634217 0.000491621 -0.00192617 -0.000948979 -0.00697268 0.00144323 -0.00149551 0.0028085 0.0024754 0.00200563 0.000664816 -0.00327224 -0.0048241 -0.00639892 -0.00463961 -0.014076 0.00192324 -0.0010576 -0.000277168 0.000621685 0.00337765 0.00645903 0.00378288 -0.00272897 -0.00295453 -0.00624634 -0.0168409 -0.00913744 -0.0104171 -0.00592535 0.00148457 0.00217151 0.00319669 0.000471861 -0.00216059 -0.00850494 -0.0121278 -0.0211828 -0.00677234 -0.00195909 0.000677885 0.00387799 0.00267136 0.00307362 0.00249182 0.000899802 0.00139765 -0.00144262 -0.0014574 -0.00436221 0.000365894 0.00183266 0.00549416 0.00591639 0.00599205 0.00666446 0.00371792 0.0013743 -0.00175661 -0.00103158 0.000269809 2.78937e-05 -0.000172165 0.000453724 0.00353167 0.00164071 0.000413 -0.0019928 -0.000267928 -0.00197232 0.000838416 -0.000243031 -0.0023377 -0.00167505 -0.000333853 0.000691814 0.00342784 0.00189155 0.00210088 0.00332233 0.00438513 0.00486093 5.97834e-05 -0.00330939 0.00115164 0.00300813 0.00457619 0.00944314 0.00667311 0.00529129 0.00176592 -0.00321291 -0.00197305 0.00307257 0.00277704 0.00363264 0.00323308 0.00390387 0.00433585 0.00440433 0.00289331 0.000326962 -8.36559e-06 -0.00200366 0.00743 0.00400048 0.00104271 -8.48269e-05 0.00104134 -0.000893514 0.000157399 -0.000551302 0.000216626 0.000209972 -0.00284817 0.00533751 0.00271464 -0.00145806 -0.00129786 0.00198605 0.00370553 0.00643284 0.000581104 -0.00147452 -0.00338121 -0.00938902 0.000966881 -0.00149429 0.00193241 0.00177125 -1.25257e-05 -0.000821966 -0.00339415 -0.00541559 -0.00683787 -0.00627511 -0.0166645 0.000553422 -0.00233178 -0.00236901 -0.000444469 0.00283091 0.00601753 0.0031422 -0.00387484 -0.00367946 -0.00718925 -0.018833 -0.0104351 -0.0102655 -0.00655187 0.000365994 -6.08937e-05 0.00175495 9.39949e-05 -0.0037558 -0.0101608 -0.012926 -0.0229061 -0.00638914 -0.00215718 0.000677788 0.00339878 0.00163036 0.00144724 0.000726017 -0.00054656 0.000182188 -0.00262281 -0.00253669 -0.00389111 0.000410284 0.00191527 0.00477525 0.00545938 0.00547135 0.00650254 0.00355119 0.00106534 -0.00231618 -0.00269184 0.000373025 -0.000100529 -0.000350467 0.000601659 0.00363733 0.00147237 0.000435146 -0.0024353 -0.000891536 -0.00222242 -1.1403e-05 -0.000688918 -0.00238711 -0.00101001 0.000510083 0.000660846 0.0038655 0.00140307 0.000968193 0.00280273 0.00345842 0.00329343 0.000192152 -0.00247475 0.000984079 0.0025632 0.00347123 0.00801706 0.00648487 0.00358814 -0.00133672 -0.00600664 -0.00520346 0.00261151 0.00171351 0.00201319 0.00230319 0.00303173 0.0026192 0.00252915 0.000207006 -0.00336156 -0.00320245 -0.00554074 0.00744262 0.00249674 -0.00086932 -0.00213128 -0.000241558 -0.00303721 -0.00192968 -0.00306587 -0.00314711 -0.00384261 -0.00616999 0.00515957 0.00116419 -0.00281103 -0.00265578 0.000795674 0.000668787 0.00363124 -0.00222621 -0.00513122 -0.00738537 -0.0115219 0.000555168 -0.00286463 0.000776555 0.000185977 -0.000719636 -0.00238083 -0.00554878 -0.00805708 -0.00939203 -0.00916421 -0.018163 -0.00137 -0.00446709 -0.00427012 -0.0025387 0.000940392 0.0043178 0.00111037 -0.00652976 -0.0069676 -0.00929705 -0.0206103 -0.0126919 -0.0136428 -0.00995663 -0.0030723 -0.00325912 -0.00109767 -0.00253788 -0.00604705 -0.012537 -0.015381 -0.024677 0.0228449 0.0240663 0.0239786 0.0270212 0.0288464 0.0242547 0.021371 0.0175616 0.0215672 0.023238 0.0255906 0.0205331 0.0205552 0.0190279 0.0193159 0.0176567 0.0141501 0.0118005 0.00693828 0.0119617 0.0157541 0.0188568 0.0227278 0.01969 0.0191363 0.0138614 0.00893186 0.00569339 0.00346804 -0.000846974 0.00815905 0.01417 0.0187334 0.0271868 0.0201628 0.0187128 0.0138305 0.0104724 0.0127306 0.0207414 0.0212678 0.0394167 0.0517046 0.0501847 0.0388172 0.0361773 0.0361964 0.0303066 0.0309054 0.0336539 0.0464481 0.0445371 0.0426039 0.0332052 0.0327536 0.0513128 0.0436417 0.0368138 0.0258474 0.018939 0.0147815 0.017921 0.0174799 0.0203608 0.0228315 0.0233342 0.084265 0.0684436 0.0558459 0.0377711 0.0269189 0.0178154 0.0157083 0.0177614 0.0255658 0.0238503 0.0119597 0.0794325 0.0612171 0.0490769 0.0330061 0.0282319 0.0272914 0.0340119 0.0296983 0.0226611 0.0106546 -0.00909525 0.0725576 0.0496217 0.0391912 0.0290169 0.0242867 0.0207344 0.0236856 0.0210617 0.00961994 -0.00317033 -0.0206216 0.0631178 0.0475795 0.0400544 0.0335147 0.0331657 0.0354262 0.0380943 0.0269713 0.00528637 -0.00896454 -0.0198632 0.0474868 0.0326849 0.0278136 0.027592 0.0279725 0.0293892 0.028902 0.0248084 0.00195977 -0.0107228 -0.0176592 0.00292956 0.00526365 0.00613357 0.00978013 0.0114804 0.00964631 0.00775487 0.00547616 0.00943901 0.010235 0.0120472 -0.000660286 0.000783859 0.00144918 0.00394029 0.00407496 0.00360451 0.00264075 -0.000857117 0.00151902 0.00295536 0.00569209 -0.00193972 -0.00262416 -0.000676776 -0.00302939 -0.00461507 -0.00543103 -0.00712508 -0.010348 -0.00217403 0.00197412 0.00620894 -0.000903944 -0.0049019 -0.00298223 -0.00478391 -0.0060229 -0.00148981 0.00547467 0.00559924 0.0209699 0.0318786 0.0316072 0.00451763 0.00407428 0.00636641 0.00617732 0.00940082 0.0167241 0.0279562 0.0263426 0.0246937 0.0153474 0.0153245 0.0116416 0.00789366 0.00607383 0.00242365 0.00241964 0.00597298 0.00745811 0.00697635 0.0072956 0.00902705 0.00864733 0.0375887 0.026269 0.0193995 0.00823357 0.00320586 -0.000108323 -0.000551451 0.00305394 0.0104749 0.00958009 0.000836511 0.02997 0.0174472 0.0107774 0.000431582 0.000944763 0.00555484 0.0128639 0.0117392 0.00676839 -0.00136315 -0.0161125 0.0216142 0.00708264 0.00352005 -0.00102405 -0.0013767 0.000659289 0.00281546 0.00169965 -0.00410239 -0.0128843 -0.0263906 0.0134625 0.00444825 0.00269387 0.00169657 0.00524809 0.011879 0.0158631 0.00847215 -0.00651143 -0.0178788 -0.0265647 0.00117352 -0.00829943 -0.00833918 -0.00279785 0.000444005 0.0059089 0.00694695 0.00531351 -0.00969103 -0.0201311 -0.0255132 -0.00383938 -0.00110103 0.000490933 0.00392457 0.00667456 0.00582866 0.00425142 0.00176683 0.00477842 0.0048432 0.00653755 -0.00801974 -0.00567608 -0.00379812 -0.00069465 0.000126185 0.00114805 0.000768846 -0.00264435 -0.00120098 -0.000929227 0.000436737 -0.00829911 -0.00758422 -0.00492202 -0.00628872 -0.00751103 -0.00764955 -0.00901827 -0.0123987 -0.00611712 -0.00235381 0.000171906 -0.00749125 -0.00954865 -0.00703157 -0.00840531 -0.00835562 -0.00412465 0.00176121 0.000583 0.0126766 0.022272 0.023204 -0.00377079 -0.00207224 0.000945413 0.00204251 0.00509521 0.0116762 0.0214456 0.0186758 0.0164056 0.00699629 0.00740775 0.00472559 0.00268836 0.00123329 -0.00064831 -0.000166084 0.00293711 0.00411841 0.00425647 0.00370466 0.00468129 0.00322407 0.027004 0.0177526 0.011758 0.00430227 0.00159833 -0.00216829 -0.00221968 0.00133628 0.00719128 0.0057342 -0.000623918 0.0208191 0.0110443 0.00528755 -0.00230939 -0.000616321 0.00377668 0.0104399 0.00870793 0.00306254 -0.00312433 -0.0159979 0.0115284 0.00263447 0.000889764 -0.00187722 -0.00123985 -0.000538997 -0.000238131 -0.0010817 -0.00677119 -0.0127811 -0.0251337 0.00414254 -0.00166678 -0.00276673 -0.00183156 0.00263103 0.00812604 0.0106909 0.00565804 -0.00715912 -0.0170637 -0.0254081 -0.00854577 -0.0146725 -0.0131814 -0.00610911 -0.0018496 0.0029823 0.00380727 0.00324844 -0.0108167 -0.0199848 -0.0259196 -0.0046482 -0.00149218 0.000699744 0.00312385 0.00649965 0.00543742 0.00299419 0.00175999 0.00392488 0.00298303 0.00422761 -0.00819195 -0.00577074 -0.0029401 -0.000486054 0.000489441 0.00154394 0.00096141 -0.00262665 -0.0016198 -0.00145734 -0.000508438 -0.00792435 -0.00669041 -0.00317192 -0.00499873 -0.0061545 -0.00586602 -0.00728811 -0.0116499 -0.0066111 -0.00347436 -0.000733115 -0.00724822 -0.00898071 -0.00618425 -0.00748158 -0.00704772 -0.00247251 0.00229529 -0.000411302 0.00971961 0.0172323 0.0189026 -0.00379501 -0.00315285 0.00102263 0.00200331 0.00520229 0.0108897 0.0196596 0.0162418 0.0138884 0.00474352 0.00510471 0.00419216 0.00243806 0.00180817 0.000582077 0.000801522 0.00254732 0.00363773 0.0046854 0.00398226 0.00398053 0.00219392 0.0228172 0.0143744 0.00916877 0.00338637 0.00201796 -0.00163672 -0.00148609 0.00164163 0.00622554 0.00483539 -0.000204216 0.0187257 0.00921981 0.00367135 -0.00231681 0.000293629 0.00405869 0.0108806 0.00853509 0.00316818 -0.000748238 -0.0126029 0.00986871 0.00265516 0.00146601 -0.000319534 5.05614e-05 -0.000877634 4.15824e-05 -4.08962e-05 -0.00500747 -0.00889562 -0.0206096 0.00239494 -0.00269474 -0.00233312 -0.00091518 0.00339524 0.0082425 0.0111796 0.00661983 -0.00390049 -0.0127072 -0.021603 -0.00984934 -0.0141948 -0.0114919 -0.00354603 0.000519621 0.00423884 0.00439066 0.00360774 -0.00871293 -0.0165032 -0.0230309 -0.00436478 -0.0011351 0.00139073 0.00379408 0.00630828 0.00502039 0.00331998 0.00179223 0.00402084 0.00218458 0.00377823 -0.00706173 -0.00450386 -0.00129308 0.00127443 0.00234061 0.00237892 0.00199362 -0.00257015 -0.00145521 -0.00211725 -5.54938e-05 -0.0051063 -0.00408169 -0.000541944 -0.00266364 -0.00271524 -0.00364367 -0.00445093 -0.0100324 -0.00558732 -0.00388213 -0.00042415 -0.00434327 -0.00560078 -0.00298329 -0.00445486 -0.00508414 -0.00117188 0.00249677 -0.00168636 0.00795262 0.01544 0.01602 -0.000957774 0.000255257 0.00351927 0.00357685 0.00607938 0.0110272 0.0177803 0.0151817 0.0115867 0.00285888 0.00381615 0.00586456 0.00461899 0.0047285 0.00274535 0.00214872 0.00329382 0.00363363 0.00551756 0.00303358 0.00376531 0.00173036 0.0225658 0.0146813 0.00980113 0.00281743 0.00228624 -0.000437909 -0.000161007 0.00307219 0.0065546 0.00510695 -0.000579762 0.0183603 0.00978052 0.00484151 -0.00199227 0.00103874 0.0036119 0.0102098 0.00883767 0.00296948 0.000759814 -0.0117665 0.00933607 0.00238654 0.00351874 0.00255146 0.00164674 0.000278366 -0.000345777 -0.000318215 -0.00519533 -0.00678363 -0.0183809 0.00316852 -0.00214038 4.26142e-05 0.00137266 0.00385492 0.00713724 0.00959853 0.00647498 -0.00255359 -0.0107361 -0.0204321 -0.00938684 -0.0138526 -0.00911951 -0.00183732 0.00109966 0.00425384 0.00411411 0.00315081 -0.00707465 -0.0147687 -0.0221649 -0.00461972 -0.00103205 0.00104905 0.00344795 0.00520121 0.00475903 0.00349035 0.0024572 0.00397384 0.00194265 0.00326289 -0.00731297 -0.00457885 -0.00163528 0.00169547 0.00269182 0.0029215 0.00284574 -0.00109716 -0.000739744 -0.00191399 -0.000188756 -0.00382441 -0.00300986 -0.000805273 -0.00259781 -0.00211828 -0.00296186 -0.00303587 -0.00778945 -0.00441963 -0.0033134 -0.000214304 -0.0027391 -0.0045417 -0.00250526 -0.00411402 -0.00488548 -0.000596833 0.00197734 -0.0020019 0.00484405 0.0122173 0.013516 -0.000310489 -0.000178709 0.00317091 0.00250706 0.00530135 0.00975853 0.0146279 0.0129409 0.0102697 0.00150679 0.00210864 0.00637442 0.00528246 0.0050354 0.00226238 0.00129019 0.00212641 0.00342687 0.00627626 0.00476143 0.00410461 0.00190547 0.0205615 0.0138548 0.00834366 0.00250087 0.00139387 -0.00223871 0.000822748 0.00358041 0.00684671 0.00496148 0.000169869 0.0172059 0.00988555 0.00524868 -0.000809387 0.00248336 0.00472642 0.011352 0.00885581 0.00498834 0.00160315 -0.0102706 0.00816667 0.0029876 0.00551465 0.00412926 0.00323396 0.000576164 0.000466152 -0.000828981 -0.0038032 -0.00491553 -0.0171907 0.00311997 -0.00178965 0.000630159 0.00258662 0.00452458 0.00826834 0.00907994 0.00465407 -0.00105826 -0.00830114 -0.0193904 -0.00900832 -0.0119772 -0.00701343 -0.000375922 0.00242041 0.0050216 0.00416962 0.00258352 -0.00717025 -0.0134441 -0.0216853 -0.00444142 -0.00110611 0.00190438 0.0044579 0.00537834 0.00482387 0.00403034 0.00232435 0.00331456 0.000939764 0.00176909 -0.00684783 -0.00409463 -0.000627915 0.00320371 0.00417118 0.00420681 0.00487615 0.000617979 -0.000181053 -0.00257407 -0.00114513 -0.00348786 -0.00329054 -0.00104592 -0.00211872 -0.000868958 -0.00158401 -0.00159445 -0.0056892 -0.00392202 -0.00405458 -0.00127116 -0.00216377 -0.00459419 -0.00247215 -0.00395634 -0.0039934 0.000203605 0.00179476 -0.00110173 0.00525473 0.0101466 0.0105238 -0.00150868 -0.000755963 0.00232341 0.00149698 0.00410038 0.00908439 0.0123363 0.0109161 0.00815116 0.000466785 0.00071347 0.00550261 0.0049321 0.00413835 0.00153797 0.000738558 0.00163231 0.00268707 0.0041647 0.00314217 0.00330484 0.00096927 0.0179907 0.01158 0.00640346 0.000854288 0.00091339 -0.00152335 0.000251702 0.00213791 0.00564144 0.00388475 0.000682677 0.015509 0.00888253 0.00443389 -0.00143081 0.00230108 0.0048317 0.00988767 0.0062155 0.00336132 2.6303e-05 -0.00874139 0.00797014 0.00296701 0.00621808 0.00341857 0.0026555 0.000301875 -0.000647572 -0.00200606 -0.00483215 -0.00600955 -0.0162054 0.00208025 -0.00198212 0.000668691 0.0023285 0.00345877 0.00712329 0.00726515 0.00273058 -0.00242048 -0.00863164 -0.0186689 -0.00924346 -0.0124093 -0.0078449 -0.000656031 0.00170513 0.00426038 0.00267796 0.00143232 -0.00735277 -0.0137262 -0.021841 -0.00554921 -0.00231542 0.000616164 0.00361931 0.00536713 0.00458808 0.00416683 0.00277813 0.00439345 0.00207613 0.00109672 -0.00709428 -0.00397892 -0.000587141 0.00317344 0.00484021 0.00502382 0.00622366 0.00186874 0.000994482 -0.00163094 -0.0011093 -0.00304228 -0.00320295 -0.00150132 -0.00226219 0.000426578 -0.000121625 -0.000263583 -0.00399237 -0.00255662 -0.00353274 -0.0025427 -0.00229912 -0.00415159 -0.00238024 -0.00376821 -0.00316004 0.000352745 0.00174466 -0.00130921 0.00353973 0.00670451 0.00717821 -0.00158592 -0.00121695 0.00252083 0.00141424 0.00337964 0.00841486 0.0103506 0.00810894 0.00506215 -0.00126739 -0.00157458 0.00423982 0.00467041 0.0045064 0.00264846 0.00193167 0.000735509 0.00101762 0.00181907 0.00020977 0.00212802 -0.00159383 0.0162406 0.00994675 0.00596044 0.000866424 0.000785986 -0.00167413 -0.00051038 0.000453678 0.00366107 0.0028706 -0.00119035 0.0138417 0.00727093 0.00406559 -0.000796739 0.00198316 0.00476383 0.00886748 0.00423728 0.000904321 0.000267033 -0.0079082 0.00674131 0.0018681 0.00604166 0.00373785 0.0036172 0.00064329 -0.000252217 -0.000546322 -0.00487761 -0.00534356 -0.0141265 0.00294376 -0.00131522 0.00100961 0.00249572 0.00456535 0.0071144 0.00678579 0.00325022 -0.00123493 -0.00666179 -0.0168013 -0.0088125 -0.0119775 -0.00701975 0.00044935 0.00302151 0.00547508 0.00299572 0.00198786 -0.00665394 -0.0121808 -0.0209444 -0.00600355 -0.00241105 0.000613271 0.00347555 0.00480487 0.00486832 0.00457373 0.00356366 0.00453215 0.00168902 0.00131284 -0.00750789 -0.00393305 0.000272676 0.00385678 0.00588123 0.00634486 0.00764683 0.00429476 0.00231683 -0.000538987 0.000141313 -0.00286138 -0.00357173 -0.00150146 -0.000880133 0.00212929 0.00109818 0.000230343 -0.00232105 -0.00103983 -0.00188024 -0.000442912 -0.00160252 -0.00343693 -0.00187804 -0.00366233 -0.0030755 0.000810315 0.0007099 -0.000339463 0.00263483 0.00517854 0.00658388 -0.00125951 -0.00200615 0.000820127 -6.71136e-05 0.00189361 0.00774129 0.00759123 0.00575707 0.00323038 -0.0022086 -0.00180904 0.00318898 0.00311157 0.00281266 0.00122531 0.000861795 0.000402377 0.00109173 0.00234558 -0.000394347 0.00164477 -0.00156882 0.013893 0.00816597 0.00380521 -0.000485292 0.000569685 -0.000390739 0.000406775 0.00119134 0.00318874 0.00216792 3.59782e-05 0.0101407 0.00489029 0.00132335 -0.00157742 0.00196627 0.00536788 0.00882527 0.00479782 0.00110963 -0.000811066 -0.00739196 0.00419013 0.00121081 0.00476455 0.00303716 0.00333035 0.00185183 -0.00029932 -0.00023544 -0.0037182 -0.00575317 -0.0148132 0.00195876 -0.00142643 7.62387e-05 0.00133589 0.00490051 0.00845747 0.00638671 0.00215873 -0.0013516 -0.00613729 -0.0173711 -0.0102178 -0.011544 -0.0068117 0.000774418 0.00316923 0.00552911 0.00221652 0.000438285 -0.00757613 -0.0121573 -0.0212941 -0.00753661 -0.00335454 -0.00101756 0.00308605 0.0039129 0.00452386 0.00572913 0.00424365 0.00440677 0.00126265 0.00186419 -0.00725577 -0.00327505 -0.000105275 0.00443123 0.00686174 0.00699059 0.00877574 0.00486091 0.00276187 -0.000295673 0.00184857 -0.00259267 -0.00318417 -0.00178775 -0.000843335 0.00275114 0.00115855 0.0010613 -0.00155344 0.000605435 -0.00113451 0.00194292 -0.00109535 -0.00293165 -0.00240271 -0.00300827 -0.0022849 0.00167493 0.00133025 -9.70174e-05 0.00323432 0.00537179 0.0064263 -0.00247802 -0.00349452 -0.000464683 -0.000453112 0.00155839 0.0079214 0.0070681 0.00594484 0.00309057 -0.00209689 -0.00184791 0.002044 0.00168758 0.00148131 0.00043056 0.000918999 0.00066075 0.000651074 0.00235114 0.000479987 0.00144057 -0.00109163 0.0112209 0.00604381 0.00274391 -0.00199982 -0.000296143 -0.000579493 0.000231957 0.00144835 0.00313155 0.00260576 0.000800094 0.00859015 0.00349116 0.000939712 -0.002267 0.00164722 0.00456592 0.00676629 0.00392828 0.000668747 -0.000192623 -0.00662942 0.00331123 0.000695602 0.00545582 0.00284198 0.00155334 0.00117193 -0.00109533 -0.00148977 -0.00455331 -0.00456694 -0.014596 0.00171628 -0.0018794 0.000269015 0.000760145 0.00385346 0.00785138 0.00571457 0.000318301 -0.00131615 -0.00551691 -0.0170239 -0.0103853 -0.0119471 -0.00694803 0.000556517 0.00194 0.00472672 0.00112643 -0.00178165 -0.0080474 -0.0115625 -0.0208188 -0.00784343 -0.00285211 -2.14816e-08 0.00284666 0.00415236 0.00456207 0.00524834 0.00337933 0.00319533 0.00149352 0.000794414 -0.00600604 -0.00190371 0.00160904 0.00549212 0.00805538 0.00749094 0.00916554 0.00534078 0.00247888 0.00024458 0.00133602 -0.00162463 -0.00222537 -0.000152393 -0.00043319 0.00322706 0.00132536 0.000941536 -0.00131456 0.000543858 -0.0010116 0.0013246 0.000355483 -0.00147229 -0.00102377 -0.0020865 -0.00137581 0.00183115 0.00116282 0.000323743 0.00213426 0.00340764 0.00450523 -0.00195982 -0.00394786 0.000598589 -0.000111183 0.00244479 0.00776068 0.00587209 0.00350228 -0.000743748 -0.00426571 -0.0020903 0.00206464 0.00161174 0.00228995 0.000311161 0.00158284 0.00084959 -2.64783e-05 0.000183116 -0.000835195 0.00118227 -0.00165584 0.0100346 0.00598881 0.00193456 -0.00255417 -0.000977021 -0.00157786 -9.07888e-06 0.000317771 0.00229379 0.00228507 0.000669773 0.0079166 0.00423885 0.000898295 -0.00239751 0.00139944 0.00408208 0.00645784 0.00171794 -0.000475626 -0.00031402 -0.00537705 0.00294226 0.000983479 0.00445596 0.00148796 0.000897854 -6.96666e-06 -0.00250994 -0.00307863 -0.0042563 -0.00363461 -0.0131321 0.00160854 -0.00142176 -0.000163568 0.000726225 0.00435737 0.0069936 0.0045716 -0.000718162 -0.00102713 -0.00560321 -0.0165152 -0.0106276 -0.0115908 -0.00690952 0.00101002 0.00322128 0.0052579 0.00199093 -0.00113803 -0.00734895 -0.0117776 -0.0204431 -0.00656485 -0.00191538 0.000952716 0.00428358 0.00461912 0.00490704 0.00472853 0.00399612 0.00324405 0.000576168 -0.000386934 -0.0040319 -0.00035306 0.00289153 0.00634882 0.0081244 0.00833576 0.00912803 0.0056909 0.00210525 -0.000477839 0.000630024 -0.0004248 -0.000945485 0.000649074 0.000579938 0.00420073 0.00251511 0.000937729 -0.00191152 -0.000758206 -0.00200375 0.00133074 0.00092445 -0.00129737 -0.000406966 -0.00124124 -0.000613353 0.00265772 0.00112836 0.00136271 0.00272992 0.00358226 0.0043917 -0.000711283 -0.0041333 -0.000195165 4.78813e-05 0.00335178 0.00797608 0.0055238 0.00279139 -0.000829665 -0.00358544 -0.00201849 0.00219085 0.00167725 0.00249496 0.000487135 0.00148241 0.00140872 0.000590197 0.000957652 -0.000448328 0.00190566 -0.000874328 0.00917883 0.00462176 0.00115153 -0.00330788 -0.00102357 -0.00133711 0.000345644 0.000282892 0.00185554 0.00210042 0.00046406 0.00615558 0.00305952 0.000370268 -0.0019586 0.00242214 0.00506361 0.00692109 0.0016406 -9.20622e-05 -0.000432973 -0.00530099 0.000838658 -0.00038174 0.00386289 0.0016651 0.00146307 0.00023793 -0.00274051 -0.00266716 -0.00443464 -0.00312402 -0.0124986 0.00068693 -0.00272472 -0.000957448 -0.000146616 0.00336079 0.00607474 0.00322539 -0.00225194 -0.00172262 -0.00484226 -0.0158525 -0.0108725 -0.0116759 -0.00672128 0.00055478 0.0030238 0.00417647 0.00104405 -0.00087978 -0.00712901 -0.0104299 -0.0198873 -0.00631298 -0.00155605 0.00134666 0.00436638 0.00399499 0.00417574 0.00372046 0.00254818 0.00290689 0.000462727 0.000333627 -0.00375938 0.000285 0.00282517 0.00613236 0.00708441 0.00761467 0.00799285 0.00461589 0.00246681 -0.000294596 0.000900794 -0.000627889 -0.000823128 0.000653834 0.000462264 0.00331757 0.00238138 0.000710114 -0.00204928 0.000142532 -0.00133374 0.00122735 0.000235769 -0.00206745 -0.000874521 -0.000530102 -0.000531658 0.00315015 0.00169226 0.00203359 0.00451163 0.00534905 0.00558573 -0.000800298 -0.0038405 0.00102811 0.00205839 0.00388475 0.00842861 0.00513682 0.00376662 0.00063711 -0.00167768 -0.000767622 0.00257943 0.00239152 0.0031666 0.00223396 0.00310762 0.00338876 0.00271393 0.00236836 -0.000946828 0.00140624 -0.00133019 0.00823359 0.00451528 0.0017185 -0.00113055 0.00105841 -0.000365508 -1.03597e-05 6.85962e-06 0.000716483 0.000959195 -0.00166441 0.00639569 0.00304688 -0.000102135 -0.000646971 0.00297623 0.00531237 0.00634217 0.000491621 -0.00192617 -0.000948979 -0.00697268 0.00144323 -0.00149551 0.0028085 0.0024754 0.00200563 0.000664816 -0.00327224 -0.0048241 -0.00639892 -0.00463961 -0.014076 0.00192324 -0.0010576 -0.000277168 0.000621685 0.00337765 0.00645903 0.00378288 -0.00272897 -0.00295453 -0.00624634 -0.0168409 -0.00913744 -0.0104171 -0.00592535 0.00148457 0.00217151 0.00319669 0.000471861 -0.00216059 -0.00850494 -0.0121278 -0.0211828 -0.00677234 -0.00195909 0.000677885 0.00387799 0.00267136 0.00307362 0.00249182 0.000899802 0.00139765 -0.00144262 -0.0014574 -0.00436221 0.000365894 0.00183266 0.00549416 0.00591639 0.00599205 0.00666446 0.00371792 0.0013743 -0.00175661 -0.00103158 0.000269809 2.78937e-05 -0.000172165 0.000453724 0.00353167 0.00164071 0.000413 -0.0019928 -0.000267928 -0.00197232 0.000838416 -0.000243031 -0.0023377 -0.00167505 -0.000333853 0.000691814 0.00342784 0.00189155 0.00210088 0.00332233 0.00438513 0.00486093 5.97834e-05 -0.00330939 0.00115164 0.00300813 0.00457619 0.00944314 0.00667311 0.00529129 0.00176592 -0.00321291 -0.00197305 0.00307257 0.00277704 0.00363264 0.00323308 0.00390387 0.00433585 0.00440433 0.00289331 0.000326962 -8.36559e-06 -0.00200366 0.00743 0.00400048 0.00104271 -8.48269e-05 0.00104134 -0.000893514 0.000157399 -0.000551302 0.000216626 0.000209972 -0.00284817 0.00533751 0.00271464 -0.00145806 -0.00129786 0.00198605 0.00370553 0.00643284 0.000581104 -0.00147452 -0.00338121 -0.00938902 0.000966881 -0.00149429 0.00193241 0.00177125 -1.25257e-05 -0.000821966 -0.00339415 -0.00541559 -0.00683787 -0.00627511 -0.0166645 0.000553422 -0.00233178 -0.00236901 -0.000444469 0.00283091 0.00601753 0.0031422 -0.00387484 -0.00367946 -0.00718925 -0.018833 -0.0104351 -0.0102655 -0.00655187 0.000365994 -6.08937e-05 0.00175495 9.39949e-05 -0.0037558 -0.0101608 -0.012926 -0.0229061 -0.00638914 -0.00215718 0.000677788 0.00339878 0.00163036 